tree
version=v4
num_class=1
num_tree_per_iteration=1
label_index=0
max_feature_idx=15
objective=regression
feature_names=Column_0 Column_1 Column_2 Column_3 Column_4 Column_5 Column_6 Column_7 Column_8 Column_9 Column_10 Column_11 Column_12 Column_13 Column_14 Column_15
feature_infos=[0:300.77877500000017] [0:302.54958055651082] [0:97.236526503334801] [-1:1] [0:98.994619363288905] [-7.5776495726508415:9.8796153846140271] [-466.66666666673075:466.66666666691316] [-96.314040017200128:96.865303763039051] [-4.3563721066107783:6.1006788955736431] [-13.679999999999978:19.164999999999935] [-0.12452690576769711:5.4170184991429373] [-0.17075819991966804:1.9999805772616488] [-7.735769554891581:14.617508011549351] [-0.07735769554891582:0.14617508011549354] [0:1.1461750801154935] [0:23.399228452029423]
tree_sizes=1698 1874 1499 1239 1788 1479 2015 1813 1222 1763 1335 1597 1688 1681 1734 1657 1744 1709 1744 1717 1862 1639 1818 1557 1729 1394 2308 1587 1781 1682 1196 1434 1617 1554 1507 1973 1446 1552 1509 1892 1575 1915 1537 1246 2026 1854 1830 1548 1567 1532 1708 1607 1747 1588 1544 1618 1395 1526 1827 2215 1506 1639 1459 1729 1140 1266 1465 1353 1441 1397 2172 1662 1862 1483 1367 1872 1405 1938 1970 1543 1055 1291 1623 1838 1772 929 1332 1590 1198 1449 1420 1799 1699 1232 1807 1869 1379 1490 1434 1257

Tree=0
num_leaves=15
num_cat=0
split_feature=12 3 11 11 5 5 9 9 10 10 8 8 15 10
split_gain=0.0033434 0.000815686 0.000464278 0.000304673 0.000316195 0.000132791 0.000109866 0.000179033 8.26326e-05 7.00453e-05 6.3175e-05 0.000342108 4.20779e-05 1.89667e-05
threshold=-0.42887143586221027 0.042535254771651855 0.0077044683790914318 9.0493329586346932e-05 0.020583386752594638 -0.14052259615241167 0.24618333333332745 -0.057399999999999445 -0.00070013999242050701 -0.0050322722766238445 0.14939487698460532 -0.16236095247128943 0.1958775587489455 0.0011467965124410961
decision_type=4 4 4 4 6 6 4 6 6 6 6 6 6 6
left_child=2 6 8 9 5 -5 7 -2 10 -3 11 -1 -9 -11
right_child=1 3 -4 4 -6 -7 -8 12 -10 13 -12 -13 -14 -15
leaf_value=-3.9836328584623231e-06 -1.844040936280813e-05 -1.439446213281893e-05 -1.5473450184226065e-05 -2.0492291124992091e-05 -1.12849720989708e-05 -1.4714530307073353e-05 -1.9395564526431881e-05 -1.5473450184226065e-05 -1.5473450184226065e-05 -1.5943468903458748e-05 -1.5473450184226065e-05 -1.1321638050081962e-05 -1.6546337361280947e-05 -1.8993936494226093e-05
leaf_weight=23438 74004 8304 6218 4290 35816 19794 40651 17716 3918 34338 1882 18713 100690 6579
leaf_count=23438 74004 8304 6218 4290 35816 19794 40651 17716 3918 34338 1882 18713 100690 6579
internal_value=-1.54735e-05 -1.6619e-05 -8.59892e-06 -1.45739e-05 -1.30778e-05 -1.54735e-05 -1.76409e-05 -1.71921e-05 -7.59303e-06 -1.609e-05 -7.14787e-06 -6.88515e-06 -1.62853e-05 -1.68007e-05
internal_weight=0 342182 54169 109121 59900 24084 233061 192410 47951 49221 44033 42151 118406 40917
internal_count=396351 342182 54169 109121 59900 24084 233061 192410 47951 49221 44033 42151 118406 40917
is_linear=0
shrinkage=1


Tree=1
num_leaves=19
num_cat=0
split_feature=10 15 1 9 5 0 13 0 10 4 14 5 12 12 12 4 4 13
split_gain=0.00429272 0.0008354 0.000960552 0.000547001 0.000217656 0.000488793 0.000363363 0.000540693 0.000139547 9.72072e-05 9.06523e-05 8.86592e-05 8.73548e-05 8.61701e-05 5.97454e-05 5.08098e-05 2.36093e-05 8.34368e-09
threshold=-0.0058948687290312695 0.43797024362654208 245.15569031271835 -0.81850000000002499 0.01782558760794473 121.39154583333216 0.022889546677231976 140.07788888888646 -0.0030264400452950494 92.303841650792123 1.004931835777829 0.0065822115396159129 0.40224239274503365 -0.88284495587228606 -0.20140081989801215 23.321904810017987 28.110882220008936 -0.0025514794990300006
decision_type=4 6 6 6 6 4 6 6 6 6 6 6 6 6 4 6 6 6
left_child=1 17 3 13 5 8 10 -8 9 -2 15 -7 -5 -3 -10 -6 -12 -1
right_child=4 2 -4 12 6 11 7 -9 14 -11 16 -13 -14 -15 -16 -17 -18 -19
leaf_value=3.5083223642934997e-08 0 2.2088962533988209e-05 -8.9455104844755002e-06 8.1977210512029861e-06 1.3053814746116048e-06 -4.5950687108982247e-06 -3.4099119214758508e-05 0 0 8.5594553413738529e-06 0 0 0 8.4563429746459406e-06 -1.5348375866574366e-06 0 -2.1576219369319716e-06 0
leaf_weight=6099 24943 7224 1436 25523 35215 48899 700 477 17185 1540 9028 2074 2241 5515 92131 93605 19020 3318
leaf_count=6099 24943 7224 1436 25523 35215 48899 700 477 17185 1540 9028 2074 2241 5515 92131 93605 19020 3318
internal_value=0 8.23852e-06 1.00518e-05 1.10961e-05 -1.05349e-06 -1.75609e-06 -1.28259e-07 -1.67207e-05 -6.81999e-07 9.80979e-07 0 -4.32322e-06 7.67771e-06 1.73666e-05 -1.2221e-06 3.32962e-07 -1.54903e-06 0
internal_weight=0 51356 41939 40503 344817 186772 158045 1177 135799 26483 156868 50973 27764 12739 109316 128820 28048 9417
internal_count=396173 51356 41939 40503 344817 186772 158045 1177 135799 26483 156868 50973 27764 12739 109316 128820 28048 9417
is_linear=0
shrinkage=0.03


Tree=2
num_leaves=14
num_cat=0
split_feature=10 13 14 6 11 13 3 3 15 12 13 15 10
split_gain=0.00330011 0.000997392 0.000987369 0.0006671 0.000345839 0.000299122 0.000282658 0.000213339 0.00035503 0.000139483 0.000101138 1.29168e-05 1.76803e-06
threshold=-0.0044332065558751995 -0.0033375230878555356 0.99424038283567395 107.42490425466461 -0.00090633323512680903 0.0044730363032338865 -0.0064278410750781842 -0.33333333333348625 2.3427783208746136 0.20045492154985303 0.0039393399986594616 0.20516475510295701 0.013792541211293486
decision_type=4 4 6 6 6 4 4 6 4 4 4 4 6
left_child=1 2 -1 7 5 -5 12 11 9 -9 -3 -2 -6
right_child=3 10 -4 4 6 -7 -8 8 -10 -11 -12 -13 -14
leaf_value=1.2663993441516979e-05 0 2.1977018599160803e-06 1.3726414416201262e-06 0 0 -8.6235688828721961e-06 4.464801399937771e-06 -1.2154381730101345e-06 -6.6141306088438057e-06 -3.3659754637440266e-06 -1.6079431201030903e-06 1.431248130490383e-06 -1.3059445145217481e-06
leaf_weight=26183 2691 26970 13885 10220 9772 4290 32950 187820 17057 47735 3586 12528 931
leaf_count=26183 2691 26970 13885 10220 9772 4290 32950 187820 17057 47735 3586 12528 931
internal_value=0 5.93515e-06 9.12574e-06 -1.21643e-06 1.55808e-06 -1.85561e-06 3.0364e-06 -1.87497e-06 -2.10518e-06 -1.71495e-06 1.26013e-06 9.60497e-07 0
internal_weight=0 70624 40068 325994 58163 14510 43653 267831 252612 235555 30556 15219 10703
internal_count=396618 70624 40068 325994 58163 14510 43653 267831 252612 235555 30556 15219 10703
is_linear=0
shrinkage=0.03


Tree=3
num_leaves=12
num_cat=0
split_feature=11 10 9 3 15 1 14 14 14 14 13
split_gain=0.00539143 0.00180919 0.000926631 0.000678708 0.000524328 0.000495333 0.000246109 0.000239778 0.000177211 0.000102731 7.21291e-05
threshold=-0.044537654882871917 -0.0075625758960912639 0.77800000000000591 0.033411735532471336 0.69937851551012986 232.15450181782504 0.99339689300712397 1.0168160941440854 0.99630347148805776 0.99982584019236365 0.001702329644993553
decision_type=4 4 6 4 6 6 4 4 4 6 4
left_child=2 5 4 6 -1 10 -3 9 -8 -5 -2
right_child=1 3 -4 7 -6 -7 8 -9 -10 -11 -12
leaf_value=0 7.8201349949424601e-06 1.919824229996264e-06 0 0 5.4950085801191341e-05 -4.2943601077362259e-06 0 -9.105425921621621e-06 -2.4736051569976265e-06 1.6530444684638651e-06 0
leaf_weight=350 29091 9898 212 42417 2021 1994 20617 1915 206989 77332 2911
leaf_count=350 29091 9898 212 42417 2021 1994 20617 1915 206989 77332 2911
internal_value=0 -3.57232e-07 4.31031e-05 -1.01932e-06 4.8737e-05 6.19615e-06 -1.9703e-06 7.13843e-07 -2.20539e-06 9.9628e-07 7.31872e-06
internal_weight=0 393164 2583 359168 2371 33996 237504 121664 227606 119749 32002
internal_count=395747 393164 2583 359168 2371 33996 237504 121664 227606 119749 32002
is_linear=0
shrinkage=0.03


Tree=4
num_leaves=18
num_cat=0
split_feature=13 5 11 13 3 13 0 0 15 0 8 6 1 7 7 0 10
split_gain=0.00268357 0.000731829 0.000463934 0.000426851 0.000265471 0.00091003 0.000780275 0.000253421 0.000108116 0.000309762 0.000129676 9.55718e-05 0.00029835 8.28661e-05 6.4786e-05 4.36303e-05 4.70082e-08
threshold=-0.013838531657186485 -0.23384561965899306 -0.0051826791094629976 0.0028234789773836431 0.041666666666626585 -0.0072722979116646028 236.41141666666667 250.11623749999953 0.57357333981668568 142.20766249999903 0.0034740975325744058 69.449661012915016 53.641006184401569 13.834957425316667 -15.291339252406944 30.255287777775553 -0.0025866936169315299
decision_type=4 6 6 4 4 6 4 6 4 6 6 4 6 6 4 6 6
left_child=1 2 -1 4 5 7 -7 -2 10 14 15 12 -6 -11 -10 -5 -3
right_child=3 16 -4 8 11 6 -8 -9 9 13 -12 -13 -14 -15 -16 -17 -18
leaf_value=3.3963867592101351e-05 7.7181503912999583e-06 1.6255952567196227e-07 0 0 5.21528620522317e-06 -4.6279274009175237e-07 -1.1259038874388148e-05 0 0 -3.368612106601359e-06 7.1668271594839329e-07 3.5323496619545427e-06 0 6.1791440900230818e-07 -5.1789799501622002e-06 -4.9245903591607598e-06 0
leaf_weight=3006 15229 1599 402 538 11259 198065 6442 268 239 5974 18580 22882 55967 17720 30741 6036 359
leaf_count=3006 15229 1599 402 538 11259 198065 6442 268 239 5974 18580 22882 55967 17720 30741 6036 359
internal_value=0 2.11167e-05 2.99184e-05 -2.35613e-07 2.24479e-07 -2.80057e-07 -8.76329e-07 6.61998e-06 -2.21082e-06 -2.98596e-06 0 1.62277e-06 7.49598e-07 0 -4.97322e-06 -4.03686e-06 0
internal_weight=0 5366 3408 389940 310112 220004 204507 15497 79828 54674 25154 90108 67226 23694 30980 6574 1958
internal_count=395306 5366 3408 389940 310112 220004 204507 15497 79828 54674 25154 90108 67226 23694 30980 6574 1958
is_linear=0
shrinkage=0.03


Tree=5
num_leaves=14
num_cat=0
split_feature=12 3 14 10 5 11 7 15 14 3 13 13 11
split_gain=0.00206101 0.000642055 0.000624263 0.000621625 0.000224595 0.000756171 0.000524193 0.000204012 0.000185559 0.000184099 0.000129178 0.000116653 9.28508e-05
threshold=-1.1104440895099708 -0.006612663430842743 0.99759087387993961 -0.0048832157039878287 -0.087388942306032988 -0.0057772098939531799 28.299561660811623 0.42372604208986675 0.99883336038969217 0.025862068965522279 -0.0029355121420965159 0.0021582871078462875 0.0030117352829673221
decision_type=4 4 4 6 6 4 6 6 6 4 6 4 4
left_child=3 2 10 7 5 -3 8 -1 -6 -8 -2 -4 -9
right_child=1 4 11 -5 6 -7 9 12 -10 -11 -12 -13 -14
leaf_value=0 1.8859061447545256e-06 2.64655261361107e-06 -2.1036758278449179e-06 0 2.1549305663666721e-06 -5.0614487376412815e-06 0 1.8795781869392508e-05 -1.9719413528023929e-07 5.855595931748778e-06 -1.877013371298677e-06 -4.977814301540823e-06 0
leaf_weight=688 37627 20081 89662 1437 38030 23305 4191 7423 109826 24894 6857 31455 392
leaf_count=688 37627 20081 89662 1437 38030 23305 4191 7423 109826 24894 6857 31455 392
internal_value=0 -3.8914e-07 -1.82437e-06 1.34423e-05 6.21525e-07 -1.14816e-06 1.14023e-06 1.66435e-05 3.06367e-07 4.86326e-06 9.68627e-07 -2.97403e-06 1.80243e-05
internal_weight=0 385928 165601 9940 220327 43386 176941 8503 147856 29085 44484 121117 7815
internal_count=395868 385928 165601 9940 220327 43386 176941 8503 147856 29085 44484 121117 7815
is_linear=0
shrinkage=0.03


Tree=6
num_leaves=20
num_cat=0
split_feature=7 14 10 15 5 10 3 11 11 11 7 15 15 4 5 5 14 15 3
split_gain=0.000794114 0.00322276 0.00150168 0.000952718 0.000667316 0.000650119 0.000503644 0.000260838 0.000217895 0.000327759 0.000214049 9.98197e-05 9.12481e-05 7.34001e-05 4.94945e-05 2.01895e-05 1.96643e-05 1.06017e-05 7.4608e-06
threshold=-3.4874155535342304 0.98072035390719969 -0.0030543531004665935 0.44573070177433022 -0.12822916666444681 -0.007376199692805869 0.083150583916453649 0.0092941484294917654 0.012464376817518759 0.0010259933020201992 2.8887751094782619 0.54541278528988069 0.56792155441422065 32.711595128495524 0.038326068376573381 0.86350320512887901 0.99984927813520386 0.42372604208986675 -0.087368421052597275
decision_type=4 4 6 6 6 6 6 6 6 6 4 6 4 6 6 4 6 6 4
left_child=1 5 3 17 10 7 12 -1 9 -8 -2 14 -6 -5 -4 -13 -10 -3 -14
right_child=4 2 11 13 6 -7 8 -9 16 -11 -12 15 18 -15 -16 -17 -18 -19 -20
leaf_value=4.7591457640931883e-05 0 -1.0289694414830654e-06 -1.094132344974086e-06 3.2012951973868671e-06 -4.2476364639242437e-07 0 -2.115020107411494e-06 0 0 3.2981894856450159e-06 -1.2108285934553031e-05 -3.3958206843397164e-06 0 7.1362645606309446e-06 1.2504021426397056e-06 0 7.2291172333178653e-06 0 -2.2888559888818187e-06
leaf_weight=1748 4850 22369 43945 25595 74457 162 16473 56 1069 21378 6712 30659 9356 37680 4638 123 7283 1300 85784
leaf_count=1748 4850 22369 43945 25595 74457 162 16473 56 1069 21378 6712 30659 9356 37680 4638 123 7283 1300 85784
internal_value=0 1.58856e-06 1.04419e-06 3.82484e-06 -1.12948e-06 3.99682e-05 -6.77098e-07 4.54393e-05 1.96385e-06 5.46069e-07 -8.2742e-06 -1.81302e-06 -1.48503e-06 5.78176e-06 -5.61531e-07 -3.3008e-06 6.59199e-06 -7.73007e-07 -2.15711e-06
internal_weight=0 168275 166309 86944 227362 1966 215800 1804 46203 37851 11562 79365 169597 63275 48583 30782 8352 23669 95140
internal_count=395637 168275 166309 86944 227362 1966 215800 1804 46203 37851 11562 79365 169597 63275 48583 30782 8352 23669 95140
is_linear=0
shrinkage=0.03


Tree=7
num_leaves=18
num_cat=0
split_feature=10 14 3 10 4 1 5 11 15 15 0 3 2 5 0 5 3
split_gain=0.000730945 0.00332511 0.000603412 0.000568002 0.000372149 0.000420085 0.000226244 0.000446843 0.000127198 0.000140412 0.000119912 8.93874e-05 4.40768e-05 3.78089e-05 3.13138e-05 3.07292e-05 1.27391e-05
threshold=-0.0017477326904928804 0.99082621497613155 0.024745110098576471 -0.015140560086773584 35.325566053769457 120.7414210298496 -0.037414316238070448 0.0006512418321477512 0.17158221681201735 0.2470318012734532 30.991193194442275 -0.09259259259256504 9.9058903247907022 0.10997435897579068 120.04604166666469 -0.12176527777632982 0.22258786173051789
decision_type=4 4 4 4 6 6 6 6 4 4 6 6 4 6 6 4 6
left_child=1 13 8 10 15 -6 12 14 -2 -10 -3 -9 -4 -1 -8 -5 -14
right_child=2 3 6 4 5 -7 7 11 9 -11 -12 -13 16 -15 -16 -17 -18
leaf_value=1.586661305165332e-05 0 0 0 -5.4905099984941362e-07 2.7573515932102307e-06 -2.884494810017673e-06 0 0 0 -2.8026309806529144e-06 1.2410572255674096e-05 3.4451405172930799e-06 -7.2111305681278867e-07 0 -2.9796494556173135e-06 -3.1120472599323292e-06 -6.3777731233208173e-06
leaf_weight=13493 11547 335 3188 25116 44372 14063 19479 4699 17454 131691 3920 50778 13385 472 8581 30328 2961
leaf_count=13493 11547 335 3188 25116 44372 14063 19479 4699 17454 131691 3920 50778 13385 472 8581 30328 2961
internal_value=0 1.67524e-06 -1.05098e-06 0 -3.63495e-07 1.14284e-06 6.29543e-07 1.41862e-06 -2.22224e-06 -2.46744e-06 1.07958e-05 3.06816e-06 -1.97691e-06 1.55179e-05 -1.30813e-06 -2.22161e-06 -2.66399e-06
internal_weight=0 132099 263763 118134 113879 58435 103071 83537 160692 149145 4255 55477 19534 13965 28060 55444 16346
internal_count=395862 132099 263763 118134 113879 58435 103071 83537 160692 149145 4255 55477 19534 13965 28060 55444 16346
is_linear=0
shrinkage=0.03


Tree=8
num_leaves=11
num_cat=0
split_feature=7 13 4 10 13 15 3 10 15 11
split_gain=0.00113965 0.000703682 0.000603169 0.000864307 0.000488612 0.000333438 0.000403742 0.000121872 8.9675e-05 7.11138e-05
threshold=-38.667602756530961 -0.0034693128107998795 90.148464914669589 -0.0072859787980546461 -0.013838531657186485 0.90701321602775586 -0.00083775488241719326 0.00039904046452046384 0.49909004183598532 0.00122781592868447
decision_type=4 6 6 4 6 4 4 6 6 6
left_child=1 4 3 9 -1 8 -7 -4 -5 -2
right_child=2 -3 7 5 -6 6 -8 -9 -10 -11
leaf_value=2.2862053653963446e-05 5.0753216206651246e-06 -1.8316155180739447e-07 7.7144829865150175e-06 0 5.8586651664189522e-06 -4.6261899694787034e-06 -4.4886983319254753e-07 5.4429292172377797e-07 -1.1624328993521928e-06 0
leaf_weight=3011 23453 5838 9145 146451 14160 46891 53852 9718 82178 642
leaf_count=3011 23453 5838 9145 146451 14160 46891 53852 9718 82178 642
internal_value=0 6.5527e-06 -3.20812e-07 -6.37407e-07 9.71605e-06 -1.07596e-06 -2.54215e-06 4.81606e-06 -3.64274e-07 4.73461e-06
internal_weight=0 23009 372330 353467 17171 329372 100743 18863 228629 24095
internal_count=395339 23009 372330 353467 17171 329372 100743 18863 228629 24095
is_linear=0
shrinkage=0.03


Tree=9
num_leaves=18
num_cat=0
split_feature=7 5 12 0 6 14 10 0 0 0 1 14 5 5 5 7 11
split_gain=0.00136807 0.00153835 0.00092816 0.000636318 0.000458696 0.000541178 0.000202831 0.000191561 0.000132017 0.000107705 0.000102306 0.000179088 2.13043e-05 2.13967e-05 2.79866e-06 2.03641e-06 1.25705e-08
threshold=-43.258957487536229 -0.33603707264845178 -0.55435730308140962 166.44348472222089 120.19575309634484 1.0079947443713027 -0.001473599705456423 51.635132083331484 247.78122916666652 53.067681249998152 163.92836030447469 1.0018287365109499 -0.11131570512718268 -0.14448456196436507 -0.0042788461536815694 -21.462732725944658 -0.0023732818269639792
decision_type=4 6 4 4 6 4 6 4 6 4 6 6 6 6 4 4 4
left_child=1 8 3 6 5 9 -2 -7 -1 -4 11 -6 13 -3 -14 -5 -8
right_child=2 12 4 15 10 7 16 -9 -10 -11 -12 -13 14 -15 -16 -17 -18
leaf_value=2.0106862659344624e-05 8.6061610286132886e-06 2.7062563529424134e-06 0 0 3.8567042362883914e-06 0 0 -1.1558020900020801e-05 0 -1.3265879820789644e-06 4.9810216230024712e-06 -2.4901933398037643e-07 -9.676271661724787e-07 0 0 -3.9018755788077357e-06 5.1838915641216588e-08
leaf_weight=6625 18393 5149 73617 3633 11688 5118 548 6658 225 217252 9094 26634 3442 1441 234 2271 4208
leaf_count=6625 18393 5149 73617 3633 11688 5118 548 6658 225 217252 9094 26634 3442 1441 234 2271 4208
internal_value=0 8.28808e-06 -3.8224e-07 4.69325e-06 -8.4635e-07 -1.30527e-06 7.13899e-06 -7.8039e-06 1.93306e-05 -9.90545e-07 1.7664e-06 6.1194e-07 0 1.67379e-06 -4.3807e-07 -2.35565e-06 0
internal_weight=0 17116 379114 29053 350061 302645 23149 11776 6850 290869 47416 38322 10266 6590 3676 5904 4756
internal_count=396230 17116 379114 29053 350061 302645 23149 11776 6850 290869 47416 38322 10266 6590 3676 5904 4756
is_linear=0
shrinkage=0.03


Tree=10
num_leaves=13
num_cat=0
split_feature=13 11 15 10 10 7 12 10 12 4 15 15
split_gain=0.00288414 0.000412754 0.00041006 0.000278342 0.000249461 0.000158419 0.000272514 0.000160582 0.000110785 5.69617e-05 4.85861e-05 1.0591e-05
threshold=-0.0051071526302031165 -0.040879731575382584 8.9727055428274465 -4.4123328024779015e-05 -0.0047017466804791354 7.4665529777798385 0.40224239274503365 -0.0080486918848345339 -0.01825804325751856 19.432080593678524 3.9072853388899476 0.69408496912236128
decision_type=4 4 6 6 6 6 4 6 6 6 6 6
left_child=3 2 10 4 -1 7 8 11 -7 -8 -2 -3
right_child=1 5 -4 -5 -6 6 9 -9 -10 -11 -12 -13
leaf_value=9.9644193608188265e-06 2.6185866707905617e-05 0 0 0 1.8572796245281765e-06 -1.1978999014032615e-06 0 -1.5889322875750128e-06 1.4498478103448899e-06 -2.3219877449192175e-06 0 1.9454099237160238e-06
leaf_weight=28620 1058 4131 91 5314 9500 11305 3989 206786 76280 40739 142 8579
leaf_count=28620 1058 4131 91 5314 9500 11305 3989 206786 76280 40739 142 8579
internal_value=0 -7.53546e-07 1.5585e-05 7.4327e-06 8.33769e-06 -8.56227e-07 0 -1.35078e-06 9.36813e-07 -1.94028e-06 2.38393e-05 1.34347e-06
internal_weight=0 353100 1291 43434 38120 351809 132313 219496 87585 44728 1200 12710
internal_count=396534 353100 1291 43434 38120 351809 132313 219496 87585 44728 1200 12710
is_linear=0
shrinkage=0.03


Tree=11
num_leaves=16
num_cat=0
split_feature=3 13 12 7 11 4 5 11 13 4 11 7 11 11 11
split_gain=0.000510147 0.0022739 0.00048171 0.000342081 0.000323331 0.000193708 0.00022251 0.000175532 0.000159594 0.000269184 0.000105491 3.12966e-05 1.68869e-05 6.91714e-06 2.34406e-07
threshold=0.0071428571428520044 -0.0040019202494171362 -1.2817287987869128 -32.396411819161742 0.0084860728584194422 35.95701682354786 0.0056295405999442502 -0.0087521479901579106 0.0045250281383967042 44.717695666849473 -0.0078983299144124285 13.579994783368923 -0.023175815488510897 0.034638705049387659 -0.019841716756336961
decision_type=4 4 6 6 4 6 6 4 6 6 6 4 6 6 6
left_child=1 2 3 -1 10 6 7 -2 9 -7 -3 -4 -8 -9 -14
right_child=5 4 11 -5 -6 8 12 13 -10 -11 -12 -13 14 -15 -16
leaf_value=2.1104067175228718e-05 2.0937825567522572e-06 0 3.7363309780226171e-06 0 -5.8790410522960535e-06 0 0 -2.0626846890011651e-06 0 4.2842486026855532e-06 -2.1546945194279012e-06 0 0 0 1.7673979005483556e-06
leaf_weight=3272 8646 23028 33710 1530 25902 20052 465 43184 13066 43938 126602 185 229 244 51601
leaf_count=3272 8646 23028 33710 1530 25902 20052 465 43184 13066 43938 126602 185 229 244 51601
internal_value=0 -9.89807e-07 5.47311e-06 1.54741e-05 -2.50009e-06 1.1721e-06 1.68807e-07 -1.05033e-06 2.33631e-06 2.96941e-06 -1.81486e-06 3.6129e-06 1.66961e-06 -2.02174e-06 1.76233e-06
internal_weight=0 214229 38697 4802 175532 181425 104369 52074 77056 63990 149630 33895 52295 43428 51830
internal_count=395654 214229 38697 4802 175532 181425 104369 52074 77056 63990 149630 33895 52295 43428 51830
is_linear=0
shrinkage=0.03


Tree=12
num_leaves=16
num_cat=0
split_feature=10 5 15 14 0 11 0 15 13 0 5 11 11 14 9
split_gain=0.00234503 0.000546943 0.000485541 0.000927594 0.000334012 0.000257972 0.000192582 0.00098445 0.000308388 0.000152024 7.32896e-05 7.20488e-05 3.62017e-05 7.81076e-06 1.82048e-06
threshold=-0.00411654674485351 -0.06960849358921449 0.47064783496777279 0.99438065258648534 85.645993055553546 0.0013774846112647105 138.65616527777632 0.48008065665030397 -0.00057378600918481476 77.490035833331277 0.18439524572830382 -0.0027806844662070181 -0.011517184933361133 0.99619322804051491 0.076666666666678665
decision_type=4 6 6 6 4 6 6 6 4 6 6 4 6 6 6
left_child=2 4 14 -4 -2 9 7 -7 -8 -3 -11 12 -6 -5 -1
right_child=1 5 3 13 11 6 8 -9 -10 10 -12 -13 -14 -15 -16
leaf_value=3.1449879996875322e-07 0 -2.4235503506865768e-07 1.1104502915237506e-05 0 0 2.5675587803889475e-06 -1.3590242022580687e-06 -3.2720359294323866e-06 4.0584420175775454e-06 -1.5893840706082112e-06 -5.5534284885585539e-06 -6.8413977511353587e-06 -2.3440721418514292e-06 2.8908206479650483e-06 0
leaf_weight=16563 14058 72470 23058 7780 1055 52855 9216 50389 27535 47942 10893 23778 10477 26240 1641
leaf_count=16563 14058 72470 23058 7780 1055 52855 9216 50389 27535 47942 10893 23778 10477 26240 1641
internal_value=0 -1.01196e-06 4.86792e-06 6.23776e-06 -3.9558e-06 -4.20962e-07 3.93309e-07 -1.37223e-07 2.29178e-06 -1.40335e-06 -2.57841e-06 -5.51281e-06 -1.47216e-06 2.49784e-06 0
internal_weight=0 320668 75282 57078 49368 271300 139995 103244 36751 131305 58835 35310 11532 34020 18204
internal_count=395950 320668 75282 57078 49368 271300 139995 103244 36751 131305 58835 35310 11532 34020 18204
is_linear=0
shrinkage=0.03


Tree=13
num_leaves=16
num_cat=0
split_feature=14 6 6 12 3 11 15 4 11 15 3 10 10 11 10
split_gain=0.00145509 0.000267509 0.000184367 0.000276732 0.000569167 0.000180741 8.09812e-05 7.70725e-05 0.00166643 6.53532e-05 6.01381e-05 2.70006e-05 0.000100271 1.4895e-05 1.21949e-05
threshold=0.9968502689402895 -39.88612481930506 -124.57337292345336 0.47751766223778086 0.0089285714286394032 -0.00076723670160829623 0.47439033818149096 31.459817317017002 -0.023175815488510897 1.4847577257464781 -0.35373025243153894 0.0028061835520774392 -0.011090142116038856 0.0022105568935669034 0.00018307491104921312
decision_type=4 4 6 4 4 6 6 6 6 6 6 6 6 4 6
left_child=1 7 10 4 6 -5 -4 11 -9 -6 -2 12 -1 -3 -10
right_child=2 13 3 5 9 -7 -8 8 14 -11 -12 -13 -14 -15 -16
leaf_value=7.1175726334795168e-06 0 0 -3.2555141861165939e-07 -6.1799702574489496e-06 8.5745247214558094e-07 -1.044340893148194e-06 -2.2250755229587049e-06 2.263689573323507e-05 3.1247766981735859e-06 3.8288531969873397e-06 -4.1856978554282556e-06 0 6.9222570856033738e-07 -2.2619935086718668e-06 0
leaf_weight=4537 1165 5730 55771 12531 108389 33596 78487 4849 29218 11984 19656 1554 20999 2618 4860
leaf_count=4537 1165 5730 55771 12531 108389 33596 78487 4849 29218 11984 19656 1554 20999 2618 4860
internal_value=0 3.80322e-06 -8.52838e-07 -6.03503e-07 -1.53037e-07 -2.76488e-06 -1.54775e-06 4.46546e-06 5.68994e-06 1.27795e-06 -3.73371e-06 2.15199e-06 2.42165e-06 0 2.83721e-06
internal_weight=0 74365 321579 300758 254631 46127 134258 66017 38927 120373 20821 27090 25536 8348 34078
internal_count=395944 74365 321579 300758 254631 46127 134258 66017 38927 120373 20821 27090 25536 8348 34078
is_linear=0
shrinkage=0.03


Tree=14
num_leaves=17
num_cat=0
split_feature=12 10 11 12 7 6 5 0 10 11 10 10 5 1 3 5
split_gain=0.00231196 0.000537163 0.000734534 0.00043694 0.000835224 0.000448922 0.000320105 0.000257057 0.000741052 0.000156347 0.000146598 0.000111781 7.08429e-05 5.31129e-05 2.96098e-05 6.04981e-06
threshold=-1.0354517306987829 0.0027792097583542782 -0.03274841448661555 0.23132255724945819 31.365743597479057 62.149815679295607 0.028403525642325182 60.857621249998012 -0.0032014897660915913 0.0055109537793012666 -0.0095738588470255116 0.00095106788884814959 -0.064918643160947184 117.92805065440727 -0.14635254988915078 0.050013247863756057
decision_type=4 6 6 4 6 6 6 4 6 6 6 6 6 4 6 6
left_child=1 2 6 5 10 7 -1 8 -2 15 -5 -7 -11 -9 -13 -6
right_child=3 -3 -4 4 9 11 -8 13 -10 12 -12 14 -14 -15 -16 -17
leaf_value=3.5416720142893527e-05 4.9115621597680304e-06 0 8.5090954294733405e-06 0 0 3.7822835509572805e-07 0 -1.1187929915224253e-07 -7.2544052773011256e-07 0 -4.337888722613522e-06 0 4.0265626565757746e-06 -1.6522392031977867e-06 4.4525223159411196e-06 -9.3686344843267856e-07
leaf_weight=2247 28729 618 8926 1924 1652 22788 145 55824 67576 244 64417 2527 18861 87810 25946 6264
leaf_count=2247 28729 618 8926 1924 1652 22788 145 55824 67576 244 64417 2527 18861 87810 25946 6264
internal_value=0 1.30556e-05 1.49152e-05 -3.46176e-07 -2.14598e-06 1.79362e-07 3.25274e-05 -3.09417e-07 8.00464e-07 1.93723e-06 -4.0352e-06 2.75974e-06 3.55939e-06 -1.15801e-06 4.13881e-06 -8.32867e-08
internal_weight=0 11936 11318 384562 93362 291200 2392 239939 96305 27021 66341 51261 19105 143634 28473 7916
internal_count=396498 11936 11318 384562 93362 291200 2392 239939 96305 27021 66341 51261 19105 143634 28473 7916
is_linear=0
shrinkage=0.03


Tree=15
num_leaves=16
num_cat=0
split_feature=10 10 5 2 12 15 15 5 4 0 0 3 15 10 3
split_gain=0.00215156 0.000991352 0.000280813 0.000452842 0.00026212 0.000189508 0.000182088 0.000169908 0.000167976 0.00018421 0.000136599 0.000101701 6.23817e-05 5.08811e-05 3.71942e-05
threshold=-0.0041528694746124084 -0.0090298622916303167 0.012586805556686899 16.90200089478396 0.3277978405859972 0.52474221046174041 1.4501708579616386 0.058430074788235593 93.376476929101315 52.556044305553719 139.04060277777566 0.0086981741148190427 0.28958238759408156 0.0029961333241792193 0.020073017015106678
decision_type=4 6 6 4 4 6 6 6 6 6 6 4 4 6 6
left_child=1 6 11 5 10 13 -1 -8 9 -5 -3 -2 -13 -4 -14
right_child=2 4 3 8 -6 -7 7 -9 -10 -11 -12 12 14 -15 -16
leaf_value=5.5517415040321732e-06 -2.8490225926251674e-06 3.4603640815001166e-06 1.3022344942263556e-06 -4.1051769664031002e-06 -5.5931915167133451e-06 0 1.4675700900223398e-05 0 3.3897150688585004e-06 -7.4389910134935186e-07 0 0 0 5.3885618520066675e-06 -2.0754239045699388e-06
leaf_weight=17245 85352 30348 23279 28143 3177 32937 9758 619 3745 64349 13578 23886 14201 12140 33634
leaf_count=17245 85352 30348 23279 28143 3177 32937 9758 619 3745 64349 13578 23886 14201 12140 33634
internal_value=0 4.5229e-06 -1.12617e-06 -1.5869e-07 1.48601e-06 1.60318e-06 9.15813e-06 1.37039e-05 -1.56599e-06 -1.92889e-06 2.33972e-06 -2.04446e-06 -8.778e-07 3.12654e-06 -1.52608e-06
internal_weight=0 74725 321666 164593 47103 68356 27622 10377 96237 92492 43926 157073 71721 35419 47835
internal_count=396391 74725 321666 164593 47103 68356 27622 10377 96237 92492 43926 157073 71721 35419 47835
is_linear=0
shrinkage=0.03


Tree=16
num_leaves=17
num_cat=0
split_feature=14 3 13 10 11 7 8 8 11 8 13 2 13 7 1 8
split_gain=0.00196175 0.000526154 0.000554565 0.000376542 0.000149036 0.000400837 0.000129669 0.000110733 0.00010326 0.000378666 9.03001e-05 4.55384e-05 1.57098e-05 7.12899e-05 2.59113e-05 1.08193e-05
threshold=0.99348497547427683 0.064745895591234823 0.0051673852732259844 -0.0013982074299721051 -0.00090633323512680903 33.153054612674097 0.036703089940838894 -0.18999961440208182 0.014780276876420929 -0.21117573808744833 -0.0012120030124313033 22.263236679958521 -0.00047857194160098242 -0.07145626151948474 55.299809272615015 0.046062007714313173
decision_type=4 4 4 6 6 6 6 4 6 6 6 6 6 6 6 6
left_child=3 2 7 8 12 15 -7 11 9 -1 -9 -2 14 -14 -3 -6
right_child=1 4 -4 -5 5 6 -8 10 -10 -11 -12 -13 13 -15 -16 -17
leaf_value=1.2668115991276247e-05 2.0143365341005798e-06 2.7843343135804209e-06 -5.5469860571865439e-06 0 0 0 7.3725647477949765e-06 -2.109428150833366e-06 0 3.0779571924966406e-06 -5.5241210065103043e-07 0 8.0387312535312419e-08 -2.3477707525232592e-06 0 8.9985475360604459e-07
leaf_weight=14024 12976 3176 27354 4163 26777 1367 13491 68257 334 12065 149213 12558 8749 13954 12349 15400
leaf_count=14024 12976 3176 27354 4163 26777 1367 13491 68257 334 12065 149213 12558 8749 13954 12349 15400
internal_value=0 -6.89134e-07 -1.39034e-06 7.21571e-06 1.14344e-06 2.12966e-06 6.44213e-06 -8.60677e-07 8.54947e-06 8.80858e-06 -1.1101e-06 6.76144e-07 0 -7.51465e-07 2.91277e-07 2.54607e-07
internal_weight=0 365621 270358 30586 95263 57035 14858 243004 26423 26089 217470 25534 38228 22703 15525 42177
internal_count=396207 365621 270358 30586 95263 57035 14858 243004 26423 26089 217470 25534 38228 22703 15525 42177
is_linear=0
shrinkage=0.03


Tree=17
num_leaves=17
num_cat=0
split_feature=8 10 12 10 6 1 7 15 15 13 10 2 9 11 11 3
split_gain=0.00194959 0.000952665 0.000733935 0.000600391 0.000441039 0.000314847 0.00028108 0.000236245 0.000180593 5.78018e-05 5.05644e-05 4.18133e-05 2.97289e-05 2.49686e-05 3.13658e-05 4.0195e-07
threshold=-0.42739931124948921 -0.012773452008229986 -2.6531765528843616 -0.0041528694746124084 148.5876256338307 212.15715181373011 -5.4397576206900196 0.25204853299137758 0.45166059399948272 -0.0023601943957014299 0.0017635560951104257 29.875480279360122 0.46109999999999834 0.023353536327077668 -0.011517184933361133 0.25409463487331146
decision_type=4 6 6 6 6 6 6 4 4 6 6 6 6 4 6 4
left_child=1 2 -1 5 7 6 -2 10 -9 -7 -5 12 15 14 -6 -3
right_child=3 11 -4 4 13 9 -8 8 -10 -11 -12 -13 -14 -15 -16 -17
leaf_value=5.9432213498892633e-05 3.8865332584486752e-06 3.2190851833815585e-07 1.2388051158040841e-05 -1.4633984192459391e-07 0 -5.8000396406995071e-06 -1.999427675636563e-06 0 -2.2632974491871544e-06 0 1.6984102894233107e-06 4.381780862982451e-06 -6.1692624751831343e-06 0 3.0269322377459956e-06 0
leaf_weight=552 50470 3489 8166 48974 678 3434 4950 54952 174129 2159 15504 1958 701 1735 24415 411
leaf_count=552 50470 3489 8166 48974 678 3434 4950 54952 174129 2159 15504 1958 701 1735 24415 411
internal_value=0 1.05245e-05 1.70999e-05 -4.03993e-07 -9.56603e-07 2.25192e-06 3.09011e-06 -1.32721e-06 -1.78444e-06 -3.37067e-06 6.46466e-08 0 0 2.53941e-06 2.79104e-06 0
internal_weight=0 15277 8718 381400 320387 61013 55420 293559 229081 5593 64478 6559 4601 26828 25093 3900
internal_count=396677 15277 8718 381400 320387 61013 55420 293559 229081 5593 64478 6559 4601 26828 25093 3900
is_linear=0
shrinkage=0.03


Tree=18
num_leaves=18
num_cat=0
split_feature=8 11 15 3 12 13 15 7 6 6 0 9 11 0 14 0 12
split_gain=0.00196887 0.00120115 0.000729715 0.00036384 0.000419991 0.000323382 0.00222194 0.000316881 0.000268201 0.00024607 0.000195568 0.000124218 8.44355e-05 7.62322e-05 3.78846e-05 9.51875e-06 3.83433e-05
threshold=-0.43704720867560426 -0.034277424581177447 3.466361878976127 0.010628949322570776 -0.26528775758056783 0.01172679231903802 1.6923359860017404 33.546062795263701 29.180302297185033 -22.643402859573182 73.988844861109087 -0.12881666666666544 0.015235813861172565 29.41483777777551 1.0018098634757928 239.41478611111111 0.13723099805866837
decision_type=4 4 4 4 4 6 6 6 6 6 4 6 4 6 6 6 4
left_child=1 5 3 4 11 6 -1 13 10 12 -4 -2 14 -5 -3 16 -10
right_child=2 9 8 7 -6 -7 -8 -9 15 -11 -12 -13 -14 -15 -16 -17 -18
leaf_value=0 1.9982803522540539e-06 8.9309722572130586e-06 0 4.0187116132447653e-06 -1.7326905151018593e-06 0 5.323281657352771e-05 4.5796253517680356e-06 0 0 -1.1026011038928443e-05 -2.4450599700866904e-06 0 8.6369135042402718e-08 0 0 -3.2512705433077128e-06
leaf_weight=1265 44328 7402 304 5184 157209 102 1701 19883 906 3594 9305 3655 300 134115 144 2577 4073
leaf_count=1265 44328 7402 304 5184 157209 102 1701 19883 906 3594 9305 3655 300 134115 144 2577 4073
internal_value=0 1.08655e-05 -3.93102e-07 -6.65943e-08 -9.39383e-07 2.87359e-05 3.08576e-05 9.64233e-07 -6.44953e-06 4.7578e-06 -9.97066e-06 1.34713e-06 7.82446e-06 3.40447e-07 8.58623e-06 0 -1.31145e-06
internal_weight=0 14508 381539 364374 205192 3068 2966 159182 17165 11440 9609 47983 7846 139299 7546 7556 4979
internal_count=396047 14508 381539 364374 205192 3068 2966 159182 17165 11440 9609 47983 7846 139299 7546 7556 4979
is_linear=0
shrinkage=0.03


Tree=19
num_leaves=17
num_cat=0
split_feature=11 9 14 3 1 11 6 8 1 1 0 6 12 11 12 7
split_gain=0.00186909 0.000681852 0.000422293 0.00035255 0.00121225 0.000308406 0.000282134 0.000225504 0.000211259 0.0001982 0.000190467 0.00010036 5.8522e-05 2.55805e-05 1.20588e-05 7.85494e-06
threshold=-0.024257880631030408 -0.42500000000000776 1.0043158895271784 -0.0040000000000795797 217.37645619063775 -0.0049518056559436389 59.106589651005898 -0.13779183418606836 57.963765768519174 144.08424815353212 24.320338333331041 107.42490425466461 0.61446394729373088 -0.002503520925524787 0.5357195498906232 12.957072831899332
decision_type=4 6 4 4 4 6 6 6 6 6 4 6 6 4 6 6
left_child=1 7 3 4 5 -2 8 -1 -5 10 -4 -6 14 -8 -3 -11
right_child=2 12 9 6 11 -7 13 -9 -10 15 -12 -13 -14 -15 -16 -17
leaf_value=2.1331013743368632e-05 1.8610970575022608e-06 3.9747776097307769e-06 1.1228428151093427e-06 1.6417289808830742e-06 -1.2386214278723323e-05 -1.1569089135209762e-06 0 0 -8.8327928809462535e-07 -1.6930941243015689e-06 -4.8463905400168948e-06 0 0 3.2225651019037606e-06 0 9.3731079215075062e-08
leaf_weight=5371 40556 4501 1116 49854 8651 108619 12131 945 71602 2422 32988 461 1115 42334 159 13758
leaf_count=5371 40556 4501 1116 49854 8651 108619 12131 945 71602 2422 32988 461 1115 42334 159 13758
internal_value=0 1.16304e-05 -3.47383e-07 0 -9.87878e-07 -2.35842e-07 9.6204e-07 1.8837e-05 2.96704e-08 -2.91217e-06 -4.2112e-06 -1.16511e-05 1.14845e-06 2.76573e-06 3.59612e-06 0
internal_weight=0 12091 384492 334208 158287 149175 175921 6316 121456 50284 34104 9112 5775 54465 4660 16180
internal_count=396583 12091 384492 334208 158287 149175 175921 6316 121456 50284 34104 9112 5775 54465 4660 16180
is_linear=0
shrinkage=0.03


Tree=20
num_leaves=18
num_cat=0
split_feature=14 11 10 3 4 10 15 7 1 3 3 10 10 2 2 10 13
split_gain=0.00164303 0.000362263 0.000677563 0.000324205 0.000320722 0.000264666 0.00015666 0.000115539 0.000112333 0.000219163 0.000164341 6.94644e-05 6.53751e-05 5.68561e-05 2.77918e-05 6.21781e-06 3.39208e-06
threshold=0.99451151086103806 -0.011275711499012886 -0.013676024967098598 -0.013442536829660586 68.788249052126062 -0.013676024967098598 0.23581150961931274 -12.511397494053604 152.54762840460552 0.03409090909088288 0.0011742259725747173 0.00027427754757563595 0.00264489312077703 11.86487020251098 27.194313854013775 0.00078384999513245385 0.0031468503727899639
decision_type=4 6 6 4 6 6 4 4 6 4 4 6 6 4 4 6 6
left_child=1 2 -1 5 6 -2 11 -8 9 -6 -10 -5 -3 16 -15 -4 -7
right_child=3 12 15 4 8 13 7 -9 10 -11 -12 -13 -14 14 -16 -17 -18
leaf_value=1.6303224404251006e-05 8.7061369410722591e-06 3.3255716992092454e-06 1.7702326426117967e-06 0 1.0985785102670145e-07 -3.4499691331663066e-07 9.8715700398903001e-07 -1.0854163446160922e-06 0 6.005650259239895e-06 1.8455439947758981e-05 2.7641461880603462e-06 0 -1.300431765529472e-06 -3.2401439293678356e-06 0 0
leaf_weight=8330 1747 20424 8068 18126 29071 26096 22715 124623 357 9562 1188 18704 2588 63314 36890 53 3645
leaf_count=8330 1747 20424 8068 18126 29071 26096 22715 124623 357 9562 1188 18704 2588 63314 36890 53 3645
internal_value=0 6.09382e-06 9.93656e-06 -3.39132e-07 2.99365e-07 -1.54074e-06 -1.54342e-07 -6.64075e-07 2.7523e-06 1.9576e-06 1.28994e-05 1.47751e-06 2.69428e-06 -1.79407e-06 -2.16428e-06 1.55704e-06 -4.23653e-08
internal_weight=0 39463 16451 356038 224346 131692 184168 147338 40178 38633 1545 36830 23012 129945 100204 8121 29741
internal_count=395501 39463 16451 356038 224346 131692 184168 147338 40178 38633 1545 36830 23012 129945 100204 8121 29741
is_linear=0
shrinkage=0.03


Tree=21
num_leaves=16
num_cat=0
split_feature=10 3 0 11 15 15 14 15 8 15 6 8 14 11 8
split_gain=0.00190562 0.00044635 0.000359876 0.00115697 0.000241371 0.000481749 0.000223229 0.000201153 7.4886e-05 7.96154e-05 4.30888e-05 1.29817e-05 3.90367e-06 1.04576e-06 1.57961e-05
threshold=-0.0052354363303100124 0.0035842293906783707 214.7648305555546 -0.034277424581177447 0.3997228935783671 1.9581900611179937 0.99619322804051491 0.46321912046658137 0.45732750363841235 0.52272539166546739 -4.9890516657601944 0.12491880247692817 1.0010667999395497 -0.00048273751870208103 -0.49507683005980413
decision_type=6 4 6 6 6 6 4 4 4 4 4 6 6 6 6
left_child=2 6 3 4 -1 -6 -2 12 9 10 -3 -11 -8 14 -4
right_child=1 8 13 -5 5 -7 7 -9 -10 11 -12 -13 -14 -15 -16
leaf_value=0 6.4847876961283318e-07 0 0 4.0658177803177142e-06 4.6277230803895916e-06 3.5667047577957276e-05 -8.7431675678839629e-07 -3.3378937181708077e-06 -2.7500837941857848e-06 -4.6362058389306883e-07 1.6172980581984373e-06 9.6068263634502916e-08 0 0 -1.8645475974318725e-06
leaf_weight=236 17611 31433 1055 48413 2343 2078 46782 87374 6478 60174 50574 21261 15685 270 4358
leaf_count=236 17611 31433 1055 48413 2343 2078 46782 87374 6478 60174 50574 21261 15685 270 4358
internal_value=0 -8.33558e-07 5.01999e-06 5.83108e-06 2.09531e-05 2.2618e-05 -1.94152e-06 -2.34603e-06 1.70042e-07 3.77588e-07 1.06782e-06 -1.33307e-07 -7.18507e-07 0 -4.16905e-07
internal_weight=0 337372 58753 53070 4657 4421 167452 149841 169920 163442 82007 81435 62467 5683 5413
internal_count=396125 337372 58753 53070 4657 4421 167452 149841 169920 163442 82007 81435 62467 5683 5413
is_linear=0
shrinkage=0.03


Tree=22
num_leaves=18
num_cat=0
split_feature=8 14 7 11 7 0 0 0 10 11 14 6 10 15 3 4 9
split_gain=0.00100441 0.00133771 0.000306858 0.000377968 0.000243983 0.00022812 0.000270157 0.000212723 0.000331 0.000191981 0.000185865 0.000130083 0.000118938 8.12845e-05 6.35073e-05 1.24922e-05 4.82115e-06
threshold=-0.22548010558809831 0.99282251266009858 18.44716724076622 -0.0083545014594119706 1.7665405726308097 140.07788888888646 199.7973180555546 58.081980138886955 -0.0017879444433657845 -0.0025363565521241862 1.0018492563319827 52.371931619769661 -0.0034519787359253316 0.80185437849429064 0.14393939393937374 28.170524691892435 -0.024999999999963048
decision_type=4 6 6 4 6 6 6 4 6 4 6 6 6 6 4 6 6
left_child=1 9 7 15 13 10 -7 8 12 -1 -5 -9 -2 -3 -10 -4 -6
right_child=2 4 3 5 16 6 -8 11 14 -11 -12 -13 -14 -15 -16 -17 -18
leaf_value=1.4219015557878105e-05 3.8673202202278835e-06 0 0 3.1322006669266654e-06 0 9.3514815999308763e-07 9.2030493014134137e-06 -2.0625683915877047e-06 -1.3676653625067074e-06 0 -8.6982801076581009e-07 0 0 3.3541513184936324e-06 4.5505065217749334e-07 -1.510663730900583e-05 -6.52341498511528e-06
leaf_weight=10896 21536 12441 648 14854 278 16605 7676 128427 73933 1674 29487 35121 14830 15276 8106 1060 3140
leaf_count=10896 21536 12441 648 14854 278 16605 7676 128427 73933 1674 29487 35121 14830 15276 8106 1060 3140
internal_value=0 4.37126e-06 -4.44994e-07 1.23973e-06 5.22795e-07 1.77886e-06 4.16715e-06 -9.18436e-07 0 1.27089e-05 1.32639e-07 -1.62012e-06 2.43188e-06 1.88724e-06 -1.00473e-06 -1.16257e-05 -6.15037e-06
internal_weight=0 43705 352283 70330 31135 68622 24281 281953 118405 12570 44341 163548 36366 27717 82039 1708 3418
internal_count=395988 43705 352283 70330 31135 68622 24281 281953 118405 12570 44341 163548 36366 27717 82039 1708 3418
is_linear=0
shrinkage=0.03


Tree=23
num_leaves=15
num_cat=0
split_feature=5 7 13 6 6 10 3 5 12 12 2 3 11 10
split_gain=0.000929739 0.000703199 0.00037397 0.000285258 0.000277904 0.000191325 0.000451163 0.000278924 0.000164121 7.17179e-05 4.84441e-05 2.76201e-05 1.49858e-05 3.90216e-05
threshold=-0.95535363247702765 -21.866250967642564 -0.0029635805768286395 -52.955309700461669 -64.586019674284799 -0.0036485412064131821 0.034614718960487192 0.027935844018902149 0.51077169943738465 0.8625333135980241 9.5166753566499018 -0.066666666666697516 -0.0058223432821091292 -0.0021190655414170148
decision_type=4 6 4 6 4 4 4 6 4 6 4 4 6 6
left_child=1 3 4 -1 12 9 8 -8 -7 10 -4 -6 13 -2
right_child=2 -3 5 -5 11 6 7 -9 -10 -11 -12 -13 -14 -15
leaf_value=2.2565568311716509e-05 3.9143222052792955e-06 0 0 0 0 -1.4834023014927979e-06 -8.7637340703662896e-07 2.1964398780487436e-06 -4.7052623541529387e-06 -3.7074092934156831e-06 2.0771309256385949e-06 -1.7820092387743398e-06 1.1749483764049488e-06 0
leaf_weight=3330 27231 1678 2055 868 2435 157868 52364 47676 22645 875 32469 15366 28691 730
leaf_count=3330 27231 1678 2055 868 2435 157868 52364 47676 22645 875 32469 15366 28691 730
internal_value=0 1.17176e-05 -2.84338e-07 1.8516e-05 1.56388e-06 -7.67347e-07 -1.05831e-06 4.38113e-07 -1.97072e-06 1.1149e-06 1.67179e-06 -1.15971e-06 2.68446e-06 3.69676e-06
internal_weight=0 5876 390405 4198 74453 315952 280553 100040 180513 35399 34524 17801 56652 27961
internal_count=396281 5876 390405 4198 74453 315952 280553 100040 180513 35399 34524 17801 56652 27961
is_linear=0
shrinkage=0.03


Tree=24
num_leaves=17
num_cat=0
split_feature=13 10 7 13 15 10 11 11 1 1 11 6 11 11 6 8
split_gain=0.00105196 0.00120726 0.000430424 0.000249456 0.000100209 0.000187543 8.08179e-05 7.86734e-05 6.74368e-05 0.000265813 8.78841e-05 5.32036e-05 4.4767e-05 0.000526661 6.83053e-06 2.1135e-06
threshold=-0.0031108229904072715 -0.011501032216630036 23.523790271284366 0.0056127554797565657 0.16695294537946051 0.0048690794419210363 0.0018849627037557887 0.030319592998076159 53.348470787785764 120.21639025824233 -0.0011306904854660354 -130.23972453190075 0.013805642231829814 -0.002437831995392888 -73.523520211276903 -0.010956792305441108
decision_type=4 6 6 4 4 4 4 6 4 4 6 4 6 4 6 6
left_child=1 -1 4 6 14 11 -4 -8 10 -10 -3 -6 13 -5 -2 -14
right_child=2 8 3 12 5 -7 7 -9 9 -11 -12 -13 15 -15 -16 -17
leaf_value=1.1494590708468731e-05 0 4.137490967302216e-06 0 -1.7561365363481399e-05 -2.9946770518194334e-06 -4.033784237268975e-06 4.485972958660182e-06 0 3.2358452606950116e-06 -1.6460752612336616e-06 0 -7.243775044266374e-07 0 0 8.0500950030412376e-07 4.6912707370824278e-07
leaf_weight=13810 6259 13775 7732 1676 15746 24196 26274 913 17061 22451 8219 207210 318 7583 14396 8641
leaf_count=13810 6259 13775 7732 1676 15746 24196 26274 913 17061 22451 8219 207210 318 7583 14396 8641
internal_value=0 3.32903e-06 -6.02673e-07 1.75643e-06 -1.12678e-06 -1.31444e-06 3.32139e-06 4.10414e-06 1.25142e-06 8.2348e-08 2.66952e-06 -9.52017e-07 -4.19923e-07 -2.16736e-06 3.92541e-07 0
internal_weight=0 75316 320944 53137 267807 247152 34919 27187 61506 39512 21994 222956 18218 9259 20655 8959
internal_count=396260 75316 320944 53137 267807 247152 34919 27187 61506 39512 21994 222956 18218 9259 20655 8959
is_linear=0
shrinkage=0.03


Tree=25
num_leaves=13
num_cat=0
split_feature=13 1 11 11 3 3 5 5 6 6 2 4
split_gain=0.00116271 0.000521471 0.000319993 0.000195316 0.000518685 0.000105733 9.21989e-05 0.000234818 8.8997e-05 5.60333e-05 3.64032e-05 2.57518e-05
threshold=-0.0061101593486562944 23.730129923143007 0.0079262928306484941 -0.011034476555125738 -0.0026315789473473406 0.04974807087015734 0.38650908119738864 -0.25117574786307267 -32.617201213270135 104.20337889395508 32.451399257149141 31.963771339917923
decision_type=4 4 6 4 4 4 6 6 6 6 4 6
left_child=2 -2 6 8 10 -6 7 -1 -3 -10 -5 -4
right_child=1 3 11 4 5 -7 -8 -9 9 -11 -12 -13
leaf_value=1.0829246247082505e-05 1.1783785340012694e-05 3.0559428102234188e-06 -3.9099898791789349e-06 -1.6417514276725903e-06 -6.3455943897205391e-07 8.053899322530503e-07 0 3.2256332762462787e-06 7.2516457674761975e-07 -3.5876959918811692e-06 -3.4539828170728162e-06 0
leaf_weight=11339 2926 14907 1514 106185 81208 97536 502 18149 13826 3351 42076 2078
leaf_count=11339 2926 14907 1514 106185 81208 97536 502 18149 13826 3351 42076 2078
internal_value=0 -5.51311e-07 5.28075e-06 -6.93659e-07 -9.40793e-07 6.72661e-08 6.38972e-06 6.65863e-06 1.35757e-06 0 -2.25727e-06 0
internal_weight=0 362015 33582 359089 327005 178744 29990 29488 32084 17177 148261 3592
internal_count=395597 362015 33582 359089 327005 178744 29990 29488 32084 17177 148261 3592
is_linear=0
shrinkage=0.03


Tree=26
num_leaves=24
num_cat=0
split_feature=12 8 8 11 15 3 11 12 0 11 10 0 8 3 3 6 8 3 6 0 0 11 0
split_gain=0.000528049 0.000740421 0.000180135 0.000292121 0.000125137 0.000272304 0.000145719 0.00011405 7.57545e-05 4.66983e-05 3.82891e-05 6.43998e-05 3.29324e-05 3.09081e-05 1.53414e-05 1.2425e-05 1.17989e-05 1.72987e-05 1.0783e-05 4.75033e-06 1.60131e-06 1.43125e-06 1.67216e-07
threshold=-0.27081643134733152 -0.23889870231110777 -0.30925660340419386 -0.00042315952730093782 0.2239788279078048 -0.0034916201117336332 -0.0056231869102283385 -0.025557142799109697 75.650369166664646 -0.0022430646347860561 -0.0044332065558751995 62.12943791666472 -0.12424610282225863 -0.299999999999981 -0.016666666666607564 -10.615927058127594 0.06055336355553826 -0.35373025243153894 82.935709428018029 30.456754305553378 56.939675555553578 0.00070707854690383882 135.18933472222025
decision_type=4 4 6 4 4 4 4 6 4 6 6 6 6 6 6 6 6 4 6 6 6 4 6
left_child=1 2 3 -1 7 6 22 14 10 13 11 -3 -11 -7 -2 -9 17 -10 -17 -12 -8 -4 -6
right_child=4 8 21 -5 5 9 20 15 16 12 19 -13 -14 -15 -16 18 -18 -19 -20 -21 -22 -23 -24
leaf_value=9.9977779531491618e-06 -1.5674594282770334e-06 3.5892723286357762e-06 4.891776659969349e-07 0 1.0803551148459689e-07 0 -3.8323189245757022e-06 0 0 -9.6769316082100789e-07 0 0 5.5618318113304552e-07 -1.2102162517279933e-06 0 0 0 -1.4145407274281697e-06 2.7705486333518398e-06 4.9677411302374123e-07 -1.8016442894221376e-06 0 0
leaf_weight=14463 11778 11313 5381 1959 12892 2615 27659 5356 1183 9136 3015 527 92072 42634 9021 14975 7396 20723 15877 17322 58834 1044 8855
leaf_count=14463 11778 11313 5381 1959 12892 2615 27659 5356 1183 9136 3015 527 92072 42634 9021 14975 7396 20723 15877 17322 58834 1044 8855
internal_value=0 2.05148e-06 6.68409e-06 8.48679e-06 -6.21573e-07 -9.28465e-07 -2.07185e-06 4.86434e-07 8.57526e-08 0 1.2876e-06 2.72307e-06 2.704e-07 -8.74786e-07 -8.53011e-07 1.67011e-06 -7.22134e-07 -1.08731e-06 1.9068e-06 0 -2.62451e-06 0 0
internal_weight=0 84326 22847 16422 311704 254697 108240 57007 61479 146457 32177 11840 101208 45249 20799 36208 29302 21906 30852 20337 86493 6425 21747
internal_count=396030 84326 22847 16422 311704 254697 108240 57007 61479 146457 32177 11840 101208 45249 20799 36208 29302 21906 30852 20337 86493 6425 21747
is_linear=0
shrinkage=0.03


Tree=27
num_leaves=16
num_cat=0
split_feature=13 3 6 4 9 12 15 3 6 3 8 3 12 3 1
split_gain=0.000944236 0.000437191 0.000249613 0.000232338 9.84933e-05 9.04025e-05 3.05488e-05 1.84041e-05 5.91866e-05 9.12787e-06 5.56219e-05 1.39604e-05 1.53188e-06 3.44066e-07 1.69856e-07
threshold=-0.0039168699753748789 0.053571428571430574 -82.780099630206124 57.659750051737895 0.3464833333333282 0.23834446158509384 0.26888385504729645 0.19894736842104019 47.25107128494556 0.16666666666668764 -0.05070044629818133 -0.13157894736837525 -0.34004483810112779 0.013333333333323481 65.080443831743267
decision_type=4 4 4 6 4 6 6 4 6 6 4 4 6 6 4
left_child=2 4 6 7 5 12 -1 8 -3 10 11 -4 -2 -12 -9
right_child=1 3 9 -5 -6 -7 -8 14 -10 -11 13 -13 -14 -15 -16
leaf_value=0 0 0 0 5.1891770270688096e-06 -3.082363730826391e-06 -2.5575322591594149e-06 5.3117493058710386e-06 0 1.634012154462977e-06 0 -2.4684541065308971e-07 2.5949904750260018e-06 -5.5956546710066584e-07 0 -8.5101723663336466e-08
leaf_weight=3892 7305 26831 1315 11534 30708 31184 35688 9014 30082 1833 5080 10524 168779 1674 21106
leaf_count=3892 7305 26831 1315 11534 30708 31184 35688 9014 30082 1833 5080 10524 168779 1674 21106
internal_value=0 -5.33469e-07 3.54678e-06 1.06607e-06 -1.25902e-06 -9.1648e-07 4.97451e-06 3.4721e-07 6.89477e-07 4.57179e-08 6.66398e-07 2.21924e-06 -5.40642e-07 0 0
internal_weight=0 336543 60006 98567 237976 207268 39580 87033 56913 20426 18593 11839 176084 6754 30120
internal_count=396549 336543 60006 98567 237976 207268 39580 87033 56913 20426 18593 11839 176084 6754 30120
is_linear=0
shrinkage=0.03


Tree=28
num_leaves=18
num_cat=0
split_feature=13 0 14 15 15 2 10 11 8 8 2 2 3 0 4 11 3
split_gain=0.00148102 0.000376418 0.000176013 0.000354004 0.000266519 0.00020369 0.000136928 8.74108e-05 7.24508e-05 4.81582e-05 8.91161e-05 8.60465e-05 4.34708e-05 3.7847e-05 0.000246615 1.55303e-05 7.26035e-06
threshold=-0.0056090713079813307 177.4281583333329 1.0020600844450589 0.45939444929602841 2.9487045753049115 12.100883293936812 -0.00079528741604506178 0.0062936972496510325 0.030834179662613936 0.014012000889046002 24.863826779353758 72.384441514814966 -0.071428571428554494 113.43905833333174 31.822883984410762 -0.0070035943964483613 0.033333333333301983
decision_type=4 6 4 4 4 4 6 6 6 6 6 6 4 6 6 6 6
left_child=1 6 4 7 9 -5 -1 15 -9 11 -11 -2 -3 -6 -15 -4 -14
right_child=2 12 3 5 13 -7 -8 8 -10 10 -12 -13 16 14 -16 -17 -18
leaf_value=7.7473511472498854e-06 -6.8155195304239352e-07 2.102593936066138e-06 -2.3860855223932119e-06 0 0 -3.6272321946638861e-06 0 0 4.6606836254465027e-06 1.2850657027748523e-06 -3.602607901056217e-07 1.4291339023074994e-06 -3.4109120293231716e-06 0 -9.3213023632340236e-06 0 0
leaf_weight=27104 131846 2615 2453 13589 254 60851 4093 1327 7443 61205 37149 16569 2928 4669 5830 14406 1496
leaf_count=27104 131846 2615 2453 13589 254 60851 4093 1327 7443 61205 37149 16569 2928 4669 5830 14406 1496
internal_value=0 5.51953e-06 -6.8742e-07 -1.77856e-06 -2.05164e-07 -2.87967e-06 6.94242e-06 8.34395e-07 3.31701e-06 0 5.11112e-07 -3.44833e-07 0 -4.82812e-06 -5.20752e-06 0 -2.4951e-06
internal_weight=0 38236 357591 100069 257522 74440 31197 25629 8770 246769 98354 148415 7039 10753 10499 16859 4424
internal_count=395827 38236 357591 100069 257522 74440 31197 25629 8770 246769 98354 148415 7039 10753 10499 16859 4424
is_linear=0
shrinkage=0.03


Tree=29
num_leaves=16
num_cat=0
split_feature=13 13 10 6 14 11 3 11 11 3 10 1 11 5 6
split_gain=0.000404674 0.000495155 0.00117561 0.00017641 0.000540848 0.000418656 0.000153429 9.79538e-05 0.000123869 5.22765e-05 4.01505e-05 3.73211e-05 1.78674e-05 8.7636e-06 3.0982e-06
threshold=-0.0030217229309298034 -0.0056090713079813307 -0.019584108329001218 21.303846200120283 1.0027009682622776 -0.0030607788938497326 -0.054642306691428166 -0.015696727200443451 -0.003756861060925805 -0.10937499999998923 -0.0011452829394548601 86.045853920439768 0.0018525326270891743 0.01330032051421526 -152.23703953199967
decision_type=4 6 6 6 6 6 6 4 4 4 6 6 4 6 6
left_child=1 2 -1 7 9 -6 -4 14 -9 -5 -8 -7 -11 -3 -2
right_child=3 13 6 4 5 11 10 8 -10 12 -12 -13 -14 -15 -16
leaf_value=2.0162338866707763e-05 0 -5.4446328290349758e-07 4.638388322538669e-06 0 -6.0525722329836648e-06 -1.1019370679868672e-06 1.0117829348926276e-06 0 -2.0835697244694262e-06 8.7791373030089028e-07 -2.213138001545223e-06 6.783196446364369e-08 2.6560769311326061e-06 0 1.4115522896605118e-06
leaf_weight=4025 282 28712 13036 9559 16591 32566 17345 37874 100497 48941 3750 27099 39017 10229 6295
leaf_count=4025 282 28712 13036 9559 16591 32566 17345 37874 100497 48941 3750 27099 39017 10229 6295
internal_value=0 1.89347e-06 4.34815e-06 -5.25136e-07 3.8078e-08 -1.76349e-06 2.04269e-06 -1.30383e-06 -1.53211e-06 1.60068e-06 0 -3.19265e-07 1.83726e-06 -1.26659e-07 1.21789e-06
internal_weight=0 77097 38156 318721 173773 76256 34131 144948 138371 97517 21095 59665 87958 38941 6577
internal_count=395818 77097 38156 318721 173773 76256 34131 144948 138371 97517 21095 59665 87958 38941 6577
is_linear=0
shrinkage=0.03


Tree=30
num_leaves=12
num_cat=0
split_feature=14 12 10 6 3 7 2 3 7 7 7
split_gain=0.000814206 0.000479049 0.000299093 0.000244097 0.000269326 0.000162426 9.00375e-05 4.67292e-05 1.3916e-06 5.82846e-07 2.40988e-06
threshold=0.99688276651387342 -0.55435730308140962 -0.001529791064906801 48.686809385246335 -0.0033333333333314874 50.809414039013625 17.756107674376388 0.48598585960609314 -22.251347137296396 21.186270045769607 7.630165886006
decision_type=4 6 6 6 4 6 4 4 6 6 6
left_child=1 2 -1 7 6 -6 -5 -2 -8 10 -3
right_child=3 9 -4 4 5 -7 8 -9 -10 -11 -12
leaf_value=6.3910006004477348e-06 -1.4425264424987437e-06 2.7656110514283402e-07 0 0 7.1905171589108332e-07 5.8045251530407831e-06 0 0 -2.5552369170777509e-06 0 0
leaf_weight=32412 173547 35213 6278 20755 84114 7726 106 7596 27142 151 789
leaf_count=32412 173547 35213 6278 20755 84114 7726 106 7596 27142 151 789
internal_value=0 2.88654e-06 5.22116e-06 -5.844e-07 2.70514e-07 1.31031e-06 -1.40634e-06 -1.3272e-06 -2.54124e-06 0 1.20704e-07
internal_weight=0 74843 38690 320986 139843 91840 48003 181143 27248 36153 36002
internal_count=395829 74843 38690 320986 139843 91840 48003 181143 27248 36153 36002
is_linear=0
shrinkage=0.03


Tree=31
num_leaves=14
num_cat=0
split_feature=14 14 10 15 3 11 5 5 10 15 11 7 11
split_gain=0.000644994 0.000364396 0.000292013 0.000257327 0.000289134 0.000205445 0.000131482 0.000121202 6.92111e-05 2.41768e-05 1.09776e-05 2.84538e-06 2.1605e-09
threshold=0.99430782777397453 0.98717109272399994 -0.0031695760747254323 3.5669323302984401 0.020833333333329176 -0.00051052773907166269 -0.67875160256261313 0.0033152777790022019 0.0011646190843634721 0.46321912046658137 -0.0053279450990451468 -6.0206700038467105 -0.048316624529458389
decision_type=4 4 6 4 4 4 4 6 4 6 6 4 6
left_child=1 2 5 4 6 -1 -2 12 -3 -8 -9 -10 -6
right_child=3 8 -4 -5 7 -7 9 10 11 -11 -12 -13 -14
leaf_value=1.476287818295136e-05 5.7367955103053078e-06 2.328086730051498e-06 0 -4.3411260218773941e-06 0 0 -3.9226963325451222e-07 0 0 -1.4453590877780638e-06 1.7828981868239177e-06 -1.1954256870794285e-06 -5.4536321346646345e-09
leaf_weight=5466 1887 27869 647 15232 223 483 79128 7270 1094 127169 62878 1790 65375
leaf_count=5466 1887 27869 647 15232 223 483 79128 7270 1094 127169 62878 1790 65375
internal_value=0 3.67632e-06 1.06189e-05 -4.60341e-07 -2.44831e-07 1.3007e-05 -9.79947e-07 7.72063e-07 1.69893e-06 -1.11415e-06 1.64574e-06 0 0
internal_weight=0 37349 6596 359162 343930 5949 208184 135746 30753 206297 70148 2884 65598
internal_count=396511 37349 6596 359162 343930 5949 208184 135746 30753 206297 70148 2884 65598
is_linear=0
shrinkage=0.03


Tree=32
num_leaves=16
num_cat=0
split_feature=12 7 13 0 11 6 10 1 4 2 11 1 11 4 10
split_gain=0.00178481 0.00053676 0.000343571 0.00104041 0.000747004 0.000521138 0.000348882 0.00034433 0.000321133 0.000272356 0.000152979 0.000103066 5.27378e-05 1.94828e-05 1.88735e-05
threshold=-1.7617358192619168 -18.778352780769627 0.0028832935093349101 218.31189583333224 -0.0098282979219508713 38.618836471933655 0.0013470916958355313 119.32215345016446 88.695718200333786 32.599232640284008 0.017393298516522507 24.778001171074759 -0.0015712631387780538 35.868315299026158 -0.0079526444565202539
decision_type=4 6 4 4 6 6 6 6 6 6 6 4 6 6 6
left_child=1 10 3 4 13 -5 9 11 -6 -4 12 -8 -1 -2 -11
right_child=2 -3 6 5 8 -7 7 -9 -10 14 -12 -13 -14 -15 -16
leaf_value=3.2478256230145537e-05 2.1646823031976493e-06 0 -7.7890432901825902e-06 -9.6824941176137039e-06 0 0 5.1141492504506546e-07 2.3078987483071732e-06 4.5131598304290785e-06 2.8853652051990945e-06 0 -2.9435152752810425e-06 0 6.0661698254748778e-06 -1.1774703783255358e-06
leaf_weight=2166 18091 264 13184 13079 242349 3403 1305 22657 14947 753 84 32892 125 22651 7716
leaf_count=2166 18091 264 13184 13079 242349 3403 1305 22657 14947 753 84 32892 125 22651 7716
internal_value=0 2.47567e-05 0 4.54478e-07 9.04826e-07 -6.77814e-06 -1.76383e-06 -2.43789e-07 2.45209e-07 -5.06191e-06 2.97355e-05 -2.37304e-06 3.12512e-05 4.7021e-06 0
internal_weight=0 2639 393027 314520 298038 16482 78507 56854 257296 21653 2375 34197 2291 40742 8469
internal_count=395666 2639 393027 314520 298038 16482 78507 56854 257296 21653 2375 34197 2291 40742 8469
is_linear=0
shrinkage=0.03


Tree=33
num_leaves=15
num_cat=0
split_feature=13 10 11 3 3 11 7 12 11 15 8 1 15 11
split_gain=0.00068304 0.000373854 0.00172551 0.000322756 0.000384607 0.000179318 0.000131944 9.45894e-05 0.000385274 5.94628e-05 0.000165492 5.28804e-05 2.61279e-05 3.74773e-06
threshold=-0.011104440895099732 -0.0014930238834292358 -0.044537654882871917 -0.0033333333333314874 -0.19666666666670338 -0.01012788204184469 46.745907901139027 -0.24755934821595879 0.0058353536541840851 0.52082307080094636 0.15090726152194153 32.688436500753582 0.60204216578471625 -0.010459729943430815
decision_type=4 6 6 4 6 6 6 4 4 6 6 6 4 6
left_child=1 2 -1 4 -2 9 12 13 -9 -5 -11 -8 -7 -6
right_child=3 -3 -4 5 7 6 11 8 -10 10 -12 -13 -14 -15
leaf_value=4.3709487265513472e-05 1.9302815756848085e-06 0 2.7185374278225404e-06 0 0 2.7571130107568031e-07 0 -1.1452142635837953e-06 -5.7626817513511937e-06 5.2202249986823654e-06 0 4.0887818357423532e-06 -4.4390381965020841e-07 -3.5194280901555437e-07
leaf_weight=1268 25574 868 7736 5653 9133 92084 109 89921 24680 15302 1760 10125 83809 27832
leaf_count=1268 25574 868 7736 5653 9133 92084 109 89921 24680 15302 1760 10125 83809 27832
internal_value=0 7.75693e-06 1.01651e-05 -2.31116e-07 -1.19965e-06 5.18574e-07 1.26158e-07 -1.82675e-06 -2.27058e-06 3.07345e-06 3.96379e-06 3.44828e-06 0 -4.49426e-08
internal_weight=0 9872 9004 385982 177140 208842 186127 151566 114601 22715 17062 10234 175893 36965
internal_count=395854 9872 9004 385982 177140 208842 186127 151566 114601 22715 17062 10234 175893 36965
is_linear=0
shrinkage=0.03


Tree=34
num_leaves=15
num_cat=0
split_feature=12 6 10 12 10 3 8 1 1 8 3 15 6 2
split_gain=0.000570404 0.000415567 0.00040492 0.000464346 0.000191783 0.000147003 8.91105e-05 0.000294626 7.99336e-05 6.34462e-05 4.26128e-05 4.11717e-05 2.46873e-05 3.91682e-06
threshold=-0.79610927654875085 -69.753627526572117 -0.012229878848655435 0.52879265733571945 -0.0001641892341794616 -0.11583628841614789 0.22929466344376678 232.15450181782504 140.8046408613321 0.020213454651592386 -0.11999999999998995 0.7215284188118426 -22.643402859573182 14.295435750048531
decision_type=4 6 4 4 6 6 6 4 6 6 6 6 6 4
left_child=1 5 11 6 -5 -1 7 -4 -8 -7 -3 -2 -12 -6
right_child=2 10 3 4 13 9 8 -9 -10 -11 12 -13 -14 -15
leaf_value=1.2253641014547931e-05 0 0 -7.434248730318484e-08 -9.9170436294451546e-06 0 4.1455208977043183e-06 2.9867873828790429e-06 -5.625360250164315e-06 0 0 -5.2882068087697994e-06 8.099390207841028e-06 0 -2.5851726439638788e-06
leaf_weight=5643 1738 480 294839 5322 9140 9914 14610 9137 9651 2156 2625 5273 349 25236
leaf_count=5643 1738 480 294839 5322 9140 9914 14610 9137 9651 2156 2625 5273 349 25236
internal_value=0 4.69936e-06 -3.52793e-07 -5.268e-07 -3.6057e-06 6.8392e-06 -1.0871e-07 -2.90578e-07 1.5516e-06 3.06366e-06 -1.93158e-06 6.6377e-06 -4.14966e-06 -2.19175e-06
internal_weight=0 21167 374946 367935 39698 17713 328237 303976 24261 12070 3454 7011 2974 34376
internal_count=396113 21167 374946 367935 39698 17713 328237 303976 24261 12070 3454 7011 2974 34376
is_linear=0
shrinkage=0.03


Tree=35
num_leaves=20
num_cat=0
split_feature=10 15 8 15 8 13 2 10 15 13 10 10 8 1 5 5 2 5 6
split_gain=0.0011333 0.000119267 0.000333527 0.000249261 9.45703e-05 0.000107611 3.98339e-05 3.8907e-05 3.09803e-05 2.56701e-05 2.20237e-05 2.0955e-05 1.97133e-05 1.86854e-05 2.82441e-05 2.00528e-05 1.86147e-05 3.51444e-06 2.25639e-06
threshold=-0.0042273834533224129 0.17703983268020315 0.026269735230607164 0.39521129472929761 -0.047456378692815465 -0.0065907821597969507 17.154641210841298 0.0035224630751490428 5.3104065955620472 0.0076146091948069037 0.00042926531793068635 -0.0023343891592188305 -0.09811785611840694 179.55801973485353 0.02173125000096832 0.21318856837680758 22.814622897135838 0.14362820512872435 -65.970676297015856
decision_type=4 4 6 6 6 4 6 6 6 4 6 6 6 6 6 6 6 6 6
left_child=4 6 8 7 5 -1 10 -4 12 -7 -2 -5 -3 14 -6 -16 -8 -15 -18
right_child=1 2 3 11 13 9 16 -9 -10 -11 -12 -13 -14 17 15 -17 18 -19 -20
leaf_value=6.1343514450598819e-06 0 -3.3358032462328477e-06 4.2358419234014678e-07 0 0 2.3352932868308253e-06 -1.6448762916101182e-06 3.6293389470538684e-06 0 0 2.7735596970848992e-06 -9.9844416236583792e-07 -1.6581692649110487e-06 0 3.7200213403579996e-06 0 0 -3.0157921556085458e-06 6.4628008886814243e-07
leaf_weight=18936 10245 41831 24255 5207 6213 40583 6190 13120 2572 1010 8180 101569 102586 1058 4082 817 1835 760 4860
leaf_count=18936 10245 41831 24255 5207 6213 40583 6190 13120 2572 1010 8180 101569 102586 1058 4082 817 1835 760 4860
internal_value=0 -9.67671e-07 -1.17508e-06 -4.09206e-08 3.14998e-06 3.66716e-06 4.81824e-07 1.95037e-06 -2.18527e-06 2.18306e-06 1.52972e-06 -8.78438e-07 -2.24801e-06 0 1.08358e-06 2.80165e-06 0 -1.43875e-06 0
internal_weight=0 322450 291140 144151 73459 60529 31310 37375 146989 41593 18425 106776 144417 12930 11112 4899 12885 1818 6695
internal_count=395909 322450 291140 144151 73459 60529 31310 37375 146989 41593 18425 106776 144417 12930 11112 4899 12885 1818 6695
is_linear=0
shrinkage=0.03


Tree=36
num_leaves=14
num_cat=0
split_feature=14 11 8 3 12 4 11 8 4 1 5 1 1
split_gain=0.000613043 0.000434134 0.000364285 0.000295382 0.000403654 0.00039009 0.000168641 0.000154103 0.000140806 8.37956e-05 4.75162e-05 3.67922e-05 3.08494e-05
threshold=0.98614265275267643 -0.015933140156391513 -0.24153742490273675 0.017031440085129211 -0.45693289010293453 85.607993273802336 0.0058951617679275205 0.01293830408731805 41.119358761871958 35.505838848313488 -0.081224626068561165 32.458197502578152 29.752136214885976
decision_type=4 6 6 4 4 6 4 6 6 6 6 6 4
left_child=1 2 -1 4 -2 7 11 8 -5 -9 -7 -6 -8
right_child=3 -3 -4 5 6 10 12 9 -10 -11 -12 -13 -14
leaf_value=2.0517672869794564e-05 2.2408402955029524e-06 0 0 -1.2584264512414139e-06 0 0 0 -3.2689577822962309e-07 1.4206063113119677e-06 1.9341366215313738e-06 7.7948011879439459e-06 -8.9714380829412769e-07 -3.2724270528697157e-06
leaf_weight=3019 31669 1829 541 55538 19876 340 2827 5535 22532 63876 8209 139326 40509
leaf_count=3019 31669 1829 541 55538 19876 340 2827 5535 22532 63876 8209 139326 40509
internal_value=0 1.01298e-05 1.62786e-05 -3.21441e-08 -7.42304e-07 9.37695e-07 -1.28283e-06 4.66886e-07 -2.93076e-07 1.53773e-06 7.30356e-06 -7.04551e-07 -3.06098e-06
internal_weight=0 5389 3560 390237 234207 156030 202538 147481 78070 69411 8549 159202 43336
internal_count=395626 5389 3560 390237 234207 156030 202538 147481 78070 69411 8549 159202 43336
is_linear=0
shrinkage=0.03


Tree=37
num_leaves=15
num_cat=0
split_feature=10 15 12 11 0 6 2 0 0 15 6 3 3 3
split_gain=0.0021842 0.000316582 0.000158614 0.000318658 0.000246537 0.000505043 0.000213325 0.000866034 0.000154773 0.000137567 0.000126954 6.98976e-05 4.31478e-05 5.3354e-05
threshold=-0.012485348501182483 1.0117872378783634 0.22434572334619765 -0.0034988588845079847 57.924860833331572 1.9509353587554874 28.432632597682534 138.65616527777632 32.738014722220079 0.59158809226868192 74.386836004454594 0.026315789473697254 -0.009433962264135733 -0.025892857142857082
decision_type=4 6 4 6 4 6 4 6 6 6 6 6 4 6
left_child=1 9 4 8 12 -6 11 -8 -4 -1 -7 -5 13 -2
right_child=2 -3 3 6 5 10 7 -9 -10 -11 -12 -13 -14 -15
leaf_value=0 1.1954476363283602e-06 1.5103752112650235e-05 0 0 -1.897403056793516e-06 0 -4.8823354025527137e-06 9.5869942929579967e-06 -6.1678379985292402e-06 7.0004072638454267e-06 2.756107798747487e-06 1.9113685224232937e-06 1.681813508821907e-06 -1.0833195918037128e-06
leaf_weight=2563 22257 9565 3520 21528 117952 39341 25230 3840 16056 2927 29463 23821 64005 13809
leaf_count=2563 22257 9565 3520 21528 117952 39341 25230 3840 16056 2927 29463 23821 64005 13809
internal_value=0 1.12842e-05 -3.59888e-07 -1.42949e-06 0 -6.53155e-07 -3.12822e-07 -2.45452e-06 -4.90791e-06 1.89526e-06 1.26187e-06 7.29363e-07 1.19209e-06 0
internal_weight=0 15055 380822 93995 286827 186756 74419 29070 19576 5490 68804 45349 100071 36066
internal_count=395877 15055 380822 93995 286827 186756 74419 29070 19576 5490 68804 45349 100071 36066
is_linear=0
shrinkage=0.03


Tree=38
num_leaves=15
num_cat=0
split_feature=14 10 14 6 4 5 7 10 4 0 11 7 0 7
split_gain=0.0010063 0.000273553 0.0002272 0.00037223 0.000160122 0.000122952 0.000103611 0.000261814 0.000209306 7.28944e-05 0.000167057 0.000135243 2.58143e-05 1.70279e-07
threshold=0.99451151086103806 0.00027427754757563595 1.0063811526093198 95.553228470866955 20.117148353058706 0.016238675214633961 4.8567986457908168 0.0021091672993014455 17.04831744345783 194.92579444444343 -0.0063043062920793069 4.0940282627760327 60.480773333331364 -15.700993702459167
decision_type=4 6 4 6 6 6 4 6 4 4 6 6 6 4
left_child=1 4 3 9 -1 -5 -4 -8 -9 10 -2 -11 -7 -3
right_child=2 13 6 5 -6 12 7 8 -10 11 -12 -13 -14 -15
leaf_value=0 1.1432342561267903e-06 0 0 0 6.2596507275311626e-06 0 -1.2004500625512825e-05 1.014173723851588e-05 -2.7039453417734788e-06 -3.8848769305977696e-06 -7.6929981722811334e-07 0 4.1006398329438309e-06 -2.0518743758637846e-07
leaf_weight=2919 46958 613 3025 24425 32162 9200 3557 817 22538 16307 199922 7427 22722 3638
leaf_count=2919 46958 613 3025 24425 32162 9200 3557 817 22538 16307 199922 7427 22722 3638
internal_value=0 4.70296e-06 -3.4121e-07 -6.48165e-08 5.64051e-06 2.09882e-06 -2.85865e-06 -3.54332e-06 -1.61154e-06 -5.70769e-07 -3.44761e-07 -2.28951e-06 3.35285e-06 0
internal_weight=0 39332 356898 326961 35081 56347 29937 26912 23355 270614 246880 23734 31922 4251
internal_count=396230 39332 356898 326961 35081 56347 29937 26912 23355 270614 246880 23734 31922 4251
is_linear=0
shrinkage=0.03


Tree=39
num_leaves=19
num_cat=0
split_feature=1 6 14 13 10 2 10 10 10 3 10 7 15 11 5 8 7 15
split_gain=0.000912984 0.00130179 0.00108997 0.000503773 0.000373455 0.00129524 0.000249191 0.000203949 0.000269641 0.000203543 0.000112156 0.000106145 0.000180368 7.32879e-05 4.70425e-05 3.3517e-05 3.01694e-05 1.37523e-06
threshold=218.27201053047031 66.497647302569689 0.99388053910166352 0.0054816146270082146 0.00060246602954795822 14.080082555453947 -0.00032725111737269677 -0.0032014897660915913 -0.00028281777470787184 0.027272727272729905 -0.0022365440314140966 17.162760240276143 0.27813724400882461 0.0019169804881147619 -0.47488301282018591 -0.076194816647314229 -9.7940385144306017 1.1770725307494314
decision_type=4 6 6 6 6 6 6 4 6 6 6 6 6 6 6 6 6 6
left_child=2 9 6 7 16 -6 10 15 -9 -2 13 17 -13 -1 -7 -4 -3 -5
right_child=1 4 3 11 5 14 -8 8 -10 -11 -12 12 -14 -15 -16 -17 -18 -19
leaf_value=7.6888323444118151e-06 -1.3379185522862711e-05 0 2.302934659816284e-06 0 -8.0943969318695961e-06 0 0 -1.5280047245349892e-06 5.2490845762325502e-07 -6.399411866959982e-07 0 0 -6.2389059705661161e-06 0 2.0846195836193809e-05 0 -5.6131456619588557e-06 -7.2434265867829577e-07
leaf_weight=23644 11491 81 41727 8905 1498 54 3427 86418 162922 4176 1919 2176 18119 1902 3469 17373 1559 5516
leaf_count=23644 11491 81 41727 8905 1498 54 3427 86418 162922 4176 1919 2176 18119 1902 3469 17373 1559 5516
internal_value=0 -5.94311e-06 2.97401e-07 -1.4604e-07 3.56162e-06 8.90814e-06 5.70848e-06 1.9374e-07 -1.26453e-07 -1.09414e-05 6.6946e-06 -3.59676e-06 -5.17235e-06 7.22047e-06 2.03935e-05 1.79837e-06 -3.66292e-06 -3.38993e-07
internal_weight=0 22328 374048 343156 6661 5021 30892 308440 249340 15667 27465 34716 20295 25546 3523 59100 1640 14421
internal_count=396376 22328 374048 343156 6661 5021 30892 308440 249340 15667 27465 34716 20295 25546 3523 59100 1640 14421
is_linear=0
shrinkage=0.03


Tree=40
num_leaves=15
num_cat=0
split_feature=12 10 15 9 2 3 6 11 13 10 0 13 3 3
split_gain=0.000530588 0.000394831 0.000189658 0.000178596 0.000251696 0.000125295 7.60874e-05 0.000423763 0.000347278 0.000285018 0.000153411 6.9631e-05 4.65129e-05 4.25487e-05
threshold=-0.68625066673738122 -0.0043084320599865878 3.6683341337129254 -0.070750000000002075 16.441431357358393 0.025862068965522279 62.149815679295607 -0.0096227215553773629 0.0029680425353790503 0.0020886389919194362 180.31934027777694 -0.0033679502283200566 -0.010588235294084548 -0.083333333333336271
decision_type=4 6 4 6 6 6 4 6 4 6 6 4 4 6
left_child=1 13 6 -4 -5 -6 7 10 -8 -10 -2 -9 -3 -1
right_child=2 12 3 4 5 -7 8 11 9 -11 -12 -13 -14 -15
leaf_value=9.7490286138890217e-06 1.2963858236577074e-06 0 -7.6417817238243478e-06 -8.6236824317586506e-06 0 8.045931408417837e-06 2.1689572974062106e-06 0 -4.729124038675349e-06 0 9.3701570232066186e-06 -1.1755129879382923e-06 -3.6118919322842825e-06 3.1163803352256024e-06
leaf_weight=7517 26651 3261 6035 2620 4450 2227 60453 29609 14111 40001 3747 178759 3341 13635
leaf_count=7517 26651 3261 6035 2620 4450 2227 60453 29609 14111 40001 3747 178759 3341 13635
internal_value=0 4.04962e-06 -2.46778e-07 -3.53673e-06 0 2.17285e-06 -6.15454e-08 -4.03366e-07 5.19913e-07 -1.04519e-06 2.78557e-06 -9.40597e-07 -5.14823e-07 6.18328e-06
internal_weight=0 27754 368663 15332 9297 6677 353331 238766 114565 54112 30398 208368 6602 21152
internal_count=396417 27754 368663 15332 9297 6677 353331 238766 114565 54112 30398 208368 6602 21152
is_linear=0
shrinkage=0.03


Tree=41
num_leaves=19
num_cat=0
split_feature=7 0 8 5 7 0 12 0 3 3 7 0 0 5 5 5 3 0
split_gain=7.64519e-05 0.000659131 0.000410357 0.000408426 0.000232778 0.000222468 0.000139083 0.000111034 9.31145e-05 0.000194332 5.20154e-05 5.88239e-05 3.86472e-05 2.09493e-05 0.000328487 4.34024e-05 2.07853e-05 1.06666e-05
threshold=13.579994783368923 194.92579444444343 -0.1736329755402494 0.0019647970098048977 -18.001154224079063 232.0950666666663 -0.4621583833007758 94.340776249998072 -0.049019607843114092 0.0024958217580051834 -0.07145626151948474 118.64167361110941 97.461246666664735 -0.030352510682323693 0.61372115384516246 0.40663568376086806 -0.19666666666670338 84.002378055553535
decision_type=6 6 4 6 6 6 4 4 4 4 6 6 4 6 6 6 4 6
left_child=2 13 4 -3 5 -1 12 -8 -5 -10 11 -6 17 -2 15 -15 -7 -4
right_child=1 3 6 8 10 16 7 -9 9 -11 -12 -13 -14 14 -16 -17 -18 -19
leaf_value=4.1970869579564773e-06 -2.1858663280275759e-06 -3.0058248965554292e-07 1.8680066958895813e-06 0 2.0618068059401853e-06 0 -6.2394676371989434e-07 -2.2702305313833593e-06 0 1.4188101737075906e-05 -2.7794922022021369e-06 -7.6956258075262488e-07 0 8.1027761117893792e-07 -6.7872516670416049e-06 -1.4063747086626927e-06 -4.2360925972693049e-06 0
leaf_weight=32027 5071 1257 16181 1589 11548 101 135752 81707 1782 6137 5990 7367 9720 66009 6111 4930 1927 585
leaf_count=32027 5071 1257 16181 1589 11548 101 135752 81707 1782 6137 5990 7367 9720 66009 6111 4930 1927 585
internal_value=0 4.84336e-07 -4.52529e-07 7.5246e-06 1.69998e-06 3.33986e-06 -1.03428e-06 -1.31151e-06 1.01363e-05 1.1573e-05 0 1.66145e-07 6.75522e-07 -2.56059e-07 0 4.4475e-07 -2.79938e-06 1.67188e-06
internal_weight=0 92886 302905 10765 58960 34055 243945 217459 9508 7919 24905 18915 26486 82121 77050 70939 2028 16766
internal_count=395791 92886 302905 10765 58960 34055 243945 217459 9508 7919 24905 18915 26486 82121 77050 70939 2028 16766
is_linear=0
shrinkage=0.03


Tree=42
num_leaves=15
num_cat=0
split_feature=12 11 15 4 15 15 11 11 3 1 11 3 3 6
split_gain=0.00116687 0.000310748 0.000522942 0.00021489 0.000176531 0.000155827 0.00014661 0.000106968 8.40637e-05 5.52234e-05 0.000113564 4.37707e-05 4.2235e-05 3.4617e-05
threshold=-1.7617358192619168 -0.0026750233216649194 1.3313123284551158 56.608525444145975 0.26463095509159879 1.5625033382937936 -0.00057145586225281896 0.0021091264153494413 0.10799999999981859 205.36877455668298 -0.021726731492711062 -0.029783482423827772 0.046296296296263244 -51.572150764568498
decision_type=4 6 6 6 4 6 4 6 4 4 4 6 6 6
left_child=1 2 -1 4 6 -4 -2 -5 12 10 -6 -11 -9 -8
right_child=3 -3 5 7 9 -7 13 8 -10 11 -12 -13 -14 -15
leaf_value=0 -5.5968445140332272e-07 0 0 1.9552165354820235e-06 2.0085156773160639e-06 3.9300411178588925e-05 0 -1.5129433459646612e-06 3.9684280657370284e-06 -4.4711685847663827e-06 -9.1426961507170195e-07 -5.2808701234071591e-07 0 2.3421451543802743e-06
leaf_weight=880 35613 388 154 54454 9883 1250 11375 25095 3568 10478 189456 18975 2094 32370
leaf_count=880 35613 388 154 54454 9883 1250 11375 25095 3568 10478 189456 18975 2094 32370
internal_value=0 1.97514e-05 2.40557e-05 -1.3343e-07 -5.35899e-07 3.57156e-05 5.68327e-07 1.14598e-06 0 -9.8447e-07 -6.94095e-07 -2.44031e-06 -8.45444e-07 1.82951e-06
internal_weight=0 2672 2284 393361 308150 1404 79358 85211 30757 228792 199339 29453 27189 43745
internal_count=396033 2672 2284 393361 308150 1404 79358 85211 30757 228792 199339 29453 27189 43745
is_linear=0
shrinkage=0.03


Tree=43
num_leaves=12
num_cat=0
split_feature=4 14 14 7 15 0 3 7 5 9 6
split_gain=0.000286748 0.000702206 0.000360233 0.000258751 0.000175185 0.000174217 0.00015982 0.000116083 0.000112248 2.8155e-05 0.000120137
threshold=92.074810084886693 0.99064379063590247 1.007253096391618 49.88919879858225 3.9072853388899476 212.7880819444436 0.053571428571430574 2.7362909137670957 -0.01808878204987607 0.093408333333332663 31.37014803768275
decision_type=6 4 4 6 4 6 4 6 6 4 6
left_child=1 5 3 6 7 8 -3 -4 -1 10 -2
right_child=9 2 4 -5 -6 -7 -8 -9 -10 -11 -12
leaf_value=9.0064926901956939e-06 7.84214034005229e-06 -7.3390124008263963e-07 1.7852521245715804e-06 6.2220622547168853e-06 -1.3412230084341373e-05 0 6.7617855433020341e-07 -3.2868774650147936e-06 0 0 0
leaf_weight=10186 6221 247295 1033 5421 2467 1356 92649 18726 2661 4049 2722
leaf_count=10186 6221 247295 1033 5421 2467 1356 92649 18726 2661 4049 2722
internal_value=0 -1.52051e-07 -4.4322e-07 -1.59542e-07 -4.17598e-06 6.32679e-06 -3.05469e-07 -2.26248e-06 7.51368e-06 4.37968e-06 5.5405e-06
internal_weight=0 381794 367591 345365 22226 14203 339944 19759 12847 12992 8943
internal_count=394786 381794 367591 345365 22226 14203 339944 19759 12847 12992 8943
is_linear=0
shrinkage=0.03


Tree=44
num_leaves=20
num_cat=0
split_feature=11 11 5 7 6 7 10 7 4 7 7 15 10 3 15 10 7 3 10
split_gain=0.000297622 0.000659868 0.000430638 0.000261282 0.00010179 0.000243308 0.00012621 0.000397077 8.75703e-05 7.80688e-05 0.000232578 0.00015449 6.67087e-05 6.71395e-05 5.57276e-05 4.54409e-05 2.17407e-05 9.47139e-06 2.61327e-06
threshold=-0.0089146254685752383 -0.027030865310239228 -0.67875160256261313 -1.2093219491209439 2.6023795938017993 60.466848439342918 0.0115124975695242 23.972852876687632 89.427056831517405 -5.2059380803579698 1.1205045712749635 2.0383045305580678 -0.0024823802226905203 -0.3191898527004971 1.4847577257464781 -0.0034519787359253316 -5.3610518064378843 0.07500000000000194 -0.0028540085331868414
decision_type=4 6 6 6 6 6 4 4 4 6 6 6 6 6 6 6 6 6 6
left_child=1 2 3 16 12 6 7 -6 -8 11 -11 14 15 -14 -3 -2 -1 -15 -13
right_child=4 9 -4 -5 5 -7 8 -9 -10 10 -12 18 13 17 -16 -17 -18 -19 -20
leaf_value=2.1256630517038463e-05 7.0315502880716789e-07 1.2637381381187895e-06 1.6262445001386742e-06 0 -5.300360060947514e-07 6.9577668823554528e-06 -4.1711072349730396e-06 2.9667561872465701e-06 0 2.0521128636604023e-06 -5.0614677651514745e-06 -2.2951942426597541e-06 2.2662854186159004e-07 -1.6863666716440826e-06 7.787241043759551e-06 -1.2735070336790764e-06 0 0 0
leaf_weight=3222 33094 30399 6085 102 124753 4602 10752 37221 549 5152 7971 5513 7239 84891 2872 15125 59 16491 168
leaf_count=3222 33094 30399 6085 102 124753 4602 10752 37221 549 5152 7971 5513 7239 84891 2872 15125 59 16491 168
internal_value=0 1.98861e-06 9.365e-06 1.88442e-05 -2.73837e-07 1.48164e-07 0 1.80934e-07 -3.09521e-06 3.59135e-07 -1.12598e-06 1.24457e-06 -8.48075e-07 -1.26144e-06 2.27811e-06 0 2.09228e-05 -1.51564e-06 -2.16756e-06
internal_weight=0 61543 9468 3383 334717 177877 173275 161974 11301 52075 13123 38952 156840 108621 33271 48219 3281 101382 5681
internal_count=396260 61543 9468 3383 334717 177877 173275 161974 11301 52075 13123 38952 156840 108621 33271 48219 3281 101382 5681
is_linear=0
shrinkage=0.03


Tree=45
num_leaves=19
num_cat=0
split_feature=10 14 4 7 15 3 5 7 6 7 15 11 15 13 11 15 15 5
split_gain=0.000755229 0.000183586 0.000211831 0.000253603 0.000214042 0.000178701 0.000210311 0.000179287 0.000114645 8.01604e-05 0.00036822 9.08482e-05 4.76666e-05 3.05752e-05 2.3266e-05 1.77581e-05 9.23747e-06 2.49411e-06
threshold=-0.0058948687290312695 1.0051569736505221 63.625034192639156 36.307915683871521 1.2011045114960959 0.033411735532471336 -0.034499999998857327 16.099118261122879 25.859683614898501 7.1366011105716263 0.4477881391730365 -0.00045324822280031542 1.3238184236257318 -0.00035324416261765112 -0.00139226395098248 0.5045784464747417 0.19171622175502198 0.01330032051421526
decision_type=6 4 6 6 6 4 6 6 6 6 6 4 4 4 4 6 6 6
left_child=9 5 -3 15 -5 7 14 12 -8 10 16 -12 -2 -9 -7 -4 -1 -18
right_child=1 2 3 4 -6 6 8 13 -10 -11 11 -13 -14 -15 -16 -17 17 -19
leaf_value=0 -6.9778135079362182e-07 -3.7559480704164251e-06 0 0 3.2444473017278595e-05 0 0 0 2.9458952590793059e-06 0 5.2801995009230975e-06 0 -2.4179497967040004e-06 1.7836126953118444e-06 -1.7028755094842077e-06 -1.3750370822690903e-06 -1.1813039204153634e-06 0
leaf_weight=1092 148178 29355 785 451 398 16283 30025 1800 39121 290 39498 1783 29978 24750 15621 8451 8171 372
leaf_count=1092 148178 29355 785 451 398 16283 30025 1800 39121 290 39498 1783 29978 24750 15621 8451 8171 372
internal_value=0 -4.28672e-07 -2.38137e-06 1.32572e-07 1.63833e-05 -1.27718e-07 8.40723e-07 -6.79052e-07 1.84876e-06 3.47065e-06 3.67844e-06 4.96949e-06 -1.07145e-06 1.38897e-06 -8.73851e-07 0 -2.96433e-07 -1.03539e-06
internal_weight=0 345196 39440 10085 849 305756 101050 204706 69146 51206 50916 41281 178156 26550 31904 9236 9635 8543
internal_count=396402 345196 39440 10085 849 305756 101050 204706 69146 51206 50916 41281 178156 26550 31904 9236 9635 8543
is_linear=0
shrinkage=0.03


Tree=46
num_leaves=18
num_cat=0
split_feature=13 3 1 6 10 3 2 3 4 8 8 11 8 4 8 3 3
split_gain=0.000674824 0.000571601 0.000370263 0.000499172 0.000176755 0.000135402 7.70471e-05 0.000156643 0.000275582 9.43435e-05 0.0002892 4.91094e-05 3.47839e-05 2.9469e-05 1.36038e-05 1.38241e-05 2.198e-06
threshold=-0.0072722979116646028 -0.083666800053337306 227.6519709231479 16.629260577722146 -0.0036172661555922527 0.030303030303035387 16.951538871761198 0.0030487804878021178 64.65754124287092 -0.068998665922250513 0.010910464619943768 0.0092941484294917654 -0.033088695400512201 94.084759778364003 -0.0049012151438562876 0.026785714285715238 0.0062893081760993794
decision_type=4 6 4 6 6 6 4 4 6 6 6 4 6 4 6 6 4
left_child=1 -1 6 5 11 -4 9 13 -9 16 -11 12 -3 -8 -5 -16 -2
right_child=2 4 3 14 -6 -7 7 8 -10 10 -12 -13 -14 -15 15 -17 -18
leaf_value=1.1376423764554845e-05 -8.3981354292734447e-07 4.1904160728727196e-06 -1.2544994631059378e-05 -6.5258300602151346e-07 -3.7762471281000729e-06 0 -1.36013857903884e-06 -4.7670306957863969e-07 2.8903243655206426e-06 -9.2141095705360937e-07 2.2173770571225329e-06 0 0 0 0 3.4267936627574601e-06 0
leaf_weight=8440 19675 10794 5893 2290 3584 1702 105418 76723 28723 34931 68370 243 2057 3304 2787 2017 18996
leaf_count=8440 19675 10794 5893 2290 3584 1702 105418 76723 28723 34931 68370 243 2057 3304 2787 2017 18996
internal_value=0 4.82279e-06 -2.51646e-07 -4.92694e-06 6.06041e-07 -1.02994e-05 -1.66682e-08 -4.15104e-07 2.98247e-07 4.78726e-07 1.0108e-06 2.95131e-06 3.50909e-06 -1.24492e-06 0 1.53115e-06 -5.54708e-07
internal_weight=0 25118 370829 14689 16678 7595 356140 214168 105446 141972 103301 13094 12851 108722 7094 4804 38671
internal_count=395947 25118 370829 14689 16678 7595 356140 214168 105446 141972 103301 13094 12851 108722 7094 4804 38671
is_linear=0
shrinkage=0.03


Tree=47
num_leaves=15
num_cat=0
split_feature=7 13 3 2 4 11 11 11 11 15 13 0 2 15
split_gain=0.00021625 0.000707844 0.000223077 0.000217498 0.000179512 0.000386616 0.00016802 0.000128161 0.000466147 8.62291e-05 5.94074e-05 1.67556e-05 9.53502e-06 2.48505e-06
threshold=38.557110043515742 0.0029680425353790503 0.06172839506171824 13.383361402259434 44.717695666849473 -0.0056766906956393073 -0.011275711499012886 0.0012854611677186433 0.056953960806135351 0.2674916311408394 0.00093478736950570161 30.396134166664471 80.408238681418496 0.48184779117202753
decision_type=6 6 4 4 6 4 4 4 6 6 6 6 6 6
left_child=1 4 -2 -3 6 9 -1 -4 11 -6 -8 -9 -5 -7
right_child=2 3 7 12 5 13 10 8 -10 -11 -12 -13 -14 -15
leaf_value=1.9911290639647734e-06 0 0 0 -4.8842159669587255e-06 0 3.0364399627384043e-07 -8.7907997183903617e-07 0 -1.7115668001563435e-05 4.7357374931067861e-06 1.5491093945736306e-07 8.7448110013674413e-06 -8.4206472997547058e-07 -8.6952285709733616e-08
leaf_weight=24607 10083 12054 1049 35917 3882 20437 150293 54 312 26330 41893 10738 10482 46565
leaf_count=24607 10083 12054 1049 35917 3882 20437 150293 54 312 26330 41893 10738 10482 46565
internal_value=0 -3.12508e-07 2.70375e-06 -3.3601e-06 2.07055e-07 1.30276e-06 -2.15096e-07 5.46733e-06 6.56513e-06 4.12033e-06 -5.75641e-07 8.64246e-06 -4.2944e-06 0
internal_weight=0 372460 22236 58453 314007 97214 216793 12153 11104 30212 192186 10792 46399 67002
internal_count=394696 372460 22236 58453 314007 97214 216793 12153 11104 30212 192186 10792 46399 67002
is_linear=0
shrinkage=0.03


Tree=48
num_leaves=15
num_cat=0
split_feature=13 15 3 11 5 1 10 6 3 3 8 8 14 14
split_gain=0.000317134 0.000128791 0.000265028 0.000102973 0.00034897 0.000111942 8.75321e-05 6.7494e-05 6.73661e-05 4.32026e-05 1.20301e-05 9.33014e-06 7.54639e-06 4.02494e-06
threshold=-0.0057477383989132267 0.47258014024704781 -0.0024303446064489194 -0.0027434859457508317 0.0033152777790022019 57.113611490181505 1.0000000180025095e-35 50.574967830351838 -0.081632653061280411 -0.034975666990319974 0.22390490511546726 0.07326873461804663 0.996818232435427 0.99991136400882941
decision_type=4 4 4 4 6 6 6 4 4 6 4 6 6 4
left_child=6 3 -3 5 -5 -2 8 -6 -1 -10 12 -7 -4 -12
right_child=1 2 10 4 7 11 -8 -9 9 -11 13 -13 -14 -15
leaf_value=5.9182691795591932e-06 1.2052730064674608e-06 -2.0087766632700857e-06 0 -9.1591424316562616e-07 6.1901149425249724e-07 -1.9994118210475777e-06 0 3.5415439160190997e-06 0 2.1025034894230388e-06 0 0 3.9440628016466564e-07 -7.195448908573668e-07
leaf_weight=9974 10292 94164 10565 44867 28620 30165 4128 32213 5398 17461 2824 3531 86894 14985
leaf_count=9974 10292 94164 10565 44867 28620 30165 4128 32213 5398 17461 2824 3531 86894 14985
internal_value=0 -3.21646e-07 -8.21931e-07 2.78108e-07 8.58186e-07 -7.74768e-07 2.59194e-06 2.41322e-06 3.15626e-06 1.29457e-06 1.75087e-08 -1.82471e-06 2.62691e-07 -4.81946e-07
internal_weight=0 359120 209432 149688 105700 43988 36961 60833 32833 22859 115268 33696 97459 17809
internal_count=396081 359120 209432 149688 105700 43988 36961 60833 32833 22859 115268 33696 97459 17809
is_linear=0
shrinkage=0.03


Tree=49
num_leaves=15
num_cat=0
split_feature=12 7 13 4 9 10 0 14 14 11 11 3 3 3
split_gain=0.000538821 0.000154799 0.000306601 0.000246857 0.000233654 0.000107786 4.46798e-05 0.000110632 0.000101341 3.23189e-05 0.00158642 1.58602e-05 1.21136e-05 2.58601e-06
threshold=-0.50503714921150678 35.836938224069549 0.0059765292371453723 45.600970355519877 1.3556666666666646 0.00038247955338968669 79.534406111109149 1.0011719359307978 1.0005698651946264 0.0099722218968585508 -0.054325299610855422 0.027777777777753018 -0.062499999999992471 0.072463768115915178
decision_type=4 6 6 6 6 6 4 6 6 6 6 6 4 6
left_child=5 4 3 13 6 9 7 -2 -8 10 -1 12 -4 -3
right_child=1 2 11 -5 -6 -7 8 -9 -10 -11 -12 -13 -14 -15
leaf_value=4.3238536636674579e-05 4.8820373818201833e-07 0 0 1.3133052681499062e-05 -7.3663918001409008e-06 0 -1.4131852403208418e-06 -1.1297966866218349e-06 0 0 2.4237751948676269e-06 0 -4.2435478272416543e-06 1.9681438926094853e-06
leaf_weight=944 104137 6302 1640 3128 4825 4975 98167 58558 59529 1182 37184 7581 2116 5781
leaf_count=944 104137 6302 1640 3128 4825 4975 98167 58558 59529 1182 37184 7581 2116 5781
internal_value=0 -3.83506e-07 1.67825e-06 4.71187e-06 -5.97943e-07 3.12757e-06 -4.49149e-07 -1.96589e-09 -8.15384e-07 3.67249e-06 3.8299e-06 -1.06925e-06 -2.69222e-06 1.28881e-06
internal_weight=0 351764 26548 15211 325216 44285 320391 162695 157696 39310 38128 11337 3756 12083
internal_count=396049 351764 26548 15211 325216 44285 320391 162695 157696 39310 38128 11337 3756 12083
is_linear=0
shrinkage=0.03


Tree=50
num_leaves=17
num_cat=0
split_feature=11 7 15 5 12 5 1 3 3 15 12 9 15 2 8 15
split_gain=0.00042497 0.000663241 0.000238133 0.000260337 0.00022308 0.000175347 0.00050833 0.000164684 0.000104766 9.52694e-05 5.65262e-05 5.55241e-05 4.85309e-05 1.7848e-05 4.38693e-06 5.11305e-07
threshold=-0.0053744033955197635 16.099118261122879 0.44967855021661934 -0.010502991451755149 0.40224239274503365 -0.037414316238070448 218.27201053047031 -0.010416666666629789 -0.11999999999998995 0.28958238759408156 -0.11487402872885076 0.026666666666672615 1.0203654690486432 65.173107933944678 0.064948895174362462 0.22743288069292428
decision_type=6 6 6 6 6 6 4 6 4 6 6 6 6 6 6 6
left_child=1 2 -1 -4 -3 6 10 8 15 -10 -2 13 -13 -9 -5 -7
right_child=5 4 3 14 -6 7 -8 11 9 -11 -12 12 -14 -15 -16 -17
leaf_value=0 0 0 4.4831263145631065e-06 6.8619877496919383e-07 -1.4429413438665914e-05 0 -1.079295741760751e-05 -4.3555729370501024e-07 0 -2.3714629034317038e-06 -1.5588221666553396e-06 3.4157799470053669e-07 2.5010144959186987e-06 8.4797100352408695e-07 0 2.4201043171933353e-07
leaf_weight=25553 30526 1360 50286 8383 2669 7963 5455 38823 18474 48545 38721 56346 22655 12094 10544 17779
leaf_count=25553 30526 1360 50286 8383 2669 7963 5455 38823 18474 48545 38721 56346 22655 12094 10544 17779
internal_value=0 1.80118e-06 2.4354e-06 3.34923e-06 -9.38907e-06 -4.62405e-07 -1.72153e-06 0 -1.00434e-06 -1.67162e-06 -7.9002e-07 6.48547e-07 1.15075e-06 0 0 1.50259e-07
internal_weight=0 98795 94766 69213 4029 297381 74702 222679 92761 67019 69247 129918 79001 50917 18927 25742
internal_count=396176 98795 94766 69213 4029 297381 74702 222679 92761 67019 69247 129918 79001 50917 18927 25742
is_linear=0
shrinkage=0.03


Tree=51
num_leaves=16
num_cat=0
split_feature=1 3 13 10 5 14 7 3 4 9 4 14 11 4 4
split_gain=0.000585487 0.000738942 0.00057435 0.000208093 0.000309539 0.000206242 0.000158554 0.000148153 0.000132748 0.00012057 0.000108553 0.000103675 0.00015985 7.52337e-05 2.444e-05
threshold=228.92334512630723 -0.0024303446064489194 -0.0058181344247227769 0.0010585502619707219 0.054486805557115055 1.0056729641627353 -43.806965777106065 -0.00083775488241719326 23.963153391658263 -0.081999999999990067 53.583225006000312 0.98470898722818057 0.00056823369277917161 26.866035555789139 94.856014426294294
decision_type=4 6 6 6 6 6 4 4 6 4 4 6 6 6 6
left_child=2 6 11 -3 -5 7 -2 13 -7 -6 -9 12 -1 -4 -10
right_child=1 3 5 4 9 8 -8 10 14 -11 -12 -13 -14 -15 -16
leaf_value=1.283903303290637e-05 0 -4.0692139721325702e-06 9.0725188835050826e-08 0 0 0 -1.3599438989358941e-05 1.7554962730222083e-07 -3.5337464444568579e-06 1.4174607586953062e-05 2.2221447442576691e-06 2.5994425822045484e-06 0 -1.1011894891085437e-06 0
leaf_weight=3343 454 4060 54183 928 475 6283 7141 125663 26647 2522 36364 31025 475 95532 1066
leaf_count=3343 454 4060 54183 928 475 6283 7141 125663 26647 2522 36364 31025 475 95532 1066
internal_value=0 -5.73957e-06 1.89307e-07 0 5.52844e-06 -1.39011e-07 -1.24543e-05 5.64112e-08 -2.37213e-06 1.15288e-05 7.27468e-07 3.87742e-06 1.03287e-05 -5.69642e-07 -3.34864e-06
internal_weight=0 15580 380581 7985 3925 345738 7595 311742 33996 2997 162027 34843 3818 149715 27713
internal_count=396161 15580 380581 7985 3925 345738 7595 311742 33996 2997 162027 34843 3818 149715 27713
is_linear=0
shrinkage=0.03


Tree=52
num_leaves=18
num_cat=0
split_feature=5 7 15 4 4 4 14 14 13 6 2 4 6 7 15 7 14
split_gain=0.000257336 0.000366262 0.000315192 0.000705151 0.00196691 0.000299074 0.000353108 9.96997e-05 9.67271e-05 0.000237388 0.000119401 0.000111842 2.69039e-05 1.1458e-05 2.77069e-05 5.27563e-05 1.50929e-06
threshold=-0.40085277777810541 -43.258957487536229 2.5460301541643489 43.026998172088845 28.611357420958907 66.807786925538196 0.99917373470228321 0.98986764898140545 -0.0021281243109738117 116.5914897918713 50.898501210531741 71.329632343245251 19.00331366555541 15.949693856586718 0.60850896971664892 -0.82594667033890634 0.99723048646075985
decision_type=4 6 4 6 4 6 6 6 4 4 6 6 6 6 6 6 6
left_child=1 7 8 4 -4 16 -7 -1 12 11 -11 -10 -2 14 -3 -16 -5
right_child=2 13 3 5 -6 6 -8 -9 9 10 -12 -13 -14 -15 15 -17 -18
leaf_value=1.4534136757288518e-05 1.1720483964965381e-06 0 0 -1.2326467171591283e-06 -2.1038860639906229e-05 0 2.1074627536620871e-05 0 -9.2959408723860559e-07 2.4304919708872138e-06 -8.4192835567895894e-07 7.3232555002388897e-07 0 0 2.3500422265318706e-06 0 0
leaf_weight=3066 77595 831 8545 892 5948 703 1448 2892 190290 40824 5370 34922 2249 323 14995 1818 3501
leaf_count=3066 77595 831 8545 892 5948 703 1448 2892 190290 40824 5370 34922 2249 323 14995 1818 3501
internal_value=0 3.09243e-06 -1.02236e-07 -3.68606e-06 -7.7181e-06 2.95188e-06 1.2309e-05 9.67906e-06 6.97208e-08 -1.53327e-07 1.72535e-06 -6.05285e-07 1.01575e-06 7.26484e-08 7.67965e-07 1.44979e-06 0
internal_weight=0 23925 372287 21037 14493 6544 2151 5958 351250 271406 46194 225212 79844 17967 17644 16813 4393
internal_count=396212 23925 372287 21037 14493 6544 2151 5958 351250 271406 46194 225212 79844 17967 17644 16813 4393
is_linear=0
shrinkage=0.03


Tree=53
num_leaves=16
num_cat=0
split_feature=14 7 0 2 10 7 8 6 3 2 5 8 6 4 13
split_gain=0.000600675 0.000163047 0.000166907 0.000666665 9.1931e-05 7.69463e-05 0.000123226 0.000114202 7.35925e-05 5.54959e-05 6.01207e-05 5.36745e-05 5.18077e-05 2.30834e-05 1.13607e-05
threshold=0.99482662560743962 40.486303076805598 190.83314166666642 14.463827249686796 -0.0010591988179005109 -2.2915436275232017 -0.11441031311134038 50.574967830351838 0.28363636363629835 26.825643671211044 0.28739081196713206 -0.20888494527778798 80.572142911929987 30.074496304143526 0.00187897349969171
decision_type=4 6 6 6 6 4 6 6 6 6 6 4 6 6 4
left_child=4 5 9 -4 8 7 14 11 -1 13 -11 -2 -8 -3 -7
right_child=1 2 3 -5 -6 6 12 -9 -10 10 -12 -13 -14 -15 -16
leaf_value=4.2701998109627497e-06 9.1420191471474856e-07 0 0 2.3755007184220695e-05 0 0 -9.9497232720115856e-07 3.4754237550948326e-06 0 0 -7.5559271619414861e-06 -5.8537442104446606e-07 0 2.6897085050720843e-06 -4.8353358652353507e-06
leaf_weight=35278 21105 5960 1261 1487 6604 6650 113780 7952 907 1920 1169 109072 64833 8032 9716
leaf_count=35278 21105 5960 1261 1487 6604 6650 113780 7952 907 1920 1169 109072 64833 8032 9716
internal_value=0 -3.62113e-07 2.13242e-06 9.34675e-06 3.39891e-06 -5.55648e-07 -9.39488e-07 0 3.9934e-06 9.2749e-08 -2.03067e-06 -2.27019e-07 -6.07937e-07 1.63365e-06 -3.64098e-06
internal_weight=0 352937 19829 2748 42789 333108 194979 138129 36185 17081 3089 130177 178613 13992 16366
internal_count=395726 352937 19829 2748 42789 333108 194979 138129 36185 17081 3089 130177 178613 13992 16366
is_linear=0
shrinkage=0.03


Tree=54
num_leaves=15
num_cat=0
split_feature=0 14 14 10 11 3 6 14 10 4 9 7 6 7
split_gain=0.000647197 0.000606632 0.000598571 0.00058127 0.000402576 0.000400717 0.000276009 0.000143083 9.00669e-05 8.22491e-05 8.99131e-05 4.41422e-05 2.46133e-05 8.44467e-07
threshold=226.38985555555445 0.99578699221963085 0.98358973075140232 0.0029961333241792193 -0.013269895674113729 0.016393442622935739 77.65222093583256 1.0043643752673199 -0.0028247977861357251 78.790889668759007 0.28472499999999817 19.833949969676492 18.383290425997725 -16.589108343305224
decision_type=4 6 6 6 6 4 6 6 6 6 6 6 4 6
left_child=1 2 4 -2 -1 7 -5 11 -4 12 -11 -3 -7 -9
right_child=3 5 8 6 -6 9 -8 13 -10 10 -12 -13 -14 -15
leaf_value=2.3079157701478453e-05 -9.5437616743116079e-06 -8.5299798034082711e-07 2.9482549327503875e-06 -3.1233107823742121e-06 0 0 9.3486271036062201e-06 0 0 5.3380556548058791e-06 0 3.2784004832941134e-07 1.0224267360556058e-06 -3.4071144435622613e-06
leaf_weight=2334 11821 150754 34972 2531 729 50902 2560 124 13722 8408 1082 14667 76875 24468
leaf_count=2334 11821 150754 34972 2531 729 50902 2560 124 13722 8408 1082 14667 76875 24468
internal_value=0 2.74349e-07 3.30736e-06 -5.72284e-06 1.69631e-05 -1.59486e-07 2.0417e-07 -1.09074e-06 2.13968e-06 1.02033e-06 4.08918e-06 -6.5762e-07 6.74957e-07 -3.39396e-06
internal_weight=0 379037 51757 16912 3063 327280 5091 190013 48694 137267 9490 165421 127777 24592
internal_count=395949 379037 51757 16912 3063 327280 5091 190013 48694 137267 9490 165421 127777 24592
is_linear=0
shrinkage=0.03


Tree=55
num_leaves=16
num_cat=0
split_feature=13 3 5 10 12 2 14 14 10 2 12 10 10 3 3
split_gain=0.000296295 0.000267597 0.000148162 8.25346e-05 7.29572e-05 2.5434e-05 2.00482e-05 0.000183464 1.4396e-05 1.15852e-05 3.08285e-05 5.81854e-06 2.3532e-05 1.87356e-06 9.34913e-08
threshold=-0.0047323377557739561 0.011363636363674535 -0.054077617519645564 0.0033252530800495059 0.37741425903288223 77.985471375148336 1.0002890868237817 1.0054108256426624 0.012696752950081458 9.0135942330257226 0.22914329854556439 -0.0021880477554987862 -0.0038580563749604506 0.20000000000024873 0.050847457627120438
decision_type=4 4 6 6 4 6 6 6 6 4 6 6 6 6 6
left_child=3 4 5 11 9 14 13 -8 -5 -2 -11 12 -1 -4 -3
right_child=1 2 6 8 -6 -7 7 -9 -10 10 -12 -13 -14 -15 -16
leaf_value=3.1188230230970173e-06 0 0 2.4223393205044805e-07 -2.3859171437439841e-06 -2.7483609025350161e-06 0 2.3961362719905142e-06 -5.7885493182040431e-07 0 -5.2850376963543492e-07 -2.4536728984400117e-06 0 0 0 -1.4233224279465457e-06
leaf_weight=33274 12519 13383 37266 2274 28901 1297 55876 17414 671 136158 15277 7221 4546 3838 25865
leaf_count=33274 12519 13383 37266 2274 28901 1297 55876 17414 671 136158 15277 7221 4546 3838 25865
internal_value=0 -3.54653e-07 5.08602e-07 2.1556e-06 -1.12597e-06 -8.51922e-07 1.12195e-06 1.48461e-06 0 -7.48459e-07 -8.21799e-07 2.56895e-06 2.82807e-06 1.10353e-07 -1.15454e-06
internal_weight=0 347794 154939 47986 192855 40545 114394 73290 2945 163954 151435 45041 37820 41104 39248
internal_count=395780 347794 154939 47986 192855 40545 114394 73290 2945 163954 151435 45041 37820 41104 39248
is_linear=0
shrinkage=0.03


Tree=56
num_leaves=13
num_cat=0
split_feature=10 13 4 2 10 3 7 3 6 2 7 3
split_gain=0.000783856 0.000221408 0.000277029 0.000226634 9.39244e-05 7.76809e-05 7.46216e-05 6.23867e-05 3.44392e-05 2.52908e-05 1.52444e-05 5.44349e-06
threshold=-0.0092908347010377344 0.0047230368565651841 76.887031403326574 19.054731367374341 -0.001473599705456423 0.20952380952381455 27.20829379513437 -0.081632653061280411 -14.364009533217869 81.059775630919816 0.58884149577931011 -0.11428571428577228
decision_type=6 4 6 4 6 6 6 6 6 4 6 4
left_child=5 2 3 8 11 7 -3 -1 -2 -5 -6 -4
right_child=1 6 4 9 10 -7 -8 -9 -10 -11 -12 -13
leaf_value=8.6362167461607262e-06 -2.0799097078441578e-08 -3.5429395601762234e-06 0 -1.1423675985720808e-06 0 0 -9.8587623131475572e-08 2.5856797495432732e-06 7.3492334364027837e-07 -5.3485791568192529e-06 9.9684966267645901e-07 4.4637095758474969e-06
leaf_weight=8854 74605 26182 687 131941 6912 1722 19818 15842 76763 3601 15147 14117
leaf_count=8854 74605 26182 687 131941 6912 1722 19818 15842 76763 3601 15147 14117
internal_value=0 -4.20412e-07 -9.4929e-08 -4.53567e-07 2.28938e-06 4.92328e-06 -2.38516e-06 5.36278e-06 2.63359e-07 -1.36486e-06 2.45879e-07 4.3208e-06
internal_weight=0 369773 323773 286910 36863 26418 46000 24696 151368 135542 22059 14804
internal_count=396191 369773 323773 286910 36863 26418 46000 24696 151368 135542 22059 14804
is_linear=0
shrinkage=0.03


Tree=57
num_leaves=15
num_cat=0
split_feature=4 3 5 9 5 5 0 11 6 6 6 4 11 11
split_gain=0.000196539 0.000292138 0.000157761 0.000118665 7.30563e-05 0.00012972 8.15658e-05 5.28648e-05 5.06356e-05 1.73155e-05 1.29801e-05 8.25064e-06 5.44503e-06 6.86203e-05
threshold=41.244618832462358 0.0014944336450518384 -0.63252670940143207 -0.027249999999996884 0.072908653848053021 0.37697863248020275 84.229093888886794 0.0020445104887509579 -77.968093848004159 57.379053167901375 81.530643537764433 47.758072621770147 0.0020115610147488825 -0.010805370561025476
decision_type=6 4 4 6 6 6 4 4 6 6 6 6 4 6
left_child=2 8 3 7 6 -6 9 -1 12 -4 -10 -3 13 -2
right_child=1 11 4 -5 5 -7 -8 -9 10 -11 -12 -13 -14 -15
leaf_value=6.9363868677469908e-06 3.8925964816782388e-06 2.937984923499382e-07 -3.5250324606809497e-07 0 1.2584896457409191e-06 -1.5549733801251694e-06 -1.3903908527251234e-06 0 -9.198551791601695e-07 5.4210812846613569e-07 0 2.8712791230400771e-06 0 0
leaf_weight=5630 5869 15332 62592 2044 51303 17623 85067 946 41308 26560 9601 57179 3619 10724
leaf_count=5630 5869 15332 62592 2044 51303 17623 85067 946 41308 26560 9601 57179 3619 10724
internal_value=0 1.18704e-06 -1.67128e-07 3.67741e-06 -3.65145e-07 3.21501e-07 -7.22899e-07 5.82762e-06 0 0 -6.76095e-07 2.53317e-06 1.05034e-06 1.28028e-06
internal_weight=0 143632 251765 8620 243145 68926 174219 6576 71121 89152 50909 72511 20212 16593
internal_count=395397 143632 251765 8620 243145 68926 174219 6576 71121 89152 50909 72511 20212 16593
is_linear=0
shrinkage=0.03


Tree=58
num_leaves=18
num_cat=0
split_feature=13 10 10 5 2 11 1 10 1 11 8 1 0 0 13 6 6
split_gain=0.000315225 0.000316013 0.000744958 0.000196762 0.000176234 0.000235436 0.000133768 0.000245887 0.000127519 9.39534e-05 7.28141e-05 6.43157e-05 3.13686e-05 2.39583e-05 4.91284e-06 1.10411e-06 8.28404e-06
threshold=0.0086253331359801792 -0.0031695760747254323 -0.012485348501182483 0.092967200855667911 20.466679844217186 0.0021438384011410179 29.856929245290676 0.0063768365982007922 180.73717779468197 -0.0015402615373982782 -0.030110341887814803 55.131824195579973 161.33353749999912 31.365368194442258 -0.001073599774226329 138.76817812628641 -4.3975494180415469
decision_type=4 6 6 6 4 6 4 6 6 4 6 6 6 6 6 6 4
left_child=1 2 8 6 5 -5 10 -8 -1 -2 -3 -6 13 -4 -14 16 -11
right_child=9 3 12 4 11 -7 7 -9 -10 15 -12 -13 14 -15 -16 -17 -18
leaf_value=9.2163747595817261e-06 -9.4992784213990324e-06 0 2.294726800975815e-06 -1.4298220137661837e-07 -3.6462697161428495e-06 3.789396790799085e-06 -8.7723520917314547e-07 -6.8382907574790383e-06 0 0 4.1673511530778909e-06 0 -9.7165694893048311e-07 6.235183233208075e-08 0 0 -2.0555924742937852e-06
leaf_weight=11776 3864 3157 8529 13757 5381 27931 201175 7442 3069 248 5993 20741 11655 52211 5473 4315 9478
leaf_count=11776 3864 3157 8529 13757 5381 27931 201175 7442 3069 248 5993 20741 11655 52211 5473 4315 9478
internal_value=0 0 1.53032e-06 -4.85394e-07 8.1069e-07 2.13197e-06 -9.57863e-07 -1.16185e-06 7.72356e-06 -4.06503e-06 2.0532e-06 -7.23758e-07 1.56824e-07 6.22829e-07 -6.19965e-07 -1.50027e-06 -1.83066e-06
internal_weight=0 378290 92713 285577 67810 41688 217767 208617 14845 17905 9150 26122 77868 60740 17128 14041 9726
internal_count=396195 378290 92713 285577 67810 41688 217767 208617 14845 17905 9150 26122 77868 60740 17128 14041 9726
is_linear=0
shrinkage=0.03


Tree=59
num_leaves=23
num_cat=0
split_feature=8 3 15 11 6 0 12 0 11 3 6 0 11 11 11 3 3 13 1 6 3 4
split_gain=0.000316967 0.000327187 0.000400326 0.000238653 8.88096e-05 0.00037499 0.000116482 0.000190304 0.000111705 9.37602e-05 8.72075e-05 8.15374e-05 7.765e-05 5.83214e-05 0.000103578 5.73481e-05 4.70171e-05 4.28222e-05 1.55125e-05 9.04732e-06 8.06116e-06 6.78569e-06
threshold=-0.21330866256174666 -0.10000000000005529 0.77728924082342943 0.002306812853088674 53.797844194032386 168.9567402777769 0.93277259215870389 137.92515138888697 -0.0071279369787735714 -0.15833333333336871 -12.53691733638979 58.568977777775977 -0.0059310180171572285 -0.0054251334314509804 -0.024838064012592209 0.08175852627815576 0.21250000000005498 0.00033960691437324368 56.792505274466272 80.572142911929987 -0.013745704467348765 92.920731350879024
decision_type=4 6 6 4 6 4 4 6 6 4 6 6 6 6 6 4 6 6 6 6 6 6
left_child=1 2 -1 10 5 13 15 11 -9 -7 -4 -8 19 14 -2 20 -17 -14 -15 21 -6 -3
right_child=4 12 3 -5 6 9 7 8 -10 -11 -12 -13 17 18 -16 16 -18 -19 -20 -21 -22 -23
leaf_value=0 7.3736927194377455e-06 2.1170448906952101e-06 1.7464194959067188e-05 0 0 0 0 -5.0033123017478001e-06 4.4784912084183435e-06 -4.2585652076807865e-06 0 -1.1383049497130581e-05 0 0 1.5236630123421542e-07 2.6382330874465222e-06 0 -3.0901490109596269e-06 -5.9038120519448099e-07 0 4.2926428323101621e-07 0
