tree
version=v4
num_class=1
num_tree_per_iteration=1
label_index=0
max_feature_idx=15
objective=regression
feature_names=Column_0 Column_1 Column_2 Column_3 Column_4 Column_5 Column_6 Column_7 Column_8 Column_9 Column_10 Column_11 Column_12 Column_13 Column_14 Column_15
feature_infos=[0:0.48630729999999983] [0:0.48779837101226298] [0:94.678639808096548] [-1:1] [0:99.234015209828755] [-0.015887596153846162:0.19384615384615381] [-466.66666694913306:466.6666669874927] [-99.838615293215426:100] [-3.5244379486666406:116.66666666666667] [-0.041999999999999982:0.35999999999999999] [-0.11595991884971299:4.0943445622221004] [-0.17123534682878352:0.28768207245178085] [-10.05035317771762:14.634146341463406] [-0.10050353177717621:0.14634146341463414] [0:1.1463414634146341] [0:0.045630903757874819]
tree_sizes=2615 2582 2514 2223 1739 2498 2254 2362 2353 2498 1946 2368 2532 2449 1821 2520 2216 2271 2700 2492 2559 2236 2276 2001 2483 2082 2218 2851 2339 2607 2537 2695 1790 2102 2356 2276 2320 2742 1935 2120 2308 2540 2032 2200 1956 2438 1823 1746 2035 2047 2523 2174 2410 2542 2000 1775 2183 1928 2631 2657 2183 1821 2423 1995 1931 2405 2388 2102 1267 2239 2118 2081 1985 1924 1956 2388 1523 1740 2267 1716 1631 2060 1774 2013 1599 1082 1631 1417 1435 2025 1433 1616 1548 2212 2087 1677 2090 1846 1820 1992

Tree=0
num_leaves=24
num_cat=0
split_feature=6 10 2 4 5 6 10 13 8 9 1 0 3 9 3 10 0 9 10 9 14 9 3
split_gain=0.0049176 0.0013406 0.00132007 0.00124524 0.000896581 0.000880295 0.000854382 0.000248102 0.000217197 0.000233117 0.000195629 0.000295829 0.000244044 0.000181524 0.000154223 0.000100586 8.32103e-05 5.75245e-05 5.41183e-05 5.24619e-05 1.95504e-05 1.17261e-05 2.62809e-06
threshold=74.90495115267413 -0.0044209736948136284 58.609482169064165 66.724511747794395 8.7860042737308866e-05 -139.91367645565083 0.00046414178949034582 0.001118784859327129 -0.010224408802545036 -0.0005219999999999807 0.29114384672501026 0.22571030555555455 0.36673464351113372 0.00079999999999998139 -0.01718481529226995 -0.0060611079206157074 0.12673387582638701 0.0010480000000000214 0.0083398898330972419 -0.00020500000000000376 0.99999748642794517 -0.002524749999999978 -0.016614946013862795
decision_type=6 4 6 6 6 4 4 4 4 4 4 6 4 6 4 4 6 4 6 4 6 6 6
left_child=1 3 4 5 15 -1 8 -7 9 -3 11 -8 -12 21 -4 -2 19 -18 -17 -5 -10 -6 -16
right_child=2 6 14 16 13 7 10 -9 20 -11 12 -13 -14 -15 22 18 17 -19 -20 -21 -22 -23 -24
leaf_value=-2.3507008880504093e-05 -8.4462438028866283e-06 -1.5694209232956864e-05 -1.415584081458876e-05 -1.2126861475445405e-05 -8.4462438028866283e-06 -1.4181223189558945e-05 -4.7206702078546744e-06 -8.4462438028866283e-06 -9.4403777415621486e-06 -1.0556274866346692e-05 -1.5101462712463085e-05 -8.4462438028866283e-06 -8.1074917847302658e-06 6.052983742663497e-06 -8.4462438028866283e-06 -3.6184412525580364e-06 -3.7932685132426379e-06 -8.4462438028866283e-06 -8.4462438028866283e-06 -5.9669792687432176e-06 -8.4462438028866283e-06 -2.0678050684718339e-06 -7.7811517302306362e-06
leaf_weight=12048 1637 16374 4247 2805 163 37792 42421 6976 27818 45372 4791 32253 64036 23656 349 24069 8726 586 1800 1493 15926 11303 9710
leaf_count=12048 1637 16374 4247 2805 163 37792 42421 6976 27818 45372 4791 32253 64036 23656 349 24069 8726 586 1800 1493 15926 11303 9710
internal_value=-8.44624e-06 -9.96861e-06 -1.52262e-06 -1.36435e-05 3.75858e-07 -1.56649e-05 -8.86892e-06 -1.32188e-05 -1.09606e-05 -1.21619e-05 -7.43581e-06 -6.36785e-06 -8.44624e-06 3.79071e-06 -8.7854e-06 -4.53039e-06 -6.30686e-06 -4.60834e-06 -3.99615e-06 -8.44624e-06 -8.92194e-06 -2.18637e-06 -8.00817e-06
internal_weight=0 319417 76934 70426 62628 56816 248991 44768 105490 61746 143501 74674 68827 35122 14306 27506 13610 9312 25869 4298 43744 11466 10059
internal_count=396351 319417 76934 70426 62628 56816 248991 44768 105490 61746 143501 74674 68827 35122 14306 27506 13610 9312 25869 4298 43744 11466 10059
is_linear=0
shrinkage=1


Tree=1
num_leaves=27
num_cat=0
split_feature=7 15 8 2 2 2 0 2 6 11 13 11 8 6 4 3 6 14 6 6 6 3 0 9 0 6
split_gain=0.00347888 0.00175076 0.00135089 0.000993882 0.000539256 0.00129843 0.000682754 0.000476181 0.000471757 0.000462196 0.000341372 0.000322072 0.000172183 0.000348655 0.00012533 9.89461e-05 8.67163e-05 7.37567e-05 0.00032609 7.01064e-05 0.000635627 4.28389e-05 5.29202e-06 3.31059e-05 1.78632e-05 1.71226e-06
threshold=-3.6856347142312038 0.001363394451354595 0.17230234779431183 64.518628133321769 74.563920860693628 42.390678893399944 0.14244666805555375 11.108919277092179 128.44664789333811 0.00074841406638946303 0.0099605817894432899 -0.0070194610995767612 -0.020301124206002507 61.05339591929863 29.642385964746946 -0.30000000000015375 -32.175882224727999 0.99902667847794357 148.67036908418439 -68.096330666752365 -29.652685602738618 0.23786026220494536 0.1230584777777759 -0.00077237500000000559 0.22571030555555455 46.340444429721821
decision_type=4 4 6 6 6 6 6 6 6 4 4 6 4 6 6 6 4 6 6 6 6 4 4 4 6 6
left_child=4 2 17 12 5 7 21 16 11 -10 -9 -4 14 -14 -3 -8 -1 -2 -19 -5 -21 -7 23 -6 -24 -25
right_child=1 3 8 19 22 6 15 10 9 -11 -12 -13 13 -15 -16 -17 -18 18 -20 20 -22 -23 24 25 -26 -27
leaf_value=-2.9313142877756874e-06 0 0 0 0 -4.3880931683051116e-06 -5.0051990987880734e-06 0 -7.8873138367466982e-06 0 2.2526132050314796e-05 0 7.7726263599098882e-06 0 6.3255220608783255e-06 -7.6676212948027293e-06 8.3367474776876793e-06 0 1.5632475500082633e-06 6.8618700707792436e-06 7.0113931802467091e-06 -9.386436199357714e-06 0 0 6.5700836790682679e-07 2.2671739939464378e-06 0
leaf_weight=25404 14963 2848 2480 411 1451 6184 2415 70337 645 4636 4714 29572 56606 9030 3788 9494 5784 93194 15088 1339 18204 1419 4014 7778 4263 112
leaf_count=25404 14963 2848 2480 411 1451 6184 2415 70337 645 4636 4714 29572 56606 9030 3788 9494 5784 93194 15088 1339 18204 1419 4014 7778 4263 112
internal_value=0 1.92786e-06 3.84361e-06 -1.24508e-06 -3.91749e-06 -4.62034e-06 1.93244e-06 -5.96504e-06 8.97849e-06 1.91504e-05 -7.36266e-06 6.83349e-06 1.91933e-07 8.51592e-07 -4.07127e-06 6.92339e-06 -2.12059e-06 2.16634e-06 2.44019e-06 -7.201e-06 -7.49487e-06 -3.91253e-06 2.47893e-07 0 8.40282e-07 4.79863e-07
internal_weight=0 252804 160578 92226 143369 125751 19512 106239 37333 5281 75051 32052 72272 65636 6636 11909 31188 123245 108282 19954 19543 7603 17618 9341 8277 7890
internal_count=396173 252804 160578 92226 143369 125751 19512 106239 37333 5281 75051 32052 72272 65636 6636 11909 31188 123245 108282 19954 19543 7603 17618 9341 8277 7890
is_linear=0
shrinkage=0.03


Tree=2
num_leaves=25
num_cat=0
split_feature=9 10 3 3 4 3 4 8 3 5 14 3 0 3 10 2 4 10 10 5 8 10 10 13
split_gain=0.0045348 0.00226501 0.00193549 0.00121432 0.000457683 0.000336037 0.000279258 0.000226281 0.000184316 0.000138353 0.000117236 0.000274238 0.000203585 0.000155028 0.00015468 0.000151253 0.000102662 8.99414e-05 3.67956e-05 2.81191e-05 2.75925e-05 2.31926e-05 1.69933e-05 1.52565e-05
threshold=-0.00030000000000009181 0.004153453186217221 -0.0681685173979696 0.04377494500031557 34.763436713498344 0.23483929096794334 26.37278104652172 -0.038781675288134705 -0.27083333333380916 -0.00068322168803347505 1.0013609563461769 -0.0056064931111643066 0.25588035366666451 0.32142857142851605 0.00010453896095122767 14.079523158295927 34.570160864219154 0.0011413825869899385 0.0027844938746603774 3.9176282053715601e-05 0.090376634614079618 -0.015193752070761752 0.00075944284614516591 -0.0030926299086512211
decision_type=4 6 4 6 6 4 6 6 6 6 6 4 6 4 6 6 6 6 6 6 6 6 6 6
left_child=2 10 7 6 17 -6 23 18 -8 -5 12 15 14 -14 -2 -12 -13 -4 -1 -11 -7 -9 -23 -3
right_child=1 3 4 9 5 20 8 21 -10 19 11 16 13 -15 -16 -17 -18 -19 -20 -21 -22 22 -24 -25
leaf_value=-1.2801405635273739e-05 0 0 -4.8469308680158733e-06 0 3.5431802747143292e-06 -2.8491446070537316e-06 3.0720185354065783e-06 0 -1.5647590046423364e-06 2.136558530605857e-06 1.8696650074958511e-06 4.2739743587912292e-06 -5.6205800455339318e-06 0 2.2877812822342237e-06 -3.2714650608257752e-06 4.2421805383477982e-07 0 0 1.3215434639425912e-05 0 -7.1636216608850238e-06 -2.4046765103925371e-07 7.3790070188083742e-06
leaf_weight=25192 94544 345 30268 564 17834 13182 15763 362 10998 3631 4680 25510 9225 16279 32569 13115 21443 6282 451 23098 3428 11975 5407 10473
leaf_count=25192 94544 345 30268 564 17834 13182 15763 362 10998 3631 4680 25510 9225 16279 32569 13115 21443 6282 451 23098 3428 11975 5407 10473
internal_value=0 2.00149e-06 -5.07903e-06 6.93866e-06 -1.76805e-06 3.26475e-07 2.89573e-06 -1.01507e-05 6.05987e-07 1.19551e-05 4.58942e-07 1.5286e-06 0 -2.44089e-06 4.95924e-07 -1.07648e-06 2.83537e-06 -4.15218e-06 -1.26374e-05 1.22718e-05 -2.22432e-06 -5.7109e-06 -5.87318e-06 7.17249e-06
internal_weight=0 282237 114381 64872 70994 34444 37579 43387 26761 27293 217365 64748 152617 25504 127113 17795 46953 36550 25643 26729 16610 17744 17382 10818
internal_count=396618 282237 114381 64872 70994 34444 37579 43387 26761 27293 217365 64748 152617 25504 127113 17795 46953 36550 25643 26729 16610 17744 17382 10818
is_linear=0
shrinkage=0.03


Tree=3
num_leaves=22
num_cat=0
split_feature=7 11 9 7 4 3 3 0 10 4 0 9 6 15 8 15 8 12 13 3 3
split_gain=0.00483165 0.00235124 0.00175101 0.00156102 0.00115091 0.000952084 0.000820152 0.000396967 0.000810536 0.000383508 0.000473441 0.00026398 0.000186804 0.000163739 0.000116686 0.000147048 0.000116156 4.0076e-05 2.47261e-05 1.06973e-05 4.82084e-06
threshold=4.0478734862575818 -0.0485402776305539 -0.00027999999999999548 11.44609354869481 35.274402286810577 -0.8434436274508893 0.51851851851851161 0.24633488611110879 -0.0022451932757911433 66.201060611042337 0.14726486547222042 -0.00021999999999995631 -78.356341081369393 0.00086083662238622992 0.1778357914281011 0.0011829453262465291 -0.015752461973967975 0.69804160855984076 0.00010322849028109455 -0.037499999999981853 -0.55882352941152691
decision_type=6 4 4 4 6 6 4 6 4 4 4 6 4 6 6 6 6 6 4 4 4
left_child=1 6 7 16 5 -5 13 8 -3 18 -11 -7 -9 -1 19 -16 20 -18 -4 -6 -2
right_child=3 2 9 4 14 11 -8 12 -10 10 -12 -13 -14 -15 15 -17 17 -19 -20 -21 -22
leaf_value=0 0 -6.2603633171407913e-06 -3.0594516868085382e-06 3.9402189933459746e-06 0 0 0 -1.0464642393036086e-05 2.7442057013946524e-07 5.7469939378645578e-06 -3.4193348767706603e-08 1.4701424397634383e-05 -4.4418164762069416e-06 4.2386422921248393e-05 6.9241093169126109e-06 0 1.6874324641115711e-06 0 -9.6803567758256472e-07 7.6175399520932338e-07 -1.8532019303415426e-06
leaf_weight=71 616 39177 31790 18957 2251 1408 661 24822 22929 14808 58682 27125 20358 1446 10443 7712 34884 2492 43878 17516 13721
leaf_count=71 616 39177 31790 18957 2251 1408 661 24822 22929 14808 58682 27125 20358 1446 10443 7712 34884 2492 43878 17516 13721
internal_value=0 -2.37668e-06 -2.69386e-06 4.5889e-06 7.08787e-06 1.0325e-05 2.80562e-05 -5.63149e-06 -3.60633e-06 -4.8027e-07 9.26718e-07 1.40407e-05 -8.08308e-06 4.01948e-05 2.63815e-06 4.50456e-06 1.71297e-07 1.30101e-06 -2.04498e-06 1.64906e-07 -1.72749e-06
internal_weight=0 258622 256444 137125 85412 47490 2178 107286 62106 149158 73490 28533 45180 1517 37922 18155 51713 37376 75668 19767 14337
internal_count=395747 258622 256444 137125 85412 47490 2178 107286 62106 149158 73490 28533 45180 1517 37922 18155 51713 37376 75668 19767 14337
is_linear=0
shrinkage=0.03


Tree=4
num_leaves=17
num_cat=0
split_feature=12 3 14 0 15 6 7 8 10 6 11 1 12 8 13 6
split_gain=0.00352008 0.00249391 0.00148331 0.000611441 0.000587049 0.000534008 0.000512953 0.000490041 0.000256622 0.000174248 0.000100174 7.59194e-05 4.46374e-05 4.0343e-05 3.9271e-05 2.40844e-07
threshold=0.24695888005288327 -0.057600189198465483 0.99855865006039835 0.25266344583333145 0.0010849914526245002 18.332736531980299 -4.36480907393591 -0.25335107339058133 0.00017681315027442531 -61.426603616698181 0.025687376746652824 0.24320392463145116 0.1928289705659503 -0.0031375553878507938 0.00080225627433431611 27.908528117759214
decision_type=6 4 4 6 6 4 6 4 4 4 6 6 4 6 4 6
left_child=1 2 10 4 9 -6 12 11 -9 -3 -1 -2 -5 -8 15 -4
right_child=7 3 14 6 5 -7 13 8 -10 -11 -12 -13 -14 -15 -16 -17
leaf_value=-9.6205941343018605e-06 0 -1.5612868962098853e-06 -2.0870463629815968e-06 -5.2319836325787996e-06 8.2255740181307066e-06 0 -4.9579505809383976e-07 8.9555061148292794e-07 6.9949392133471433e-06 1.0489692733810607e-06 0 -4.3653842351522595e-06 0 1.329110679970654e-06 0 0
leaf_weight=44585 3474 25994 20115 28435 18904 7397 8831 13303 67589 106616 810 3618 3549 20528 13529 8029
leaf_count=44585 3474 25994 20115 28435 18904 7397 8831 13303 67589 106616 810 3618 3549 20528 13529 8029
internal_value=0 -1.31534e-06 -5.62374e-06 3.19729e-07 1.36038e-06 5.51004e-06 -2.13155e-06 5.4844e-06 6.17735e-06 4.24183e-07 -9.42966e-06 -3.04407e-07 -4.80421e-06 2.69313e-07 -1.11772e-06 -1.76225e-06
internal_weight=0 307322 87068 220254 158911 26301 61343 87984 80892 132610 45395 7092 31984 29359 41673 28144
internal_count=395306 307322 87068 220254 158911 26301 61343 87984 80892 132610 45395 7092 31984 29359 41673 28144
is_linear=0
shrinkage=0.03


Tree=5
num_leaves=25
num_cat=0
split_feature=3 7 13 0 1 1 10 15 15 15 9 10 15 12 10 13 15 13 15 9 5 10 9 15
split_gain=0.00381426 0.00269722 0.00159513 0.000682532 0.00036686 0.000332975 0.000473594 0.000366679 0.00029368 0.000756211 0.000223669 0.000212647 0.000185145 0.000161127 0.00013509 0.000102964 6.56e-05 3.68642e-05 2.78448e-05 2.31692e-05 2.27475e-05 1.07442e-05 4.95795e-06 1.41178e-06
threshold=-0.00089645916719037846 9.8671641629091464 -0.0013576825672482462 0.3627456500000002 0.22607888696503858 0.23038468399123363 -0.0042978485166659339 0.0023299531108012281 0.00069971479406504141 0.0012440602329614177 0.0079185000000000245 0.0016407784609056488 0.0014731923063708049 0.070251540814325622 -0.001992786319000689 -0.0021847275248158536 0.00047424674111658845 0.0022355219020453129 0.00018061986041923266 -1.3000000000006061e-05 0.00024001896367487066 -0.00058486487622623137 2.2833333333353859e-05 0.00044105358772921914
decision_type=4 6 4 6 6 6 6 6 6 6 4 6 6 4 6 6 6 6 6 6 6 6 4 6
left_child=2 4 5 11 14 6 -1 16 19 17 -11 23 13 -6 22 -14 -7 -10 -16 -4 -21 -8 -2 -3
right_child=1 3 8 -5 12 7 21 -9 9 10 -12 -13 15 -15 18 -17 -18 -19 -20 20 -22 -23 -24 -25
leaf_value=-9.5169572195427063e-06 -2.10905674675881e-07 0 0 0 -3.5612419966727006e-06 0 -1.4500873076601416e-06 0 -4.4163828946449571e-08 -8.4019448721232798e-06 0 8.4319894897267655e-06 3.4246380295540722e-06 0 0 -6.2958315335668966e-07 -1.3693877597201262e-05 2.0965829195130872e-06 2.5747883866501595e-06 0 3.4609933641368696e-06 0 2.5803661777821354e-07 1.8732007673476886e-06
leaf_weight=13972 18879 4779 12267 10130 43715 2117 9389 3380 14062 18167 564 55864 7735 19235 2456 9417 20533 7540 35537 16125 3777 7106 54401 4721
leaf_count=13972 18879 4779 12267 10130 43715 2117 9389 3380 14062 18167 564 55864 7735 19235 2456 9417 20533 7540 35537 16125 3777 7106 54401 4721
internal_value=0 1.68479e-06 -4.5887e-06 6.49176e-06 -1.33139e-07 -8.42627e-06 -5.28024e-06 -1.15317e-05 -1.39125e-06 -3.1519e-06 -7.59746e-06 7.62047e-06 -1.74744e-06 -2.55025e-06 8.94154e-07 3.24495e-07 -1.29379e-05 8.85523e-09 2.35402e-06 3.50028e-07 1.1161e-06 -7.81569e-07 0 1.26901e-06
internal_weight=0 266869 128999 75494 191375 56497 30467 26030 72502 40333 18731 65364 80102 62950 111273 17152 22650 21602 37993 32169 19902 16495 73280 9500
internal_count=395868 266869 128999 75494 191375 56497 30467 26030 72502 40333 18731 65364 80102 62950 111273 17152 22650 21602 37993 32169 19902 16495 73280 9500
is_linear=0
shrinkage=0.03


Tree=6
num_leaves=23
num_cat=0
split_feature=7 11 4 7 6 13 4 4 4 15 0 15 7 5 14 1 2 5 13 14 6 13
split_gain=0.00297891 0.00690608 0.00127895 0.00216575 0.000735379 0.000631152 0.000641722 0.00135699 0.000522426 0.00038854 0.000935489 0.00036284 0.000296628 0.000149112 0.00012566 0.000118707 9.86365e-05 9.16834e-05 2.94819e-05 7.9773e-06 6.96505e-06 1.88081e-06
threshold=-6.0505961013271863 -0.05923770125360827 57.724181406418928 15.501366687476985 -77.180277275238268 0.0083681228085751447 74.956790008339297 82.344461656420464 48.218324922543665 0.00032696457348493479 0.37069862500000056 0.0010774630296329143 2.2777185633081829 -0.00012516987178980141 0.9999933901413961 0.22832413315322292 11.508876676704014 -3.3475427347523505e-05 0.0011714273588553233 1.0108053682724303 -98.899373033105277 -0.0041180786036879935
decision_type=4 4 4 6 4 6 6 6 6 6 6 6 6 6 6 4 4 6 6 6 6 6
left_child=1 -1 3 12 8 11 -7 -8 14 21 -11 15 16 -13 -3 -4 -2 -14 -10 20 -6 -5
right_child=2 4 5 9 19 6 7 -9 18 10 -12 13 17 -15 -16 -17 -18 -19 -20 -21 -22 -23
leaf_value=7.4039982138478388e-05 2.7638106547981948e-07 -9.1400947700942657e-06 2.6408967773416478e-06 0 0 0 0 -2.9937002385644303e-05 -2.1891906234319992e-06 1.0876084156076116e-05 0 -7.5101944470048522e-06 0 -8.95041581415199e-07 0 0 -2.0827828643209678e-06 2.745724899137476e-06 0 0 -2.0139360877427056e-06 1.0849746945906525e-06
leaf_weight=985 12724 46001 21572 2052 750 2859 1746 2733 19047 40535 6114 7160 16947 18378 1298 54636 32786 43034 192 132 55704 8252
leaf_count=985 12724 46001 21572 2052 750 2859 1746 2733 19047 40535 6114 7160 16947 18378 1298 54636 32786 43034 192 132 55704 8252
internal_value=0 -4.08441e-06 1.51899e-06 3.22707e-06 -4.83243e-06 -8.87125e-07 -9.42728e-06 -1.6567e-05 -7.06855e-06 7.96301e-06 9.20537e-06 -1.23607e-07 5.27924e-07 -3.33747e-06 -8.8802e-06 7.56622e-07 -1.09362e-06 2.00832e-06 -1.83459e-06 -1.9378e-06 -1.97257e-06 8.82349e-07
internal_weight=0 124109 271528 162444 123124 109084 7338 4479 66538 56953 46649 101746 105491 25538 47299 76208 45510 59981 19239 56586 56454 10304
internal_count=395637 124109 271528 162444 123124 109084 7338 4479 66538 56953 46649 101746 105491 25538 47299 76208 45510 59981 19239 56586 56454 10304
is_linear=0
shrinkage=0.03


Tree=7
num_leaves=24
num_cat=0
split_feature=7 13 0 3 2 3 0 10 8 3 5 1 8 12 12 11 13 5 13 0 4 8 13
split_gain=0.00394587 0.00145691 0.000943587 0.00126125 0.00077997 0.00069668 0.000843431 0.000623667 0.000243383 0.000459917 0.000176123 0.000107326 0.000106011 6.3024e-05 0.000229521 4.82823e-05 4.34217e-05 3.99999e-05 3.69221e-05 3.1999e-05 9.07177e-06 4.52842e-06 6.44859e-07
threshold=19.716444320240161 0.00029034833963778866 0.26197924908333065 -0.03200000000001809 75.782114003818705 0.43894307619441625 0.19595285555555383 0.00028517754201175428 0.046822687136640458 0.42857142857159852 -0.00021746153845961233 0.20512512908990585 -0.041601324666845386 0.30200864810776556 0.63466348362177805 -0.00050481321256541807 -0.0024560099365779054 2.0592681628212043e-05 0.0012645684872970634 0.37245594166666673 82.744687305692494 -0.2373537592693746 0.0080434443053483008
decision_type=6 4 6 4 4 4 6 6 6 4 6 6 6 4 4 6 6 4 4 6 6 4 4
left_child=1 2 3 7 5 19 -7 -1 9 -4 15 13 22 -6 -15 21 -14 -5 -17 -2 -10 -3 -12
right_child=4 10 8 17 11 6 -8 -9 20 -11 12 -13 16 14 -16 18 -18 -19 -20 -21 -22 -23 -24
leaf_value=-6.7726209966678225e-06 1.4719962821098341e-05 -2.1396935410112574e-07 -1.2089735678960404e-05 3.7808274724568505e-08 0 2.3045493456447291e-05 3.5395891575240304e-06 0 -1.701323008516213e-06 -3.7347944607010909e-06 -2.1684194627346199e-07 0 0 0 -1.7430076860586778e-05 0 2.3608145491476256e-06 1.9589581468872444e-06 -3.1335240780707807e-06 0 0 2.5475717425904942e-07 0
leaf_weight=42399 15331 9012 17455 47972 137 2603 31819 13270 12923 19904 12341 285 5482 237 1481 1713 70689 24381 7899 358 122 56436 1613
leaf_count=42399 15331 9012 17455 47972 137 2603 31819 13270 12923 19904 12341 285 5482 237 1481 1713 70689 24381 7899 358 122 56436 1613
internal_value=0 -1.17327e-06 -3.07061e-06 -1.54622e-06 7.67536e-06 8.58053e-06 5.45163e-06 -4.98523e-06 -6.64464e-06 -8.04035e-06 7.85366e-07 -6.50586e-06 1.69685e-06 -1.00418e-05 -1.191e-05 -1.09239e-07 2.15854e-06 8.92531e-07 -2.1478e-06 1.44879e-05 -1.49721e-06 0 0
internal_weight=0 343611 178426 128022 52251 50111 34422 55669 50404 37359 165185 2140 90125 1855 1718 75060 76171 72353 9612 15689 13045 65448 13954
internal_count=395862 343611 178426 128022 52251 50111 34422 55669 50404 37359 165185 2140 90125 1855 1718 75060 76171 72353 9612 15689 13045 65448 13954
is_linear=0
shrinkage=0.03


Tree=8
num_leaves=24
num_cat=0
split_feature=10 7 15 3 15 15 4 4 14 15 1 12 3 3 15 3 4 13 15 2 0 4 5
split_gain=0.00295828 0.00147964 0.00160524 0.00132197 0.00108534 0.00259586 0.0060706 0.00291105 0.00126734 0.000603685 0.000368096 0.000262521 0.000443238 0.000168965 0.000423221 0.000161628 0.000152364 0.000136116 9.31573e-05 0.000648072 3.99555e-05 2.41338e-05 8.37504e-06
threshold=0.00049962180784754657 12.21441291018154 0.001950440080974348 0.021370600261074849 0.0043321806185447394 0.007682492944516053 60.261860703731593 76.128549407813438 0.99675452113590379 0.00054215299412094535 0.1991385507000272 0.32899514630438947 0.45270270270268037 0.11844813793967013 0.0012696767056548824 -0.021978021978010524 20.42677526665689 0.00052588795636774634 0.00029281573604232576 26.037655402274059 0.10225042152777598 23.3332095626495 -0.00027673557692012291
decision_type=6 4 6 6 6 6 6 6 4 6 6 4 4 4 6 6 6 4 6 6 6 6 6
left_child=4 13 3 15 8 22 -7 -8 18 -5 20 -4 -13 14 21 -3 -16 -12 -1 -20 -10 -2 -6
right_child=1 2 11 9 5 6 7 -9 10 -11 17 12 -14 -15 16 -17 -18 -19 19 -21 -22 -23 -24
leaf_value=0 2.3393910871802634e-06 4.2451395633454682e-06 0 4.3549147964244384e-06 -2.1718326555325593e-06 0 0.00023968650974410364 1.4653801907423763e-05 0 1.5920692121909261e-05 -3.3453632507781019e-06 -1.5226356603059351e-05 0 1.7931722800769064e-06 0 0 -6.3070981614650598e-06 -3.8704460259370029e-07 -8.8335803769501749e-06 -1.2519035290755653e-06 1.1841937777702232e-06 0 0
leaf_weight=3417 7213 35032 1240 10215 1596 473 190 317 52924 20592 52896 3896 2180 36626 859 4308 13482 36537 37443 20887 32132 19931 953
leaf_count=3417 7213 35032 1240 10215 1596 473 190 317 52924 20592 52896 3896 2180 36626 859 4308 13482 36537 37443 20887 32132 19931 953
internal_value=0 3.26697e-06 6.21307e-06 7.70681e-06 -2.04428e-06 1.38679e-05 5.54131e-05 0.000129066 -2.34559e-06 1.25731e-05 -9.35755e-07 -6.05767e-06 -9.11343e-06 1.53196e-07 -9.33153e-07 3.51432e-06 -5.27603e-06 -2.30453e-06 -6.08653e-06 -6.37599e-06 3.27124e-07 8.08975e-07 0
internal_weight=0 155574 77463 70147 239765 3529 980 507 236236 30807 174489 7316 6076 78111 41485 39340 14341 89433 61747 58330 85056 27144 2549
internal_count=395339 155574 77463 70147 239765 3529 980 507 236236 30807 174489 7316 6076 78111 41485 39340 14341 89433 61747 58330 85056 27144 2549
is_linear=0
shrinkage=0.03


Tree=9
num_leaves=25
num_cat=0
split_feature=7 4 9 3 10 12 15 5 3 4 10 3 10 3 0 3 0 3 15 15 3 15 3 8
split_gain=0.00432459 0.00108531 0.00102113 0.0019833 0.000661519 0.000500141 0.000393783 0.000380758 0.000152666 0.000458403 0.000213719 9.86817e-05 7.30745e-05 7.13132e-05 5.52031e-05 5.34302e-05 0.000521051 3.58065e-05 5.66892e-05 5.56049e-05 0.000118638 1.43455e-05 1.14699e-05 5.61155e-07
threshold=6.4088868305827109 72.372142954481504 -2.8000000000097388e-05 -0.03030303030304177 -0.0015139465940091476 0.8043444305348314 0.00045695630954291296 3.8782051302518891e-06 -0.4367423964149853 73.094589802906611 -0.00098997887044530294 -0.006631929484457161 0.00999535572166276 0.061455423649934234 0.2204048028472208 0.51851851851851161 0.12045137986110935 0.024390243902413022 0.00062920328905490517 0.0005564237429214403 0.0055555555555045098 0.00069971479406504141 -0.052857142857136295 0.044696458967325416
decision_type=6 6 4 4 6 6 4 4 6 6 6 4 6 6 6 4 6 6 6 6 6 6 4 6
left_child=2 6 3 4 -1 11 14 22 10 -10 -5 -3 -6 -9 -2 16 -7 19 -19 23 -21 -20 -8 -4
right_child=1 5 17 8 12 15 7 13 9 -11 -12 -13 -14 -15 -16 -17 -18 18 21 20 -22 -23 -24 -25
leaf_value=-1.0125385200514851e-05 3.6306063133466596e-06 -2.6834618324410478e-06 8.8203010180570096e-08 -3.7517936856065417e-06 -3.1570941529501128e-06 -2.6726372645204809e-05 0 6.1367652943578087e-06 -1.0302375637514373e-06 5.4531565141260937e-06 3.4290473979127173e-07 3.4295504476541907e-06 0 1.0723366719370037e-05 0 0 0 0 0 -2.0815758313933657e-06 3.7462311144861239e-06 2.4355798985013738e-06 1.938022721565871e-06 0
leaf_weight=41299 13661 2729 64915 24651 22161 1478 1610 34856 38137 12654 10403 5877 445 25581 15256 360 2168 10079 1527 32096 1890 14722 14021 3654
leaf_count=41299 13661 2729 64915 24651 22161 1478 1610 34856 38137 12654 10403 5877 445 25581 15256 360 2168 10079 1527 32096 1890 14722 14021 3654
internal_value=0 4.86142e-06 -1.99849e-06 -3.68351e-06 -7.70512e-06 -2.67116e-06 5.90923e-06 7.15105e-06 -5.14894e-07 2.89861e-07 -2.10877e-06 0 -2.61955e-06 8.3266e-06 2.12358e-06 -1.16087e-05 -1.26982e-05 0 9.42967e-07 -2.93153e-07 -1.31595e-06 2.14014e-06 1.64584e-06 0
internal_weight=0 117597 278633 149750 63905 12612 104985 76068 85845 50791 35054 8606 22606 60437 28917 4006 3646 128883 26328 102555 33986 16249 15631 68569
internal_count=396230 117597 278633 149750 63905 12612 104985 76068 85845 50791 35054 8606 22606 60437 28917 4006 3646 128883 26328 102555 33986 16249 15631 68569
is_linear=0
shrinkage=0.03


Tree=10
num_leaves=19
num_cat=0
split_feature=7 6 15 15 3 10 10 12 15 0 15 1 9 3 15 10 13 5
split_gain=0.00426855 0.0014058 0.00103262 0.00050716 0.000438815 0.000436136 0.0003887 0.000307839 0.000261387 0.000235501 0.000275392 0.000191517 0.000137461 0.000126315 0.000112025 0.000109507 7.90719e-05 1.42985e-07
threshold=14.613068083878151 -82.820075147958207 0.0022115641615965205 0.0007736415250113542 0.0076256610136645536 0.0041912782391525403 -0.0010659103747399999 1.5546059724997454 0.00019617765867974995 0.25630983116666389 0.00092023192178391795 0.25896769389155883 9.0000000000020633e-05 -0.33333333333362242 0.00055297654852702615 0.0020935917360256967 5.184027845409548e-06 5.6310897436517855e-05
decision_type=6 4 6 6 4 6 6 6 6 6 6 4 4 6 6 6 4 6
left_child=1 5 3 8 9 6 12 -4 -2 10 -3 14 -1 -5 -6 -10 -13 -8
right_child=2 4 7 13 11 -7 17 -9 15 -11 -12 16 -14 -15 -16 -17 -18 -19
leaf_value=-6.9843542881568025e-06 0 3.5237904748204605e-07 0 4.9347625224107559e-06 0 4.8068025576905167e-06 -1.4392971327175888e-07 -1.4205933794821024e-05 0 -5.312220688485655e-06 -3.3556684206077958e-06 -2.0192780265209871e-06 0 1.3771516847438036e-05 2.539647581476666e-06 6.8366961626164667e-06 5.1476649987444205e-08 0
leaf_weight=53014 6268 39676 2972 8408 32706 2259 6210 1895 4577 17491 26302 18357 901 18732 52226 27945 69720 6875
leaf_count=53014 6268 39676 2972 8408 32706 2259 6210 1895 4577 17491 26302 18357 901 18732 52226 27945 69720 6875
internal_value=0 -1.25705e-06 6.8649e-06 7.94336e-06 -1.71965e-07 -5.05861e-06 -5.61525e-06 -4.66093e-06 5.00683e-06 -2.00324e-06 -8.98542e-07 6.24855e-07 -6.75807e-06 1.15871e-05 1.66706e-06 6.09365e-06 -2.09844e-07 0
internal_weight=0 325737 70797 65930 256478 69259 67000 4867 38790 83469 65978 173009 53915 27140 84932 32522 88077 13085
internal_count=396534 325737 70797 65930 256478 69259 67000 4867 38790 83469 65978 173009 53915 27140 84932 32522 88077 13085
is_linear=0
shrinkage=0.03


Tree=11
num_leaves=24
num_cat=0
split_feature=7 3 9 3 4 9 4 10 3 1 10 10 3 0 10 0 3 0 3 8 10 9 6
split_gain=0.00279773 0.00118567 0.00118209 0.00134209 0.000637287 0.000390708 0.00031367 0.000360801 0.000170574 0.000166786 0.000188654 0.00011147 0.000278691 8.55271e-05 8.11315e-05 7.62314e-05 0.000128311 7.9051e-05 0.000121618 7.41913e-05 5.24927e-05 2.41814e-05 2.83675e-06
threshold=5.9534365132254115 0.030609405698739951 -7.3499999999997165e-05 -0.047619047619049393 49.884255941547785 0.0079185000000000245 35.890776018797666 0.0039991786572395856 0.084215192235901473 0.2170843530711877 0.0020935917360256967 0.00033750033618457049 0.42048961840652754 0.23274749155555352 0.0055036629974239111 0.25126301527777578 0.00040930806581805976 0.23274749155555352 0.67114093959728727 0.0056107805459011126 0.0056727135188806557 0.0079185000000000245 39.23559475640166
decision_type=6 6 4 4 6 4 6 6 4 6 4 4 4 6 6 4 4 6 4 6 6 4 4
left_child=2 4 3 20 9 6 -3 -8 14 10 -2 12 -5 -13 -6 17 21 18 -4 -11 -1 -17 -18
right_child=1 5 15 11 8 -7 7 -9 -10 19 -12 13 -14 -15 -16 16 22 -19 -20 -21 -22 -23 -24
leaf_value=-7.2065673335064746e-06 0 1.0595708189564069e-05 2.6436131090966884e-06 2.0129324217226496e-07 -2.8271587533450194e-08 0 0 7.4561264760828707e-06 0 0 8.1927451757183572e-06 3.4471072571549557e-06 -3.2714436353874715e-06 0 -8.2873683619543024e-06 -4.70198281213752e-06 0 -6.8371857208666165e-08 0 2.1380693898371851e-06 0 0 2.2948656510564413e-07
leaf_weight=56201 3726 27505 37752 30642 6301 2246 9666 12606 5207 8302 10351 7533 37329 7917 6381 6259 11784 12036 11744 28776 1185 1029 53176
leaf_count=56201 3726 27505 37752 30642 6301 2246 9666 12606 5207 8302 10351 7533 37329 7917 6381 6259 11784 12036 11744 28776 1185 1029 53176
internal_value=0 3.89997e-06 -1.57157e-06 -3.50105e-06 1.06348e-06 7.37601e-06 7.99527e-06 4.10974e-06 -3.44116e-06 2.93204e-06 6.1072e-06 -8.63387e-07 -1.48526e-06 9.01598e-07 -5.36711e-06 3.47163e-07 -1.40521e-07 1.16353e-06 1.76613e-06 1.32177e-06 -7.07382e-06 -4.00033e-06 6.17238e-08
internal_weight=0 121067 274587 140807 69044 52023 49777 22272 17889 51155 14077 83421 67971 15450 12682 133780 72248 61532 49496 37078 57386 7288 64960
internal_count=395654 121067 274587 140807 69044 52023 49777 22272 17889 51155 14077 83421 67971 15450 12682 133780 72248 61532 49496 37078 57386 7288 64960
is_linear=0
shrinkage=0.03


Tree=12
num_leaves=26
num_cat=0
split_feature=7 0 4 6 6 10 3 14 3 6 9 15 15 8 13 1 3 8 8 0 6 3 3 6 3
split_gain=0.00339404 0.00111911 0.00105701 0.000787608 0.000422753 0.000293184 0.000334589 0.000289054 0.000626009 0.000205245 0.000183018 0.000334277 0.000222838 0.000165505 0.000123902 0.00011628 5.89403e-05 3.39148e-05 3.26825e-05 1.60469e-05 0.00016801 3.10935e-05 1.0812e-05 8.1005e-06 4.10984e-06
threshold=9.2010948949770626 0.24633488611110879 47.668987359746602 104.10207145545068 -83.352952189017614 0.023562237589595209 -0.064516129032252637 0.99647157781052043 0.0021794582305498058 49.594314029182179 -0.0058799999999999955 0.0018395102681693888 0.00045858256039514345 0.1519385619894458 -0.0059131958498663843 0.11093709915633744 -0.31034482758632981 -0.27341887998893372 -0.023507907817345214 0.25630983116666389 68.764040825013367 0.068965517241889221 -0.08695652173913429 103.2895254663004 -0.010416666666677055
decision_type=6 6 4 6 4 6 6 4 6 4 6 6 6 6 6 6 4 4 4 6 4 4 6 4 4
left_child=1 7 3 16 10 6 -5 8 -1 14 11 -3 -12 18 -6 -15 -2 -18 -9 20 -4 22 -21 -11 -22
right_child=2 4 19 5 9 -7 -8 13 -10 23 12 -13 -14 15 -16 -17 17 -19 -20 21 24 -23 -24 -25 -26
leaf_value=-5.1997549796921267e-06 0 -1.0206980062316606e-05 2.2772881393691472e-06 5.3611230967571002e-06 0 0 1.4911177694572571e-05 -6.2173457566759174e-07 2.4563345399405442e-06 8.8297427483027114e-07 0 1.4365597208270809e-05 -9.8140255338027989e-06 0 -4.3773433779975131e-06 5.2754420252419683e-06 0 4.0646043750528747e-06 2.5419283181509401e-07 0 -6.3555716607233677e-06 0 7.6083697324599971e-06 0 -6.1629191473427817e-07
leaf_weight=28392 4244 1097 5615 12086 11239 1245 16429 59588 11479 9349 3623 901 21065 1130 38465 9278 690 37984 98731 694 3284 5635 713 2956 10038
leaf_count=28392 4244 1097 5615 12086 11239 1245 16429 59588 11479 9349 3623 901 21065 1130 38465 9278 690 37984 98731 694 3284 5635 713 2956 10038
internal_value=0 -1.57239e-06 4.84884e-06 6.70852e-06 -4.40894e-06 1.07443e-05 1.13901e-05 -2.94361e-07 -2.61933e-06 -2.66628e-06 -7.89574e-06 0 -8.60575e-06 1.66166e-07 -3.54756e-06 3.84139e-06 3.56015e-06 3.929e-06 0 0 -7.54024e-07 7.22249e-07 4.74013e-06 0 -3.15761e-06
internal_weight=0 297293 98657 72678 88695 29760 28515 208598 39871 62009 26686 1998 24688 168727 49704 10408 42918 38674 158319 25979 18937 7042 1407 12305 13322
internal_count=395950 297293 98657 72678 88695 29760 28515 208598 39871 62009 26686 1998 24688 168727 49704 10408 42918 38674 158319 25979 18937 7042 1407 12305 13322
is_linear=0
shrinkage=0.03


Tree=13
num_leaves=25
num_cat=0
split_feature=13 5 2 6 4 10 0 10 5 11 9 7 15 13 11 15 4 11 6 13 10 5 9 12
split_gain=0.00199718 0.00102076 0.00079015 0.000888133 0.000475875 0.00205941 0.000518047 0.00027911 0.000267685 0.000214443 0.000180737 0.000139499 0.000173643 0.000127562 0.000106671 0.000290565 0.000245121 0.000633683 9.95978e-05 4.12853e-05 3.65762e-05 1.91606e-05 9.14482e-06 3.88628e-06
threshold=0.00034494653328735725 -3.6173076892465068e-06 73.214721237765346 90.617346679895405 54.596160205032646 -0.0026232157223597141 0.22835331824999794 0.0075966761654938956 -0.00061334668802984205 -0.037588548261836073 0.00036733333333334456 -2.9913492975265452 0.0016540208575827082 -0.001725070231368252 -0.0033099292632359969 0.0014186235003351949 30.711465167818396 -0.042779843328599632 -21.802497450183008 -0.00023238545785672179 -0.0051876898524376913 4.9487179490617657e-05 0.00016000000000000045 0.0015464151815525187
decision_type=4 6 6 6 4 4 6 6 6 6 4 6 6 6 6 6 4 4 6 6 6 4 6 6
left_child=4 14 3 23 5 -1 21 -4 -8 13 -5 20 -13 -6 16 -16 19 -18 -9 -2 -11 -7 -17 -3
right_child=1 2 7 10 9 6 8 18 -10 11 -12 12 -14 -15 15 22 17 -19 -20 -21 -22 -23 -24 -25
leaf_value=-7.3817658769047384e-06 0 0 0 0 1.5785130723337607e-05 9.3159041535387678e-07 5.7745509428391647e-06 0 -3.1303942018083182e-06 1.9027131061974723e-06 9.9629372427448267e-06 0 -6.8547415948842453e-06 0 0 0 3.7523288587505651e-05 -4.0533895177737731e-07 -1.0237760380747723e-05 5.6142400441234834e-06 0 4.3759475442836184e-06 -7.6172006136945298e-06 2.5854499793021578e-06
leaf_weight=60133 1228 7645 10022 4581 1224 18746 2256 100 36208 12924 30522 13495 5750 126 29946 571 396 60449 3709 8893 18752 14516 5912 47840
leaf_count=60133 1228 7645 10022 4581 1224 18746 2256 100 36208 12924 30522 13495 5750 126 29946 571 396 60449 3709 8893 18752 14516 5912 47840
internal_value=0 1.94638e-06 4.05987e-06 5.1301e-06 -2.32462e-06 -3.28543e-06 0 -1.8651e-06 -2.21787e-06 0 9.03735e-06 -2.13527e-07 -2.43365e-06 1.18757e-05 0 -1.41944e-06 5.64338e-07 0 -8.86231e-06 4.90159e-06 6.61879e-07 2.88587e-06 -7.18636e-06 2.38758e-06
internal_weight=0 211814 104419 90588 184130 131859 71726 13831 38464 52271 35103 50921 19245 1350 107395 36429 70966 60845 3809 10121 31676 33262 6483 55485
internal_count=395944 211814 104419 90588 184130 131859 71726 13831 38464 52271 35103 50921 19245 1350 107395 36429 70966 60845 3809 10121 31676 33262 6483 55485
is_linear=0
shrinkage=0.03


Tree=14
num_leaves=18
num_cat=0
split_feature=7 3 15 15 8 15 15 1 9 8 2 2 0 2 2 6 6
split_gain=0.0028534 0.00106259 0.000809982 0.000493258 0.000430909 0.000324419 0.000231407 0.000200753 0.000296907 0.000193711 0.000160653 0.000458218 0.000133683 0.000104737 7.41148e-05 1.97324e-05 1.98706e-07
threshold=13.819472875341857 0.015873015873031436 0.00364204797158011 0.00044301451250818995 -0.060069844417664213 0.00045001976950521391 0.00051187062966790103 0.25028180879448897 7.3500000000052703e-05 -0.96332065788979993 12.806304190288737 28.71880385930254 0.18196609444444289 30.061267882515768 12.119943739135364 -79.406487052370991 -124.85384047880997
decision_type=6 4 4 6 6 6 6 6 4 6 4 4 4 6 6 6 6
left_child=1 2 4 16 5 -1 -6 10 -9 12 14 -12 -4 -10 -3 -5 -2
right_child=3 7 9 15 6 -7 -8 8 13 -11 11 -13 -14 -15 -16 -17 -18
leaf_value=0 0 3.9526359448117617e-06 0 0 9.2562250855645127e-08 -7.155192687722215e-06 -3.1081071466869359e-06 -3.1076216063820707e-06 0 2.2456769521542517e-06 -2.832632457984188e-06 1.4658100183398895e-06 4.3841343404741142e-05 5.6249248937607776e-06 0 7.096992417111909e-06 6.8935611074916861e-07
leaf_weight=6838 709 20032 81 346 19621 42064 50775 33390 19138 4897 28509 90963 286 3688 2413 52820 19928
leaf_count=6838 709 20032 81 346 19621 42064 50775 33390 19138 4897 28509 90963 286 3688 2413 52820 19928
internal_value=0 -1.06376e-06 -3.24405e-06 5.46974e-06 -3.83686e-06 -6.16991e-06 -2.00295e-06 2.31247e-07 -1.176e-06 7.33865e-06 8.94388e-07 3.14514e-07 3.4265e-05 9.92521e-07 3.31244e-06 7.05021e-06 6.70986e-07
internal_weight=0 322695 124562 73803 119298 48902 70396 198133 56216 5264 141917 119472 367 22826 22445 53166 20637
internal_count=396498 322695 124562 73803 119298 48902 70396 198133 56216 5264 141917 119472 367 22826 22445 53166 20637
is_linear=0
shrinkage=0.03


Tree=15
num_leaves=26
num_cat=0
split_feature=6 0 3 9 10 4 7 10 4 6 7 7 10 12 8 12 12 3 8 8 3 3 7 3 12
split_gain=0.00265781 0.00183601 0.0013631 0.000950054 0.000533606 0.000419214 0.000432975 0.000254305 0.000312089 0.00037871 0.00023384 0.000206384 0.000346806 0.000121963 3.70308e-05 3.39713e-05 6.36168e-05 3.2151e-05 5.19325e-05 1.89844e-05 2.80899e-06 1.70413e-05 1.37724e-07 2.04246e-08 4.01054e-09
threshold=94.815575664751449 0.16047080486110929 0.0061025742392873412 -0.00029499999999996191 0.00092585966334256438 72.859110323781252 17.749165490972761 0.0025795697170271303 55.676041701399903 -20.714955568360477 4.1780578000602029 6.9647108820558197 -0.0019397450022912816 0.78406977068775652 0.0093224724877772284 1.6649376421078668 0.68085092204466247 -0.99992690058479317 -0.27025662915272181 -0.020935009330625136 0.019230769230783606 -0.070879931178646646 2.3400417059845053 0.8287257370259401 1.1563273723092629
decision_type=6 6 4 4 6 6 6 6 6 4 4 6 6 4 4 4 6 6 6 6 6 6 6 6 6
left_child=2 5 3 11 17 20 -7 8 10 -10 -4 12 -1 -9 19 16 -6 -3 -19 -5 21 -2 -16 -22 -15
right_child=1 4 7 14 15 6 -8 13 9 -11 -12 -13 -14 24 22 -17 -18 18 -20 -21 23 -23 -24 -25 -26
leaf_value=-8.6846291420595437e-06 0 0 -2.0529684128391969e-06 -2.0940645165515011e-06 7.9987788658868658e-06 0 -2.3610948062066183e-05 3.1083654386530433e-06 5.5676433390277027e-06 -2.5649997441081681e-07 1.9593965890065608e-07 0 -2.0232108149583598e-06 0 0 0 1.5180815733447448e-05 0 3.8175898961402647e-06 0 7.1407601886519355e-07 -3.0485914016168309e-06 -7.8604871434212478e-08 0 -3.2582416421308504e-08
leaf_weight=38491 1065 3596 78483 24605 22634 1930 1844 34577 16439 14738 65936 1315 16679 6920 12520 2990 10626 888 5398 6871 2554 1782 20059 53 3398
leaf_count=38491 1065 3596 78483 24605 22634 1930 1844 34577 16439 14738 65936 1315 16679 6920 12520 2990 10626 888 5398 6871 2554 1782 20059 53 3398
internal_value=0 5.92304e-06 -1.15702e-06 -3.7289e-06 8.49914e-06 -5.32917e-06 -1.3013e-05 1.80996e-07 -2.58833e-07 2.33352e-06 -9.22354e-07 -6.61753e-06 -6.94277e-06 2.23531e-06 -9.4736e-07 1.02514e-05 1.07451e-05 5.53162e-07 2.25449e-06 -1.69857e-06 0 -6.60566e-07 0 7.01784e-07 0
internal_weight=0 55360 341031 120540 46132 9228 3774 220491 175596 31177 144419 56485 55170 44895 64055 36250 33260 9882 6286 31476 5454 2847 32579 2607 10318
internal_count=396391 55360 341031 120540 46132 9228 3774 220491 175596 31177 144419 56485 55170 44895 64055 36250 33260 9882 6286 31476 5454 2847 32579 2607 10318
is_linear=0
shrinkage=0.03


Tree=16
num_leaves=22
num_cat=0
split_feature=3 8 10 0 4 10 11 11 6 4 3 1 1 12 9 1 2 12 12 4 0
split_gain=0.0024483 0.00115509 0.00105516 0.000370298 0.000291874 0.000287923 0.000272828 0.000364382 0.000244206 0.00103093 0.00102848 0.000185847 0.000176066 0.000154804 0.00013941 9.76088e-05 7.79635e-05 4.7599e-05 4.9818e-05 4.56274e-05 2.3699e-05
threshold=-0.014020563743152159 -0.017660877382909588 0.00075944284614516591 0.24663334166666526 74.26618951172712 0.001846967742281468 1.0000000180025095e-35 0.027023714198373103 56.301336620879027 64.428722795766404 0.59999999999960452 0.26486367461084875 0.2446261170106486 0.22355219020453457 0.00095683333333329579 0.235922258669857 64.197847066211168 0.54617755143349112 -0.13965405277197027 15.112400910169603 0.3247812249999999
decision_type=4 6 6 6 6 4 6 6 6 6 4 6 6 6 4 6 6 4 6 6 4
left_child=1 3 4 17 12 -3 20 -8 11 10 -10 19 15 -11 -14 -2 -6 18 -1 -4 -7
right_child=2 5 8 -5 16 6 7 -9 9 13 -12 -13 14 -15 -16 -17 -18 -19 -20 -21 -22
leaf_value=-5.7934560765315962e-06 0 -2.255147075355684e-06 0 -1.0506785109237902e-05 0 -6.2450087223709068e-06 4.9683182786837944e-06 -5.3763547063925393e-06 1.3376079586420108e-05 0 3.449004160888531e-06 0 -2.7351855670833298e-06 -5.3509167435171477e-06 2.0808575284368963e-07 4.0471252627551842e-06 4.7840710141967935e-06 0 -1.4665031200704254e-06 3.5603163114692766e-06 0
leaf_weight=21853 98105 35567 1535 19167 1677 2561 20785 2271 17741 2660 33044 17067 37293 6952 9636 6110 14258 2158 15621 30013 133
leaf_count=21853 98105 35567 1535 19167 1677 2561 20785 2271 17741 2660 33044 17067 37293 6952 9636 6110 14258 2158 15621 30013 133
internal_value=0 -3.44849e-06 1.67863e-06 -6.47112e-06 8.76463e-08 -3.05239e-07 1.80554e-06 3.29846e-06 3.97944e-06 5.41951e-06 7.21262e-06 1.88168e-06 -2.26639e-07 -2.49371e-06 -1.81124e-06 3.43012e-07 4.00951e-06 -4.14048e-06 -4.3902e-06 3.27987e-06 -5.40044e-06
internal_weight=0 120116 276091 58799 167079 61317 25750 23056 109012 60397 50785 48615 151144 9612 46929 104215 15935 39632 37474 31548 2694
internal_count=396207 120116 276091 58799 167079 61317 25750 23056 109012 60397 50785 48615 151144 9612 46929 104215 15935 39632 37474 31548 2694
is_linear=0
shrinkage=0.03


Tree=17
num_leaves=22
num_cat=0
split_feature=10 11 3 4 1 0 8 6 1 13 4 13 4 0 6 15 3 11 9 13 15
split_gain=0.00197347 0.00238772 0.00122057 0.00113779 0.000928504 0.000540974 0.000764415 0.000290311 0.000281983 0.000610461 0.000209565 0.000385598 0.000306104 0.000188565 0.000689644 0.000212585 0.000151703 9.55572e-05 5.72352e-05 4.32621e-05 1.23882e-05
threshold=0.0010805017306559689 -0.039194115090637124 -0.051966519293593673 60.492017076404188 0.12667860651510368 0.22835331824999794 0.14340428397088478 -40.023178121920132 0.24380442603940169 -0.0038865559814953692 41.981156197831389 0.00027775031253766377 57.96395701792806 0.26957854722221991 19.419827473347549 0.0012963215420016873 -0.081584513297263392 0.018319429559258259 -0.00067999999999999994 -1.4306078300161571e-05 0.00025962507731406751
decision_type=6 4 4 6 6 4 6 6 6 4 4 4 4 4 6 6 6 4 6 6 6
left_child=1 4 8 5 -1 6 -2 18 9 -3 11 -4 -12 14 -5 -16 -9 -10 -7 -15 -21
right_child=3 2 10 13 -6 7 -8 16 17 -11 12 -13 -14 19 15 -17 -18 -19 -20 20 -22
leaf_value=0 2.9903163698675451e-06 -9.007926546511536e-06 -3.3687865329343439e-06 3.3734053088369596e-06 2.5188381725397101e-05 0 1.2050932017125466e-05 1.0094364867825147e-06 -8.676347523135399e-06 -8.2808340586094621e-07 -3.02381426289312e-06 5.8117926891387656e-07 1.1541201128043412e-06 0 -9.5196647885706118e-07 -9.5102751457637918e-06 5.1505092559716962e-06 0 -4.5958706696984885e-06 0 7.2542838439542962e-06
leaf_weight=405 26223 13343 50884 8054 4104 5284 18689 28921 24060 35034 18771 29668 81779 934 9523 10499 24644 256 3772 194 1636
leaf_count=405 26223 13343 50884 8054 4104 5284 18689 28921 24060 35034 18771 29668 81779 934 9523 10499 24644 256 3772 194 1636
internal_value=0 -1.53414e-06 -1.97252e-06 2.90553e-06 1.98052e-05 4.40617e-06 7.095e-06 2.23803e-06 -5.28315e-06 -3.39452e-06 -5.60791e-07 -1.72779e-06 2.24949e-07 -1.84048e-06 -2.91184e-06 -6.18932e-06 3.19479e-06 -8.42318e-06 -1.76454e-06 3.61336e-06 6.40047e-06
internal_weight=0 258304 253795 138373 4509 107533 44912 62621 72693 48377 181102 80552 100550 30840 28076 20022 53565 24316 9056 2764 1830
internal_count=396677 258304 253795 138373 4509 107533 44912 62621 72693 48377 181102 80552 100550 30840 28076 20022 53565 24316 9056 2764 1830
is_linear=0
shrinkage=0.03


Tree=18
num_leaves=27
num_cat=0
split_feature=10 0 0 15 12 11 3 9 0 9 6 3 4 15 6 5 3 11 8 8 3 8 8 8 15 5
split_gain=0.00208558 0.000959954 0.000907944 0.000823213 0.000553784 0.000507281 0.000598279 0.000478324 0.000391169 0.000848115 0.000387838 0.000379696 0.000301929 0.000376138 0.000359117 0.000264488 0.000223263 9.24885e-05 5.80864e-05 2.98589e-05 2.81031e-05 1.41007e-05 4.31034e-05 2.92985e-05 1.16348e-05 6.01181e-06
threshold=0.0022378879637623967 0.15678440208333166 0.2436110277777756 0.0024318020420415953 -0.15942541033727717 -0.0058114738047223774 -0.41860465116274936 0.00010150000000004601 0.35396539999999971 0.0009699999999999016 42.623281493898126 0.00040930806581805976 64.696098294917832 0.00073229566403207943 -52.34958499376534 -0.00011358974358967321 -0.023469171113152169 -0.0023013417332290757 -0.048715376945267251 -0.062590850840385306 -0.040425080182481497 -0.3319990653916236 -0.37564504857325942 0.052869610321347925 0.00094992819632646567 -3.983017093796281e-05
decision_type=6 4 6 6 4 4 6 4 6 6 4 4 6 6 6 4 6 4 4 6 4 6 6 6 6 4
left_child=2 12 4 8 11 6 -5 21 9 -3 -7 16 -2 -14 -15 17 -1 -6 19 -9 -20 22 -4 -23 -17 -13
right_child=1 3 7 5 15 10 -8 18 -10 -11 -12 25 13 14 -16 24 -18 -19 20 -21 -22 23 -24 -25 -26 -27
leaf_value=-5.951201367414257e-06 3.9587577296933591e-07 3.4057544406653638e-06 -2.6662701659682225e-06 0 4.6936281401388197e-06 7.0325053439585258e-06 -5.4298249185153944e-05 -2.4931218112917062e-06 0 1.0899395580648281e-05 -6.1192971974135188e-06 -4.1738255312069996e-07 0 0 -1.283347219713101e-05 1.2410385365381537e-07 0 0 -6.2438942271339737e-07 0 1.3230855847921686e-06 -6.7581214667882271e-06 0 -1.9352657941439352e-06 -9.9866177371486828e-07 5.1602877735160444e-07
leaf_weight=27623 6170 44849 8139 123 17873 3074 363 13647 11392 27337 5257 18345 2847 553 6432 97995 3280 12086 3812 1026 13610 40186 1635 11095 8984 8314
leaf_count=27623 6170 44849 8139 123 17873 3074 363 13647 11392 27337 5257 18345 2847 553 6432 97995 3280 12086 3812 1026 13610 40186 1635 11095 8984 8314
internal_value=0 3.40409e-06 -1.47398e-06 4.64423e-06 -2.24812e-07 -3.03297e-06 -3.31934e-05 -3.92118e-06 5.63365e-06 6.45163e-06 0 -2.75126e-06 -2.81886e-06 -6.36124e-06 -1.02667e-05 7.27669e-07 -5.0156e-06 3.21949e-06 -4.21756e-07 -1.98743e-06 3.60663e-08 -5.51499e-06 -1.39708e-06 -6.00727e-06 0 0
internal_weight=0 108397 287650 92395 194500 8817 486 93150 83578 72186 8331 57562 16002 9832 6985 136938 30903 29959 32095 14673 17422 61055 9774 51281 106979 26659
internal_count=396047 108397 287650 92395 194500 8817 486 93150 83578 72186 8331 57562 16002 9832 6985 136938 30903 29959 32095 14673 17422 61055 9774 51281 106979 26659
is_linear=0
shrinkage=0.03


Tree=19
num_leaves=26
num_cat=0
split_feature=6 6 4 4 3 15 15 10 8 11 8 11 0 15 11 0 10 8 3 11 3 14 10 14 8
split_gain=0.00291851 0.00103454 0.000719286 0.000619159 0.00075648 0.000902038 0.000503394 0.000444186 0.000310812 0.000327928 0.000185945 0.000448885 0.000884965 0.000400919 0.000116518 0.000167683 0.000114732 0.000107999 9.02036e-05 4.06453e-05 7.51169e-06 3.27323e-06 1.0931e-05 1.04068e-06 1.03449e-06
threshold=88.16902267195853 -95.432399335362092 85.538503333154196 33.696327008368577 -0.18959288990823439 0.00106586572250625 0.00085328837715300447 0.0059583810342811608 0.039575612847082269 0.011148126446886489 0.079184652593838653 -0.039194115090637124 0.25924971874999764 0.0010588800302169332 -0.00050481321256541807 0.24477005277777578 -0.0007743810475386606 -0.066722468934631421 -0.15217391304347463 0.016506082949636017 -0.1292749930840498 0.99593825199019836 -0.0018430137255482856 0.99616114108920206 0.027741201875739956
decision_type=6 4 6 6 6 6 6 6 6 6 4 4 6 6 6 6 6 6 4 6 6 6 6 6 4
left_child=1 8 3 4 24 -6 -4 -8 9 16 11 12 -3 -13 18 -16 -1 -5 -12 -11 -9 22 -10 -23 -2
right_child=2 10 6 17 5 -7 7 20 21 19 14 13 -14 -15 15 -17 -18 -19 -20 -21 -22 23 -24 -25 -26
leaf_value=-7.0361825974355629e-06 0 3.0099787969295167e-05 0 0 8.2573901594132753e-06 2.607635561410835e-05 0 0 -1.8226875924746322e-06 0 -4.034071267420668e-06 -2.7296467405203878e-08 0 -3.5114973974911008e-06 3.2853061105027531e-06 0 0 3.7090730532793978e-06 1.94660421703219e-07 8.0023069516919971e-06 -3.3112212429461795e-05 0 0 4.0401689345968986e-07 4.0363622177228948e-06
leaf_weight=38285 6239 1231 639 5431 13819 5322 517 51 3846 755 4841 113302 950 45309 29076 20308 3846 22128 62532 706 910 314 3090 5736 7400
leaf_count=38285 6239 1231 639 5431 13819 5322 517 51 3846 755 4841 113302 950 45309 29076 20308 3846 22128 62532 706 910 314 3090 5736 7400
internal_value=0 -9.48134e-07 6.11115e-06 6.85994e-06 9.86389e-06 1.39976e-05 -8.13845e-06 -2.00237e-05 -4.6552e-06 -5.87734e-06 -1.38381e-07 -8.44224e-07 1.21192e-05 -1.1172e-06 7.05199e-07 1.81635e-06 -6.52211e-06 2.74219e-06 0 2.44661e-06 -3.21144e-05 0 -6.51617e-07 0 2.96182e-06
internal_weight=0 334127 62456 60339 32780 19141 2117 1478 56578 43592 277549 160792 2181 158611 116757 49384 42131 27559 67373 1461 961 12986 6936 6050 13639
internal_count=396583 334127 62456 60339 32780 19141 2117 1478 56578 43592 277549 160792 2181 158611 116757 49384 42131 27559 67373 1461 961 12986 6936 6050 13639
is_linear=0
shrinkage=0.03


Tree=20
num_leaves=25
num_cat=0
split_feature=10 13 2 14 3 6 8 3 1 5 4 2 14 3 6 12 3 5 15 12 15 5 14 5
split_gain=0.00253382 0.000822161 0.000820933 0.000787655 0.000732011 0.000324369 0.000241036 0.00016044 0.00013319 0.000280106 0.00027703 0.00028319 8.84196e-05 8.44232e-05 0.000336843 0.00075734 6.95214e-05 4.10058e-05 3.43631e-05 2.59537e-05 2.58513e-05 2.21519e-05 1.17842e-05 6.41952e-06
threshold=0.0027844938746603774 -0.0015128922370761806 26.449480366323353 1.0026560517926979 -0.11818181818186176 -115.44177014454351 0.018736701604253236 0.062500000000074288 0.22922289984362618 -0.00027947863247462784 69.993400922201303 11.620501063069275 1.0035313520156124 -0.056487345600599148 1.2251786211892655 0.70700203166083064 -0.006631929484457161 -4.2347222220434626e-05 0.0018521120333367409 -0.31588828038063838 0.00058579650974171507 0.00049775000000017177 1.0025947402969175 -0.00013933128739052056
decision_type=6 4 6 6 4 6 6 4 6 4 6 4 6 4 4 4 6 6 6 6 6 6 6 6
left_child=1 4 3 17 5 20 -5 16 10 19 11 -3 -12 23 -15 -16 -6 -2 -7 -10 -1 -9 -11 -4
right_child=2 8 13 6 7 18 -8 21 9 22 12 -13 -14 14 15 -17 -18 -19 -20 -21 -22 -23 -24 -25
leaf_value=-3.1606166801333219e-06 0 3.7508644645705671e-06 0 9.8349587458576399e-07 -3.1507012758509194e-07 -2.0649968299835272e-06 1.0970684847052305e-05 -2.5402747630682125e-06 0 -1.3791175820509965e-07 4.9801703086582662e-06 -6.8755636274345552e-07 0 8.9422330461507112e-06 4.1305222335312804e-06 -7.4334096164478204e-06 2.4909057376860218e-06 2.4357923621161749e-06 -9.7181540881154301e-06 -4.4674725597005361e-06 -1.3597922644307843e-05 0 9.7770968988032226e-07 -1.9409056407524076e-06
leaf_weight=4732 3651 15053 571 6088 12209 19829 28215 40589 2674 42212 14586 91091 2725 4459 13913 8037 10196 23687 2462 18157 9317 2804 10253 7991
leaf_count=4732 3651 15053 571 6088 12209 19829 28215 40589 2674 42212 14586 91091 2725 4459 13913 8037 10196 23687 2462 18157 9317 2804 10253 7991
internal_value=0 -1.2165e-06 4.36744e-06 6.4692e-06 -3.40219e-06 -6.92251e-06 9.6356e-06 -1.22981e-06 -5.5977e-09 -1.08927e-06 5.16294e-07 0 4.03756e-06 2.33743e-07 1.42404e-06 0 2.9254e-07 1.94703e-06 -3.58393e-06 -4.03427e-06 -1.11509e-05 -2.36148e-06 0 -1.68562e-06
internal_weight=0 298889 96612 61641 102138 36340 34303 65798 196751 73296 123455 106144 17311 34971 26409 21950 22405 27338 22291 20831 14049 43393 52465 8562
internal_count=395501 298889 96612 61641 102138 36340 34303 65798 196751 73296 123455 106144 17311 34971 26409 21950 22405 27338 22291 20831 14049 43393 52465 8562
is_linear=0
shrinkage=0.03


Tree=21
num_leaves=23
num_cat=0
split_feature=7 3 15 4 15 3 3 1 8 1 5 3 15 11 2 15 10 10 1 11 4 10
split_gain=0.00150131 0.00136237 0.00136671 0.00119278 0.000363361 0.000225711 0.000210647 0.000180492 0.000149607 0.00023036 0.000147467 0.000105203 0.000750033 0.000450312 0.00033787 9.92962e-05 9.48801e-05 6.40419e-05 4.42582e-05 2.72879e-06 2.44226e-06 1.04841e-05
threshold=6.4088868305827109 -0.01718481529226995 0.00073229566403207943 79.955760053286113 0.00041010405359729251 0.27295991643791129 -0.0046436348530043059 0.25436480545793555 -0.010786031942512065 0.22685447847404838 4.9487179490617657e-05 -0.66666666666665797 0.0015173608646659512 -0.00044048310622769692 25.416399495160359 0.00060778704549869329 -0.0027937904601656209 -0.0016876847502001128 0.25634027560023048 -0.0068836479217296237 49.323099061358413 0.0021154760798640523
decision_type=6 4 6 4 4 4 6 6 6 6 4 6 6 6 6 6 6 6 6 6 6 6
left_child=1 2 8 4 20 7 10 -5 9 -1 -6 15 14 -14 -13 19 -8 -17 -10 -3 21 -2
right_child=3 11 -4 5 6 -7 16 -9 18 -11 -12 12 13 -15 -16 17 -18 -19 -20 -21 -22 -23
leaf_value=0 0 0 -7.386202500342728e-06 -1.2679334815305489e-05 0 0 0 0 2.5464630889638274e-06 -5.8806181603278279e-06 3.4867406104407364e-06 -2.852988862843193e-06 1.0100915090613302e-05 0 1.5267567569217175e-06 -3.0738636297902457e-06 6.5909432210462716e-06 0 0 3.8297085611249019e-07 0 9.9024873158342287e-07
leaf_weight=16873 7720 56272 52183 5351 9633 1818 609 340 16107 8018 31852 28260 11500 6480 33290 16368 43183 10285 2226 20649 5246 11862
leaf_count=16873 7720 56272 52183 5351 9633 1818 609 340 16107 8018 31852 28260 11500 6480 33290 16368 43183 10285 2226 20649 5246 11862
internal_value=0 -1.20017e-06 -4.11676e-06 2.84205e-06 3.72587e-06 -8.11805e-06 4.6646e-06 -1.10739e-05 0 -1.67716e-06 2.47698e-06 2.37645e-07 1.10312e-06 6.53631e-06 -2.40486e-07 -2.82104e-07 6.39426e-06 -1.908e-06 1.87743e-06 8.63004e-08 0 3.35017e-07
internal_weight=0 278511 95407 117614 110105 7509 85277 5691 43224 24891 41485 183104 79530 17980 61550 103574 43792 26653 18333 76921 24828 19582
internal_count=396125 278511 95407 117614 110105 7509 85277 5691 43224 24891 41485 183104 79530 17980 61550 103574 43792 26653 18333 76921 24828 19582
is_linear=0
shrinkage=0.03


Tree=22
num_leaves=23
num_cat=0
split_feature=10 1 9 4 9 7 8 4 3 3 5 10 4 3 12 8 4 4 4 0 4 2
split_gain=0.00187811 0.000673225 0.000613296 0.000743076 0.000585311 0.000529638 0.000186751 0.000547849 0.000153953 0.000119732 7.94975e-05 0.000136209 0.0001482 7.58969e-05 2.76416e-05 1.48814e-05 1.26824e-05 1.64834e-05 9.76288e-06 8.2802e-06 4.4835e-06 1.31171e-06
threshold=0.0021394838029922991 0.14727121270691471 0.0011600000000000085 70.2281647842117 -5.9999999999997549e-05 6.6354353028790518 0.0093224724877772284 69.993400922201303 0.54545454545445959 -0.073359340316410573 -0.00047547489315824526 -0.01457110944685925 41.16327140980102 -0.40909090909112406 0.033032176623715166 0.027741201875739956 39.345504150609145 51.838330524123087 67.220585382292356 0.43935884166666817 19.175348526064379 68.139631308098799
decision_type=6 6 4 4 4 6 4 6 4 4 4 6 6 6 6 4 6 6 6 6 4 6
left_child=4 2 21 -4 6 16 7 8 -1 -8 11 12 -6 -9 -7 18 -3 -18 -12 -13 -17 -2
right_child=1 5 3 -5 10 14 9 13 -10 -11 15 19 -14 -15 -16 20 17 -19 -20 -21 -22 -23
leaf_value=-5.74683021825938e-06 4.6558777015202848e-07 1.8029543112501698e-08 0 -2.5440232282133161e-05 0 1.9953759333583862e-06 -2.8467202736606048e-06 -1.8852341502234369e-06 -1.926852861452248e-06 3.9735829461360333e-07 0 -3.7486041660883304e-06 1.2790955808642277e-05 2.1846652676689353e-06 5.8277720750713074e-06 -9.1840531719669247e-07 0 -2.2217659161077638e-06 1.4005992560468479e-06 0 0 0
leaf_weight=52915 5444 9758 808 1980 607 15245 13688 2381 28972 21768 44771 13682 856 14235 62796 4782 2467 5315 12479 387 73758 6894
leaf_count=52915 5444 9758 808 1980 607 15245 13688 2381 28972 21768 44771 13682 856 14235 62796 4782 2467 5315 12479 387 73758 6894
internal_value=0 3.22029e-06 -2.02487e-06 -1.48347e-05 -1.38022e-06 4.20731e-06 -2.82653e-06 -3.5361e-06 -4.57856e-06 -4.32092e-07 -7.24117e-10 -2.1113e-06 2.18525e-06 6.98674e-07 5.2714e-06 1.30253e-07 0 -1.21076e-06 5.23618e-07 -3.62435e-06 0 0
internal_weight=0 110707 15126 2788 285281 95581 133959 98503 81887 35456 151322 15532 1463 16616 78041 135790 17540 7782 57250 14069 78540 12338
internal_count=395988 110707 15126 2788 285281 95581 133959 98503 81887 35456 151322 15532 1463 16616 78041 135790 17540 7782 57250 14069 78540 12338
is_linear=0
shrinkage=0.03


Tree=23
num_leaves=20
num_cat=0
split_feature=3 8 15 3 10 12 12 7 1 10 12 13 9 10 9 8 13 6 5
split_gain=0.00148224 0.000630729 0.00042614 0.000401845 0.000283787 0.000189029 0.000608262 0.000152923 0.00015637 0.000149625 0.000213499 0.000129442 0.000193211 8.46336e-05 7.60308e-05 2.3514e-05 2.08922e-05 1.6432e-05 9.29488e-09
threshold=-0.006631929484457161 0.133362599003054 0.00062920328905490517 0.94117647058824205 -0.0012801799735808546 -1.04972050254567 2.2415191924057947 -5.909248799229486 0.20844905527406735 -0.01767636480083604 0.94629128845959987 2.7586550347917263e-05 -0.0027889999999999994 0.00085293873537695532 8.3000000000041388e-05 0.12945366233354164 0.0059155876650492977 58.333333333316325 -0.00038559134615255558
decision_type=4 6 6 4 4 6 6 6 6 4 4 6 4 4 4 6 6 6 6
left_child=2 3 7 11 -4 -3 -7 15 18 10 -5 12 -2 -11 17 -1 -13 -6 -9
right_child=1 5 4 9 14 6 -8 8 -10 13 -12 16 -14 -15 -16 -17 -18 -19 -20
leaf_value=-2.38699640144606e-06 1.0248963731251035e-05 0 -6.0246406363815345e-06 -1.3327029831017622e-05 -3.422028052818076e-06 5.5420028656152891e-06 -9.9640168304047726e-06 0 -2.2900080687848747e-07 -1.197657954525158e-06 0 3.7667742144436546e-06 0 2.1538886766247497e-07 0 0 0 0 3.842601313554025e-06
leaf_weight=20756 1710 4310 40706 1982 17383 47415 1732 57 9774 57421 127 34367 36780 79179 21813 700 6621 1208 12240
leaf_count=20756 1710 4310 40706 1982 17383 47415 1732 57 9774 57421 127 34367 36780 79179 21813 700 6621 1208 12240
internal_value=0 1.17549e-06 -2.77384e-06 3.8334e-07 -4.06833e-06 4.12797e-06 4.68997e-06 -1.69569e-08 1.35508e-06 -5.05438e-07 -8.71216e-06 2.12318e-06 3.92849e-07 -2.68798e-07 -1.72596e-06 -2.12736e-06 3.38201e-06 -3.18654e-06 3.8336e-06
internal_weight=0 271644 124637 218187 81110 53457 49147 43527 22071 138709 2109 79478 38490 136600 40404 21456 40988 18591 12297
internal_count=396281 271644 124637 218187 81110 53457 49147 43527 22071 138709 2109 79478 38490 136600 40404 21456 40988 18591 12297
is_linear=0
shrinkage=0.03


Tree=24
num_leaves=25
num_cat=0
split_feature=6 3 3 15 3 3 2 2 2 1 10 0 1 15 12 5 12 13 2 4 4 12 0 9
split_gain=0.00223475 0.00108744 0.000961159 0.000510608 0.000963954 0.00041396 0.000713705 0.000289556 0.000294232 0.000916661 0.000266658 0.000183114 0.000124633 0.000131916 9.10078e-05 8.46879e-05 6.3478e-05 5.60922e-05 5.06642e-05 4.5184e-05 3.67208e-05 3.20911e-05 2.42481e-05 1.1075e-05
threshold=77.777777777774716 0.0055555555555045098 0.12420857543581676 0.00076216940110447108 -0.016614946013862795 0.20000000000029841 39.138610368996282 16.914498776111753 41.961774546788277 0.19093946211203836 -0.0038479188282472244 0.24320508472222027 0.21842263958896682 0.000477688381502459 -0.098636446021688182 -0.0015830384294842623 -0.027130838483485627 0.0021165627959401265 14.177651487873664 22.709839226749974 19.567455592205324 0.21637584387825817 0.10922029652777587 0.00079999999999998139
decision_type=6 4 6 6 6 4 6 6 6 6 4 6 6 6 4 4 6 6 6 6 6 6 6 4
left_child=1 3 7 10 23 6 18 15 22 -10 14 -12 20 -14 -1 -2 -4 -18 -3 -8 -7 -17 -9 -5
right_child=2 5 16 4 -6 12 19 8 9 -11 11 -13 13 -15 -16 21 17 -19 -20 -21 -22 -23 -24 -25
leaf_value=-5.9749177831309132e-06 0 0 0 -7.133628150986217e-06 3.0387323648908956e-06 0 0 0 -1.1179539887925266e-05 4.0461646762543755e-06 1.4379061566691735e-06 -3.803747986164791e-06 1.4934732082632859e-07 -2.0035399495779779e-06 0 0 2.2042115807399592e-06 1.0887790711957386e-05 -2.6440907451635591e-06 6.8384125630611028e-06 1.1592409270448264e-06 5.9559163041619805e-06 3.0674023058485528e-06 -1.0327394482272101e-06
leaf_weight=9765 348 6077 347 49126 8615 54224 234 480 7254 5133 31878 6872 24755 58353 2419 5776 5551 21089 9056 22131 33210 14460 12825 6282
leaf_count=9765 348 6077 347 49126 8615 54224 234 480 7254 5133 31878 6872 24755 58353 2419 5776 5551 21089 9056 22131 33210 14460 12825 6282
internal_value=0 -9.80595e-07 4.8196e-06 -3.3324e-06 -5.1662e-06 2.46862e-07 3.14008e-06 1.78413e-06 0 -3.65983e-06 -7.32743e-07 1.21116e-07 -3.01361e-07 -1.1818e-06 -4.67885e-06 4.45139e-06 9.4684e-06 9.64171e-06 -1.0823e-06 6.66757e-06 3.63968e-07 4.89098e-06 2.72573e-06 -6.7127e-06
internal_weight=0 322997 73263 114957 64023 208040 37498 46276 25692 12387 50934 38750 170542 83108 12184 20584 26987 26640 15133 22365 87434 20236 13305 55408
internal_count=396260 322997 73263 114957 64023 208040 37498 46276 25692 12387 50934 38750 170542 83108 12184 20584 26987 26640 15133 22365 87434 20236 13305 55408
is_linear=0
shrinkage=0.03


Tree=25
num_leaves=21
num_cat=0
split_feature=3 15 9 6 9 15 4 4 1 11 0 5 15 8 5 7 3 3 8 7
split_gain=0.00106093 0.000754996 0.000898771 0.000789198 0.000421358 0.00144841 0.000724306 0.000676461 0.000233078 0.000229734 0.000202907 0.000184401 0.00015677 0.000139358 0.000132257 5.33125e-05 4.01702e-05 0.000296749 0.000195568 9.14492e-06
threshold=-0.095941370264178358 0.00087443285213976486 0.0023369166666666334 -87.85450263051689 2.9999999999898167e-05 0.0038691558116301893 63.46941533533699 33.031535402518394 0.27520047295470529 -0.0058663145809666759 0.20563777847222084 2.8161858976631652e-05 0.00073229566403207943 0.034115663060849559 0.00032079487179369209 -1.8006352173129108 0.22113353453814741 -0.02665450887374075 -0.25883382987130116 -1.9267289201909279
decision_type=4 6 4 4 6 6 6 6 6 6 6 6 6 6 6 6 4 6 6 6
left_child=1 3 -3 13 5 8 -7 16 14 -4 -5 -9 -10 19 -2 -11 17 -6 -18 -1
right_child=4 2 9 10 7 6 -8 11 12 15 -12 -13 -14 -15 -16 -17 18 -19 -20 -21
leaf_value=-7.744846162902259e-06 -9.5044867501745574e-08 -7.3960931858009505e-06 0 4.298965948953762e-06 0 0 2.7851152405112745e-05 -1.7458134606238194e-06 0 0 0 1.4464662647991344e-06 -4.4341218359814174e-06 0 3.7610269187305906e-06 1.6331536039398748e-05 -8.2474063060706388e-07 9.3596209220215151e-06 4.0041782034815513e-06 0
leaf_weight=11952 124842 36506 749 16818 2883 1263 2475 27319 18104 237 22194 39520 19568 3212 8344 1671 3281 11777 42821 61
leaf_count=11952 124842 36506 749 16818 2883 1263 2475 27319 18104 237 22194 39520 19568 3212 8344 1671 3281 11777 42821 61
internal_value=0 -2.74053e-06 -5.93521e-06 -1.57052e-07 9.15757e-07 0 1.84239e-05 2.22665e-06 -4.46512e-07 8.48597e-06 1.81299e-06 0 -2.54326e-06 -6.18968e-06 3.39651e-08 1.44396e-05 4.52006e-06 7.22231e-06 3.33514e-06 -7.6807e-06
internal_weight=0 93400 39163 54237 302197 174596 3738 127601 170858 2657 39012 66839 37672 15225 133186 1908 60762 14660 46102 12013
internal_count=395597 93400 39163 54237 302197 174596 3738 127601 170858 2657 39012 66839 37672 15225 133186 1908 60762 14660 46102 12013
is_linear=0
shrinkage=0.03


Tree=26
num_leaves=23
num_cat=0
split_feature=10 9 4 1 1 1 15 15 8 1 1 5 3 8 8 1 3 14 1 12 1 3
split_gain=0.00129001 0.000747809 0.000667977 0.00174284 0.0011854 0.000808348 0.000542573 0.000514451 0.000444698 0.000278008 0.000210688 0.000198033 0.00017111 8.30732e-05 7.13015e-05 6.63239e-05 0.00010245 3.5475e-05 2.67067e-05 2.37356e-05 8.31562e-06 8.10132e-06
threshold=0.0055585640786367475 -0.00012600000000008435 47.307325635131129 0.21175183238112757 0.17430457392002291 0.30828816931969749 0.00047088724843878421 0.001205108521018056 -0.090031745999580123 0.23923685428500094 0.24002025731604468 0.00025084254273641254 -0.08548115672469038 -0.17697083695911545 -0.089106781515152958 0.30197170913936605 -0.0061068873932349733 0.99739814188694942 0.21309235599637202 0.00051840278454395883 0.23384435595681979 0.10669377701604783
decision_type=6 4 6 4 6 6 6 6 6 6 4 6 6 6 6 6 6 6 6 6 6 4
left_child=1 6 3 -2 7 8 17 -4 -6 -5 20 -12 18 -11 -7 16 -14 -1 19 -3 -8 -20
right_child=2 12 4 9 5 14 10 -9 -10 13 11 -13 15 -15 -16 -17 -18 -19 21 -21 -22 -23
leaf_value=0 1.8757652117189875e-05 0 0 -9.900515525371943e-07 0 0 -1.6788884495996575e-06 -1.7647207994559946e-05 1.2975003722686186e-05 0 -5.6985125228964709e-06 0 0 4.9974538057554636e-06 -7.6286063243977834e-06 0 2.5021225498705255e-06 2.1335764217034301e-06 -1.1159430983174826e-06 1.2226069417460683e-06 0 0
leaf_weight=13673 8762 56077 3234 7491 443 220 49466 3722 8423 986 42119 8619 12059 20021 2467 5777 60644 14221 20378 18268 5433 33527
leaf_count=13673 8762 56077 3234 7491 443 220 49466 3722 8423 986 42119 8619 12059 20021 2467 5777 60644 14221 20378 18268 5433 33527
internal_value=0 -4.7619e-07 4.43366e-06 6.74949e-06 0 5.65966e-06 -2.25065e-06 -1.00067e-05 1.07149e-05 2.53008e-06 -3.27334e-06 -4.84194e-06 5.97421e-07 4.4993e-06 -5.43783e-06 1.70364e-06 1.98847e-06 1.08463e-06 0 2.82834e-07 -1.55029e-06 -5.79269e-07
internal_weight=0 340261 55769 37260 18509 11553 133531 6956 8866 28498 105637 50738 206730 21007 2687 78480 72703 27894 128250 74345 54899 53905
internal_count=396030 340261 55769 37260 18509 11553 133531 6956 8866 28498 105637 50738 206730 21007 2687 78480 72703 27894 128250 74345 54899 53905
is_linear=0
shrinkage=0.03


Tree=27
num_leaves=29
num_cat=0
split_feature=10 2 10 0 4 6 6 11 0 0 5 6 5 2 11 2 9 15 14 5 3 11 2 13 1 0 11 11
split_gain=0.00104914 0.000629309 0.000692945 0.000584546 0.00051352 0.000653551 0.000421074 0.000362721 0.000229537 0.000178105 0.000479522 0.000164305 0.000159548 0.000699292 0.00139315 0.00057107 0.000131021 0.000124386 9.968e-05 9.84518e-05 9.66788e-05 8.95239e-05 8.51721e-05 1.42354e-05 8.55471e-05 1.80784e-05 1.17322e-05 7.32297e-07
threshold=-0.0012386380730875369 57.131326474665343 0.0024716957807898888 0.22963349305555444 41.028914776235823 -83.352952189017614 3.403739934544689 -0.0066338354177308163 0.29386925972222094 0.26001516111110856 0.00037732371794405034 -45.688293334017487 -0.0010257901869637623 25.29125343456457 -0.034886912214089578 34.480486112610883 0.0023777499999999845 0.00034672702732983378 0.99835160791801036 -0.00027947863247462784 0.42452830188680707 -0.0040430708991478275 13.147331530618926 0.00022477371996644274 0.24789806855629784 0.21783181388888659 -0.0033099292632359969 -0.0029042982730281301
decision_type=4 4 6 6 4 4 6 4 6 6 6 6 6 4 6 6 4 6 6 6 6 4 6 6 4 6 6 4
left_child=4 2 23 20 5 17 18 11 -5 16 -11 -7 13 26 -15 22 -8 -1 27 -17 -4 -9 -14 24 -2 -25 -6 -3
right_child=1 6 3 8 12 7 9 21 -10 10 -12 -13 15 14 -16 19 -18 -19 -20 -21 -22 -23 -24 25 -26 -27 -28 -29
leaf_value=0 7.9171996840995663e-07 0 8.9248220754725785e-06 3.9933437011289671e-06 -2.2024872649320285e-06 -1.0421244393579241e-06 -4.6052267542598128e-06 0 0 -8.942471976521826e-07 2.2974731877473878e-05 3.1737452376456207e-06 0 4.2991924456891967e-05 0 0 0 -7.4942693539570563e-06 3.2737671575396664e-06 2.4933595048338012e-06 1.9092862178817583e-06 -5.1065232453252781e-06 -6.7808517964161318e-06 0 -2.0275685869176395e-06 1.1770645006231811e-06 0 1.1180590760007938e-07
leaf_weight=3307 26037 647 24906 23131 3101 9588 30284 7321 24902 1860 816 16494 2221 1089 2134 10519 2247 29607 11846 24570 8379 16258 11574 12880 14756 22889 465 52721
leaf_count=3307 26037 647 24906 23131 3101 9588 30284 7321 24902 1860 816 16494 2221 1089 2134 10519 2247 29607 11846 24570 8379 16258 11574 12880 14756 22889 465 52721
internal_value=0 1.2451e-06 2.44358e-06 4.38515e-06 -1.98791e-06 -3.49469e-06 -4.89777e-07 -9.59096e-07 1.83823e-06 -3.2232e-06 7.94713e-07 1.04892e-06 0 4.50451e-06 1.53781e-05 -3.44425e-07 -4.01481e-06 -6.86443e-06 7.55962e-07 1.35211e-06 7.60961e-06 -3.81628e-06 -5.74651e-06 1.85431e-07 0 6.57085e-07 -1.12222e-06 0
internal_weight=0 258301 157880 81318 138248 82575 100421 49661 48033 35207 2676 26082 55673 6789 3223 48884 32531 32914 65214 35089 33285 23579 13795 76562 40793 35769 3566 53368
internal_count=396549 258301 157880 81318 138248 82575 100421 49661 48033 35207 2676 26082 55673 6789 3223 48884 32531 32914 65214 35089 33285 23579 13795 76562 40793 35769 3566 53368
is_linear=0
shrinkage=0.03


Tree=28
num_leaves=23
num_cat=0
split_feature=10 14 3 11 4 8 15 11 1 6 8 5 1 15 3 10 10 1 8 15 11 12
split_gain=0.00104654 0.000710921 0.000561855 0.000254571 0.00107441 0.000848783 0.000321562 0.000662548 0.000194664 0.000158822 0.000150724 0.000128696 0.000123204 8.79393e-05 4.44939e-05 3.55269e-05 7.0004e-05 2.94031e-05 2.01697e-05 8.879e-06 3.34659e-06 6.64776e-07
threshold=0.003925244122043473 0.99944657927112057 -0.0027434230879690908 -0.00053382295374106766 39.730669933695275 0.63852210413296329 0.0019200062259515282 0.024225328629959426 0.26117324510360895 -81.114452551902119 0.14057452168303772 -0.0004642513568347203 0.37148735097307745 0.00022454055234968513 -0.01718481529226995 -0.0086711275104510068 -0.0027659375796671806 0.23755126914544458 -0.12346914562716024 0.00093791328426692268 0.0081265340980181972 -0.65489293448424124
decision_type=6 4 4 4 4 6 4 6 4 6 6 4 6 6 6 6 6 6 6 6 4 6
left_child=1 2 9 18 5 19 10 -8 -4 12 -6 15 -1 21 -10 -3 -17 -11 -2 -5 -15 -13
right_child=3 11 8 4 6 -7 7 -9 14 17 -12 13 -14 20 -16 16 -18 -19 -20 -21 -22 -23
leaf_value=-6.6265958330219922e-06 0 0 5.875975442954924e-07 3.0172289037893581e-06 -3.8432713845789102e-07 2.2776523258615589e-05 0 -1.6922027841400187e-05 -6.4757739431805611e-07 -2.7641967682508158e-07 3.609304403203165e-06 0 0 1.3053190042265088e-06 -5.3199228309530837e-06 -4.5315674721252521e-06 0 -3.6783770356836505e-06 -2.5898945743320695e-06 7.1630433189684107e-06 0 -2.673757623449766e-07
leaf_weight=31980 328 4381 45422 22210 8719 3371 5715 2946 17309 18807 13502 51963 1747 101258 7037 7386 6227 10867 4592 15197 6496 8367
leaf_count=31980 328 4381 45422 22210 8719 3371 5715 2946 17309 18807 13502 51963 1747 101258 7037 7386 6227 10867 4592 15197 6496 8367
internal_value=0 -7.19571e-07 -2.41059e-06 3.18442e-06 3.72252e-06 6.93269e-06 -3.08137e-08 -5.34918e-06 -3.14836e-07 -4.48013e-06 1.36743e-06 4.10027e-07 -6.19273e-06 7.33262e-07 -2.61447e-06 -1.77558e-06 -2.55256e-06 -2.02788e-06 -1.6039e-06 5.10278e-06 1.25427e-06 0
internal_weight=0 319247 133169 76580 71660 40778 30882 8661 69768 63401 22221 186078 33727 168084 24346 17994 13613 29674 4920 37407 107754 60330
internal_count=395827 319247 133169 76580 71660 40778 30882 8661 69768 63401 22221 186078 33727 168084 24346 17994 13613 29674 4920 37407 107754 60330
is_linear=0
shrinkage=0.03


Tree=29
num_leaves=26
num_cat=0
split_feature=8 14 3 1 2 6 10 0 3 0 1 3 3 9 1 15 15 15 9 3 9 10 15 15 2
split_gain=0.00143084 0.000677314 0.000883151 0.000599547 0.000895349 0.000329445 0.000379285 0.000339132 0.000271077 0.000446494 0.000249836 0.000144759 0.000131913 0.000120397 7.44964e-05 5.93946e-05 0.000273815 6.40844e-05 3.53105e-05 3.12292e-05 2.7508e-05 1.44409e-05 1.1787e-05 0.000128996 2.43242e-06
threshold=-0.0043461867429823173 1.0029575101822916 0.0065989411441315952 0.22525379628626749 11.508876676704014 -92.15275765846657 -0.012168087100181522 0.29784174049999917 -0.0839145920451074 0.20563777847222084 0.21575188265667747 -0.16033545727140794 -0.1312509034403089 2.2833333333353859e-05 0.21656719388068871 0.0016744892930622304 0.0019657691536368797 0.00020711640690216989 0.001456666666666648 0.0050505050505029623 -0.00020099999999999976 0.00077823489503700235 0.00048883950726974154 0.00077598955611399691 88.644466210329639
decision_type=6 6 6 6 4 4 6 6 4 6 6 6 4 6 6 6 6 6 6 4 4 6 6 6 6
left_child=3 13 11 4 10 12 7 -7 14 -10 -1 -3 20 22 -6 17 -17 -4 -12 -14 -5 -8 24 -24 -2
right_child=1 2 15 5 8 6 21 -9 9 -11 18 -13 19 -15 -16 16 -18 -19 -20 -21 -22 -23 23 -25 -26
leaf_value=2.9591023439157336e-06 6.4685461560449714e-07 2.3569789487002573e-06 0 -1.1281046910011888e-05 -4.8980603996207165e-06 1.3143447915103048e-05 -3.2154049116063679e-06 0 4.9006606953047146e-07 -5.7495857957700624e-06 1.6424049873634344e-05 -1.9383868565591511e-06 0 1.9360839507760012e-06 0 1.303185936317093e-05 0 1.0544628744588553e-05 0 -4.1277566675053137e-06 0 -4.9325089309780992e-07 1.404483583044506e-06 -1.5736960639556716e-06 0
leaf_weight=11109 23352 21365 327 8112 17825 2485 48690 2542 78546 11644 3136 7277 3765 47818 2779 1580 4226 19977 111 10278 305 16681 18124 33661 103
leaf_count=11109 23352 21365 327 8112 17825 2485 48690 2542 78546 11644 3136 7277 3765 47818 2779 1580 4226 19977 111 10278 305 16681 18124 33661 103
internal_value=0 2.14064e-06 4.97186e-06 -1.48014e-06 -2.75105e-09 -3.30971e-06 -1.98551e-06 4.9738e-06 -1.03498e-06 -1.49303e-07 6.91789e-06 7.41937e-07 -6.79191e-06 7.59e-07 -4.18351e-06 9.03712e-06 1.95666e-06 1.03227e-05 1.58352e-05 -3.23571e-06 -1.09413e-05 -2.75027e-06 0 -2.41714e-07 5.68556e-07
internal_weight=0 177810 54752 218008 125150 92858 70398 5027 110794 90190 14356 28642 22460 123058 20604 26110 5806 20304 3247 14043 8417 65371 75240 51785 23455
internal_count=395818 177810 54752 218008 125150 92858 70398 5027 110794 90190 14356 28642 22460 123058 20604 26110 5806 20304 3247 14043 8417 65371 75240 51785 23455
is_linear=0
shrinkage=0.03


Tree=30
num_leaves=26
num_cat=0
split_feature=10 6 4 4 14 3 2 3 1 11 2 1 1 7 3 3 11 1 2 1 6 13 1 4 13
split_gain=0.00115395 0.000768365 0.000721271 0.00070262 0.000694254 0.000345373 0.000194918 0.000303209 0.000167392 0.000159463 0.00014339 0.000651788 0.000494176 0.000111475 6.5854e-05 5.19496e-05 4.96191e-05 0.000123877 4.27107e-05 3.59132e-05 3.28813e-05 1.68547e-05 1.62531e-05 1.08103e-05 3.68789e-07
threshold=-0.00087524053743724543 -85.558411142954313 49.494227947383656 32.663667407114332 1.0014577242255125 -0.054054054054112843 14.424215723915747 -0.029411764706198083 0.20537163930756938 0.00028951441752249346 58.951152854511932 0.18747092924614864 0.20439669952292666 12.21441291018154 0.090044948011907003 0.0046499940097541829 -0.012840455004181335 0.22360566690391534 13.448998767663221 0.28676627482471934 22.011039662739492 -0.0077749625346749951 0.36271397069992301 22.051146327654937 -0.0061875663575102248
decision_type=4 4 6 4 6 6 6 4 6 4 4 4 6 6 4 6 4 4 6 6 6 6 6 4 6
left_child=1 2 -1 4 20 -4 16 22 13 18 12 -12 -11 -6 -9 -7 17 -3 -5 -20 24 -22 -8 -18 -2
right_child=3 6 5 9 8 15 7 14 -10 10 11 -13 -14 -15 -16 -17 23 -19 19 -21 21 -23 -24 -25 -26
leaf_value=-7.2723919872632289e-06 0 0 -4.3262948109535279e-06 0 5.3848375178045969e-07 0 -4.2617501657466756e-06 2.1986245894168797e-06 4.3069892160338071e-06 7.3359192288287915e-06 -5.3507068864854075e-06 1.096708152057203e-06 0 1.43825930951413e-05 -5.5191660112390963e-07 7.2936003734919842e-06 0 6.2456441550291042e-06 -2.8354402318450915e-06 0 0 1.8505686630276809e-06 0 8.2050799861688618e-07 -1.136963722411614e-07
leaf_weight=37848 4231 1871 7078 2624 3321 3883 23075 10420 35321 11080 17957 62008 35460 5844 29180 4229 10753 5429 23576 2332 1961 15458 752 14464 25674
leaf_count=37848 4231 1871 7078 2624 3321 3883 23075 10420 35321 11080 17957 62008 35460 5844 29180 4229 10753 5429 23576 2332 1961 15458 752 14464 25674
internal_value=0 -2.12544e-06 -5.05e-06 1.21686e-06 3.29678e-06 0 -3.52332e-07 -1.44052e-06 6.02423e-06 0 4.42028e-07 -1.63648e-07 1.80495e-06 1.10036e-05 0 4.68795e-06 1.30895e-06 3.70738e-06 -2.04045e-06 -2.46346e-06 4.15795e-07 1.47254e-06 -4.12013e-06 1.96036e-08 0
internal_weight=0 148982 53038 246847 91810 15190 95944 63427 44486 155037 126505 79965 46540 9165 39600 8112 32517 7300 28532 25908 47324 17419 23827 25217 29905
internal_count=395829 148982 53038 246847 91810 15190 95944 63427 44486 155037 126505 79965 46540 9165 39600 8112 32517 7300 28532 25908 47324 17419 23827 25217 29905
is_linear=0
shrinkage=0.03


Tree=31
num_leaves=27
num_cat=0
split_feature=3 10 5 10 9 9 12 0 15 15 4 10 13 10 0 10 9 0 9 6 12 12 3 10 15 0
split_gain=0.00114588 0.000672278 0.00050375 0.000295056 0.000211784 0.000151938 0.000145869 0.000141782 0.000132026 0.000697629 0.000839793 0.000209154 0.000107131 6.97455e-05 6.78195e-05 5.84911e-05 5.25877e-05 8.66556e-05 6.97679e-05 2.61945e-05 1.78712e-05 1.18028e-05 4.85812e-06 1.90714e-06 5.79854e-07 1.92769e-07
threshold=-0.03200000000001809 0.00049962180784754657 0.00026876282051827022 -0.0051876898524376913 -0.0026800000000000083 -0.0063094999999999393 1.3964191756826285 0.24875125694444242 0.0013866534700591826 0.0024318020420415953 45.791034091665502 0.00074051957101295689 -0.0028420890920460022 0.0014416600280357868 0.23996389444444235 0.00196637640332701 -1.9999999999978365e-05 0.21865872222222035 0.0026350000000000544 -114.52088387078008 0.46943679176449932 0.080225627433427885 -0.078811040908116067 0.013868968394406813 0.00036465566965215439 0.22643834027777546
decision_type=4 6 6 6 6 6 6 4 6 6 6 6 4 6 6 6 4 6 4 6 4 4 6 6 6 6
left_child=1 3 8 5 23 -1 15 21 11 22 -11 12 -2 25 -7 -6 17 -15 -18 -13 -9 -5 -10 24 -4 -3
right_child=2 13 4 7 6 14 -8 20 9 10 -12 19 -14 16 -16 -17 18 -19 -20 -21 -22 -23 -24 -25 -26 -27
leaf_value=0 -2.4291941542483765e-06 0 0 -1.1396812201010194e-06 6.9162546112130052e-07 -4.3773100555608241e-06 0 -5.9829882829528746e-06 0 -2.0674467396515434e-06 1.4262412289443313e-05 0 -1.0306293804606566e-07 2.4657267564724979e-06 -1.1297051238127479e-05 5.3119742515391585e-06 5.7012663646728681e-07 -3.157321550888983e-06 8.1130409511852276e-06 1.7578015780055342e-06 0 0 -6.6189950646580287e-07 0 -8.1016253430285253e-07 -2.2110275726502364e-06
leaf_weight=2096 25656 4608 1688 28463 11210 14679 5388 10408 4861 2295 7395 1536 116187 4093 10070 38389 18468 5324 2282 50353 896 6716 15732 387 3421 3910
leaf_count=2096 25656 4608 1688 28463 11210 14679 5388 10408 4861 2295 7395 1536 116187 4093 10070 38389 18468 5324 2282 50353 896 6716 15732 387 3421 3910
internal_value=0 -2.59797e-06 9.8362e-07 -4.30447e-06 3.43607e-06 -7.14076e-06 4.0562e-06 -2.34352e-06 2.54484e-07 2.09822e-06 8.84752e-06 0 -6.29582e-07 2.49048e-07 -7.79957e-06 4.5702e-06 1.23775e-06 0 2.12319e-06 1.59502e-06 -5.61575e-06 -8.65437e-07 -3.49864e-07 -3.91663e-08 -5.80931e-07 -1.4914e-06
internal_weight=0 112013 284498 73328 60483 26845 54987 46483 224015 30283 9690 193732 141843 38685 24749 49599 30167 9417 20750 51889 11304 35179 20593 5496 5109 8518
internal_count=396511 112013 284498 73328 60483 26845 54987 46483 224015 30283 9690 193732 141843 38685 24749 49599 30167 9417 20750 51889 11304 35179 20593 5496 5109 8518
is_linear=0
shrinkage=0.03


Tree=32
num_leaves=18
num_cat=0
split_feature=7 11 15 0 0 9 3 5 3 3 13 13 3 6 15 13 5
split_gain=0.00153988 0.00488449 0.00177026 0.00394606 0.00102896 0.000781912 0.000561445 0.000591805 0.000428069 0.000343067 0.000263951 0.000217582 0.000173849 0.000144175 0.000123997 1.21041e-05 2.4845e-05
threshold=19.535469060529962 -0.052491326651381294 0.0011876427244610634 0.30313714936110991 0.11210941736110938 -0.00029499999999996191 -0.0499999999993192 -0.001312608974361362 -0.99851189158071163 -0.58402401372228108 -0.00083830477239340195 0.0043334285776763367 -0.048648648648671154 -13.482647750308784 0.00015553336585069798 0.0069804160855984751 0.00025084254273641254
decision_type=6 4 6 6 6 4 4 6 6 6 6 6 6 6 6 4 6
left_child=1 2 -1 4 -4 6 9 -8 15 -3 -10 12 -7 -13 -12 -2 -17
right_child=8 5 3 -5 -6 11 7 -9 10 -11 14 13 -14 -15 -16 16 -18
leaf_value=0 0 -1.7454003442424124e-06 0 0 0.00011141804208733555 -2.8287388234025206e-08 -1.069866232337565e-05 0 0 -8.2535416631504736e-06 0 3.5600630972565979e-06 1.7184460277563264e-06 -3.1851030558421311e-06 8.3171158609950366e-06 0 2.6693322781123432e-06
leaf_weight=260 11395 20715 60 529 830 130462 5142 63350 1615 24005 668 1182 70778 25698 29109 3208 6660
leaf_count=260 11395 20715 60 529 830 130462 5142 63350 1615 24005 668 1182 70778 25698 29109 3208 6660
internal_value=0 -5.43498e-07 5.03272e-05 6.41675e-05 0.000102668 -8.37968e-07 -2.88238e-06 -9.05537e-07 4.95634e-06 -5.57449e-06 7.28164e-06 1.10902e-07 5.11529e-07 -2.33026e-06 7.9922e-06 8.17592e-07 1.59497e-06
internal_weight=0 343011 1679 1419 890 341332 113212 68492 52655 44720 31392 228120 201240 26880 29777 21263 9868
internal_count=395666 343011 1679 1419 890 341332 113212 68492 52655 44720 31392 228120 201240 26880 29777 21263 9868
is_linear=0
shrinkage=0.03


Tree=33
num_leaves=21
num_cat=0
split_feature=6 4 15 9 10 4 15 10 8 4 8 15 4 11 10 1 1 1 1 3
split_gain=0.0014225 0.000874065 0.000535321 0.000426541 0.000443079 0.000491258 0.000174616 0.000160481 0.000151541 0.000126818 0.000104512 7.69955e-05 0.000108625 7.63178e-05 4.69819e-05 2.73431e-05 4.24879e-05 2.7158e-05 2.81071e-06 1.07166e-06
threshold=67.248958308473007 33.408001273980197 0.00071206451737591315 -0.00021999999999995631 -0.0028212463614579993 60.261860703731593 0.0011164910961082568 0.0039991786572395856 0.26328183164175772 26.519533268405997 -0.010224408802545036 0.00052415790509561676 71.698107629475061 0.0064528965183535672 0.0017552626585025835 0.4022682634910108 0.2170843530711877 0.44853997479244845 0.27575201534023425 0.8571428571433245
decision_type=6 6 6 4 6 6 6 6 6 6 6 6 6 4 6 6 6 6 6 4
left_child=3 2 -2 4 5 -1 10 -8 11 -10 -6 12 -5 -13 18 16 -16 -11 -3 -7
right_child=1 14 -4 8 6 19 7 -9 9 17 -12 13 -14 -15 15 -17 -18 -19 -20 -21
leaf_value=-5.1979869159775566e-06 2.4012122555414616e-06 -1.0492061637572382e-06 1.0254366124798375e-05 0 -2.0492612461165204e-07 2.7752296811904347e-07 -4.8666871858732053e-06 0 0 4.9036338070355291e-06 2.3234396208048734e-06 -1.8079611058832259e-07 4.5727782572987586e-06 -3.0046455495264263e-06 0 0 2.5288944467393255e-06 0 0 0
leaf_weight=52815 22583 11496 21105 90619 17186 13772 11482 5070 3815 11272 22770 60458 5083 14554 12114 961 14894 358 2281 1166
leaf_count=52815 22583 11496 21105 90619 17186 13772 11482 5070 3815 11272 22770 60458 5083 14554 12114 961 14894 358 2281 1166
internal_value=0 3.55786e-06 6.53857e-06 -8.07609e-07 -2.17207e-06 -3.81289e-06 0 -2.77593e-06 2.26059e-08 2.92891e-06 8.60581e-07 -1.52502e-07 2.99173e-07 -9.28714e-07 7.90158e-08 1.07654e-06 1.45302e-06 4.60481e-06 -8.57329e-07 8.03112e-08
internal_weight=0 85434 43688 310420 124261 67753 56508 16552 186159 15445 39956 170714 95702 75012 41746 27969 27008 11630 13777 14938
internal_count=395854 85434 43688 310420 124261 67753 56508 16552 186159 15445 39956 170714 95702 75012 41746 27969 27008 11630 13777 14938
is_linear=0
shrinkage=0.03


Tree=34
num_leaves=24
num_cat=0
split_feature=10 3 2 4 7 6 0 3 3 15 15 9 13 4 0 9 13 6 6 3 7 5 13
split_gain=0.000758877 0.000683152 0.000573146 0.000484799 0.000422474 0.00025902 0.000521454 0.000244148 0.000499951 0.000167645 0.000354327 0.000102116 8.63504e-05 8.6175e-05 0.000331719 5.16589e-05 3.92231e-05 3.49925e-05 0.00025374 2.81967e-05 7.03463e-06 3.05264e-06 7.71324e-07
threshold=0.00021266521849352144 0.021370600261074849 30.910943537673472 46.770550704150068 12.703965634365998 -20.158033092294307 0.13068281483333147 -0.19914285014563632 -0.0071067069017048947 0.0010338853928160703 0.0018645065170685142 -0.00012999999999997733 -0.0069445950929249078 28.297541427472144 0.21730479583333187 -0.0004769999999999982 0.0034279752396168188 89.971356592230507 -73.036494214538081 -0.74999999999995814 26.446694184729154 -0.00017882478632187668 -0.0010030191381103283
decision_type=4 6 6 6 6 6 6 4 6 6 6 4 6 4 6 6 6 4 6 6 6 6 4
left_child=2 3 9 13 16 21 -7 11 19 17 -11 15 -6 14 -2 -4 22 18 -1 -9 -15 -5 -3
right_child=1 4 7 5 12 6 -8 8 -10 10 -12 -13 -14 20 -16 -17 -18 -19 -20 -21 -22 -23 -24
leaf_value=-3.9581115471127967e-06 6.4425259890049609e-06 3.1459860305368012e-07 -6.8522843258321508e-06 0 0 -1.2112029950668802e-05 -1.1278476163616083e-06 0 4.4726770030001492e-06 -6.7517420182121341e-06 0 0 6.4527939490146785e-06 0 0 0 3.1049506861236494e-06 0 -1.7648026433721269e-07 -1.7817236441699919e-06 1.0487103725059022e-06 6.5924127155556221e-07 0
leaf_weight=33850 11615 7012 4673 513 1251 6862 18279 4264 29344 23311 7016 5980 32738 68867 25726 4036 5351 6311 47816 17005 7885 6594 19814
leaf_count=33850 11615 7012 4673 513 1251 6862 18279 4264 29344 23311 7016 5980 32738 68867 25726 4036 5351 6311 47816 17005 7885 6594 19814
internal_value=0 1.20149e-06 -1.43144e-06 0 3.73207e-06 -3.18867e-06 -4.72319e-06 6.44148e-07 1.80945e-06 -2.70391e-06 -4.95238e-06 -2.34972e-06 6.14978e-06 9.7479e-07 2.21751e-06 -4.45666e-06 7.11848e-07 -1.75824e-06 -1.92767e-06 -1.1598e-06 1.74714e-07 1.29512e-07 0
internal_weight=0 212507 183606 146341 66166 32248 25141 65302 50613 118304 30327 14689 33989 114093 37341 8709 32177 87977 81666 21269 76752 7107 26826
internal_count=396113 212507 183606 146341 66166 32248 25141 65302 50613 118304 30327 14689 33989 114093 37341 8709 32177 87977 81666 21269 76752 7107 26826
is_linear=0
shrinkage=0.03


Tree=35
num_leaves=23
num_cat=0
split_feature=9 1 3 3 0 5 2 15 8 2 8 0 3 5 15 3 8 7 10 7 3 10
split_gain=0.000682241 0.000315711 0.000219991 0.000888845 0.00016505 0.000144893 0.000133531 0.000113573 0.000106167 5.18798e-05 3.62752e-05 0.00020759 0.000121324 5.44129e-05 1.50188e-05 1.44543e-05 1.17162e-05 3.27363e-05 1.25377e-05 1.15284e-05 6.12316e-06 1.89406e-06
threshold=-4.650000000009507e-05 0.24262361866390017 0.62761437908500584 -0.0041608896570742727 0.40876539791666672 -4.6381944439705107e-05 11.928826048543087 0.00037281834876434842 0.033451644504535992 81.627294781741199 0.0093224724877772284 0.22816513751388681 -0.033796306219488363 5.7652243594177872e-05 0.00067484107289424655 0.033048407199336535 0.016899830739318344 6.17767163510812 -0.0012004244545445037 34.854308546866797 -0.10349822564858187 -0.0061167256537956365
decision_type=4 6 4 6 6 6 4 6 6 6 4 6 4 6 6 4 6 6 6 6 6 6
left_child=1 10 3 5 8 6 -2 -5 -3 -7 12 -12 20 -13 -9 -14 18 21 -4 -20 -1 -18
right_child=2 4 16 7 -6 9 -8 14 -10 -11 11 13 15 -15 -16 -17 17 -19 19 -21 -22 -23
leaf_value=-2.6008417232429464e-06 0 -4.6572755352953072e-06 0 0 0 8.9070118934206936e-07 -4.3630965662223354e-06 1.7941734659871742e-06 -5.3985238453187028e-07 -2.2673508042020774e-06 1.8645198355210002e-06 0 1.2960124386590443e-06 -5.3626602889477056e-06 5.8558984031245938e-06 0 0 1.014469795537222e-06 -1.0582587337652936e-06 0 0 -6.0612070054619811e-07
leaf_weight=22680 3330 42196 61504 5887 5471 32909 14028 13308 16820 4130 25025 707 7743 5229 36982 26476 357 37457 20022 2434 4696 6518
leaf_count=22680 3330 42196 61504 5887 5471 32909 14028 13308 16820 4130 25025 707 7743 5229 36982 26476 357 37457 20022 2434 4696 6518
internal_value=0 -1.59528e-06 9.47757e-07 1.93157e-06 -3.23787e-06 -5.61687e-07 -2.90901e-06 4.61276e-06 -3.738e-06 1.33505e-07 -2.88721e-07 2.29881e-07 -7.92917e-07 -4.13363e-06 5.07944e-06 0 0 4.69653e-07 -9.54932e-08 -7.32487e-07 -2.3244e-06 -3.16913e-07
internal_weight=0 157043 238866 110574 64487 54397 17358 56177 59016 37039 92556 30961 61595 5936 50290 34219 128292 44332 83960 22456 27376 6875
internal_count=395909 157043 238866 110574 64487 54397 17358 56177 59016 37039 92556 30961 61595 5936 50290 34219 128292 44332 83960 22456 27376 6875
is_linear=0
shrinkage=0.03


Tree=36
num_leaves=24
num_cat=0
split_feature=6 10 2 10 11 3 13 0 15 3 5 3 1 1 0 11 6 8 8 12 5 12 13
split_gain=0.00100531 0.000712337 0.000462794 0.000342046 0.000308179 0.000516183 0.000243384 0.000204916 0.000147577 0.000576478 0.000176506 0.000126033 0.00035561 7.41355e-05 7.30194e-05 6.4731e-05 0.000104171 2.3434e-05 3.62478e-05 1.3793e-05 9.89944e-06 8.9708e-06 5.21745e-06
threshold=130.8511936065988 -0.0019660630374115661 22.374970512176798 0.0038450808053704191 -0.0040430708991478275 -0.5000000000009035 -0.0001394826489064559 0.20299392638888722 0.0011004924272207438 -0.012055941224846621 -0.00074197489315989951 0.25407664694542725 0.20627489745705252 0.37237301066233069 0.2204048028472208 -0.012708068572243479 -47.924595853094196 -0.25883382987130116 0.0933645605923136 0.47409631528149149 -0.00025427724358761944 0.1341605804256463 -0.011627906976744167
decision_type=6 4 6 6 4 6 4 6 6 4 6 4 6 6 4 4 6 6 6 6 6 4 4
left_child=1 6 3 17 -5 -6 15 20 11 10 -10 12 -3 -9 -13 -1 -17 -2 -19 21 -4 -8 -11
right_child=2 8 7 4 5 -7 19 13 9 22 -12 14 -14 -15 -16 16 -18 18 -20 -21 -22 -23 -24
leaf_value=-1.2865084900987466e-06 0 4.2030458337554695e-06 0 0 0 1.8328627989396414e-05 0 5.680446549837226e-06 0 0 -6.029855539167479e-06 1.4147361594557429e-06 0 0 -2.8409665769460037e-07 -4.857854283196144e-06 -1.8798154280024264e-07 3.1762886644810041e-06 0 -1.6436120839255272e-06 -3.4580980895281925e-06 7.8277430377777594e-07 9.994441295583385e-07
leaf_weight=29206 766 29722 422 380 3441 6661 11315 5846 525 747 19357 29008 39034 229 94837 45851 12444 5874 907 4523 5965 13484 35082
leaf_count=29206 766 29722 422 380 3441 6661 11315 5846 525 747 19357 29008 39034 229 94837 45851 12444 5874 907 4523 5965 13484 35082
internal_value=0 -6.05862e-07 5.04999e-06 8.13807e-06 1.19472e-05 1.32497e-05 -2.55024e-06 0 2.48513e-07 -1.0074e-06 -5.23546e-06 6.89681e-07 1.72688e-06 4.48019e-06 0 -3.34461e-06 -4.11834e-06 8.58837e-07 1.98248e-06 0 -3.12635e-06 8.74422e-08 9.20333e-07
internal_weight=0 365135 30491 18029 10482 10102 116823 12462 248312 55711 19882 192601 68756 6075 123845 87501 58295 7547 6781 29322 6387 24799 35829
internal_count=395626 365135 30491 18029 10482 10102 116823 12462 248312 55711 19882 192601 68756 6075 123845 87501 58295 7547 6781 29322 6387 24799 35829
is_linear=0
shrinkage=0.03


Tree=37
num_leaves=28
num_cat=0
split_feature=6 8 4 1 3 3 8 8 3 3 1 1 11 3 10 3 12 13 3 3 3 10 7 1 10 3 9
split_gain=0.000900651 0.000441509 0.000439221 0.000458206 0.000441799 0.000414734 0.000194216 0.000190446 0.000188534 0.000175223 0.000140657 0.000133076 8.26252e-05 7.97965e-05 7.48948e-05 6.47722e-05 5.40758e-05 4.88992e-05 3.93464e-05 3.63147e-05 2.9547e-05 2.88838e-05 2.72376e-05 1.91115e-05 1.62899e-05 1.89715e-06 2.9815e-08
threshold=68.257078985489358 -0.0054609571705580033 53.709383127612639 0.20647159546134242 -0.24533757290190003 -0.0041608896570742727 -0.0090862229881845894 -0.21827045823870872 -0.0082176021592297518 0.42857142857159852 0.24178894338071025 0.23543004726265426 -0.0021581900245220961 0.018533903128910512 -0.0039602498706448825 -0.89734808570405789 -0.79908945618291638 0.0045094450119725028 0.94117647058824205 0.19839334107626036 0.93333333333347068 -0.0024003616995616791 14.071140797341849 0.43723673734962981 0.0092253945704911643 -0.2899585815890941 0.00012850000000001752
decision_type=6 4 6 4 6 4 6 6 6 6 4 6 6 6 6 6 6 6 4 4 6 6 4 6 6 6 4
left_child=1 5 4 7 17 11 14 -4 22 12 19 21 18 -14 -6 -9 -8 26 -3 -7 -11 -1 -5 -12 -13 -19 -2
right_child=2 9 3 8 6 10 16 15 -10 20 23 24 13 -15 -16 -17 -18 25 -20 -21 -22 -23 -24 -25 -26 -27 -28
leaf_value=-2.8080791143623718e-06 0 -1.2115979816953589e-06 0 -3.1248691151964022e-06 -1.4048019853845828e-06 1.6582778151213694e-06 0 0 7.0855323156951648e-06 -4.9763742357731117e-06 -2.0514466338106499e-06 -6.1537240893991877e-06 4.3978941032444149e-07 3.3576231184291781e-06 2.7740222741859141e-06 -7.8036022838055292e-06 7.7279985516426963e-06 2.0798894167336956e-06 2.6796526397960383e-07 0 0 0 4.7587203894468464e-07 0 0 0 -4.7250309462113732e-08
leaf_weight=22307 2879 21278 815 2463 1363 14770 60 563 5369 5746 36320 24622 57826 16075 9444 9003 26980 11207 58118 30526 9678 12818 1957 1401 84 188 12017
leaf_count=22307 2879 21278 815 2463 1363 14770 60 563 5369 5746 36320 24622 57826 16075 9444 9003 26980 11207 58118 30526 9678 12818 1957 1401 84 188 12017
internal_value=0 -7.98483e-07 2.69434e-06 -5.57025e-07 3.95068e-06 -2.03522e-06 6.07303e-06 -5.54003e-06 3.19537e-06 1.59715e-07 -4.52592e-07 -3.98038e-06 5.49279e-07 1.27752e-06 8.59086e-07 -7.15683e-06 7.60196e-06 3.2474e-07 0 4.18618e-07 -2.7393e-06 -2.06589e-06 0 -1.89636e-06 -6.09477e-06 2.02602e-06 0
internal_weight=0 311569 84308 20170 64138 142848 37847 10381 9789 168721 83017 59831 153297 73901 10807 9566 27040 26291 79396 45296 15424 35125 4420 37721 24706 11395 14896
internal_count=395877 311569 84308 20170 64138 142848 37847 10381 9789 168721 83017 59831 153297 73901 10807 9566 27040 26291 79396 45296 15424 35125 4420 37721 24706 11395 14896
is_linear=0
shrinkage=0.03


Tree=38
num_leaves=20
num_cat=0
split_feature=5 8 6 11 0 4 6 4 6 9 1 10 1 7 6 10 11 3 11
split_gain=0.000536608 0.000700162 0.000422589 0.000415529 0.00074175 0.000418929 0.000292567 0.000880799 0.000272493 0.00017469 0.000170219 8.77078e-05 6.52112e-05 5.28197e-05 3.98188e-05 2.75835e-05 2.21807e-05 6.62517e-06 1.89243e-06
threshold=-0.00039807051281939837 0.21823075438102194 -133.57098742546941 -0.012092284558246553 0.28633975000000095 77.467051271511636 55.836171880073806 47.307325635131129 -2.7908233172792616 -0.00038999999999999446 0.1357050825563573 -0.0017533052483979189 0.20269716967463339 9.9658601493742243 381.68606888315401 -0.0037713784080087797 0.013629608178786589 -0.10989010989009597 0.018066362929533033
decision_type=4 6 4 4 6 6 6 6 6 4 6 6 6 6 6 6 6 6 6
left_child=2 6 15 -3 5 -5 9 14 17 12 -9 13 -2 -10 -8 -1 -11 -4 -6
right_child=1 3 8 4 18 -7 7 10 11 16 -12 -13 -14 -15 -16 -17 -18 -19 -20
leaf_value=-1.0135593787459271e-05 0 -4.3636826730166556e-06 0 8.9367271724481823e-06 0 0 4.2409031403061892e-06 -6.7681638384635694e-06 -6.5824304688528028e-06 4.5938154379157325e-08 0 0 -2.5638067955740928e-06 0 0 0 -2.0726129500297224e-06 6.759241120096248e-07 -6.0326593783744973e-07
leaf_weight=6731 15857 3199 23452 26292 9710 4753 47246 7259 10556 150818 15296 8795 42382 430 698 458 4571 13049 4678
leaf_count=6731 15857 3199 23452 26292 9710 4753 47246 7259 10556 150818 15296 8795 42382 430 698 458 4571 13049 4678
internal_value=0 5.80651e-07 -2.42178e-06 3.90689e-06 4.81954e-06 7.44946e-06 0 1.68693e-06 -1.23426e-06 -5.41683e-07 -2.82026e-06 -4.09034e-06 -1.94313e-06 -6.1079e-06 4.12019e-06 -9.6299e-06 0 0 0
internal_weight=0 332759 63471 48632 45433 31045 284127 70499 56282 213628 22555 19781 58239 10986 47944 7189 155389 36501 14388
internal_count=396230 332759 63471 48632 45433 31045 284127 70499 56282 213628 22555 19781 58239 10986 47944 7189 155389 36501 14388
is_linear=0
shrinkage=0.03


Tree=39
num_leaves=21
num_cat=0
split_feature=10 4 4 7 6 4 1 6 3 1 1 6 4 13 5 3 11 8 8 8
split_gain=0.000903765 0.00137213 0.000682815 0.000509341 0.00021506 0.000195654 0.00013915 0.00013372 0.000110907 9.39044e-05 0.000103614 6.29533e-05 5.8041e-05 5.05839e-05 4.06202e-05 4.04753e-05 3.70203e-05 2.17253e-05 1.12956e-05 9.48488e-07
threshold=-0.00014128581133577756 38.873122299018085 59.571201066740791 12.836385397433281 -6.6698958660651781 19.240708654816114 0.26641446415963727 138.4536892581217 -0.56748796864649298 0.23792889414697418 0.11591279386018026 58.333333333336306 32.939709175075855 0.0033921257462448105 -0.00073245352563960908 -0.25894311307599766 0.015127826101360433 -0.05762218315138589 0.19443127681622138 -0.012002963465339257
decision_type=4 4 6 6 6 6 6 6 6 4 6 6 6 4 6 6 4 6 6 6
left_child=2 3 5 6 9 -1 16 11 12 10 -3 -5 -7 -4 -6 -10 -2 -11 -16 -8
right_child=1 4 13 7 14 8 19 -9 15 17 -12 -13 -14 -15 18 -17 -18 -19 -20 -21
leaf_value=-5.4944066965328583e-06 2.8333424115232472e-06 0 1.8911661764868232e-06 5.6342893246901051e-07 0 0 0 9.9691045395185998e-06 -6.4257480153857273e-06 0 4.632309223834273e-06 5.4839624707082711e-06 -1.7722467053991004e-06 0 -1.2931885427798079e-06 -2.1040718663374436e-06 0 -1.8601550993701444e-06 -3.8224891629241321e-06 -3.2549093125923277e-07
leaf_weight=25526 32965 4606 37600 10938 922 30289 5338 13341 7811 48423 8399 23593 22902 4150 40514 43487 2928 5765 16442 10437
leaf_count=25526 32965 4606 37600 10938 922 30289 5338 13341 7811 48423 8399 23593 22902 4150 40514 43487 2928 5765 16442 10437
internal_value=0 1.2408e-06 -1.6499e-06 3.8949e-06 -7.51605e-07 -2.76381e-06 1.43468e-06 6.2367e-06 -1.95309e-06 2.07975e-07 2.58652e-06 4.35983e-06 -6.08584e-07 1.45967e-06 -2.12475e-06 -3.05474e-06 2.53866e-06 -8.6142e-08 -2.2868e-06 -1.26462e-07
internal_weight=0 224611 171765 99540 125071 130015 51668 47872 104489 67193 13005 34531 53191 41750 57878 51298 35893 54188 56956 15775
internal_count=396376 224611 171765 99540 125071 130015 51668 47872 104489 67193 13005 34531 53191 41750 57878 51298 35893 54188 56956 15775
is_linear=0
shrinkage=0.03


Tree=40
num_leaves=23
num_cat=0
split_feature=10 6 1 2 2 9 15 1 1 7 11 3 13 12 0 8 3 0 2 9 11 2
split_gain=0.000723294 0.000360848 0.000665469 0.000261171 0.000387202 0.000249289 0.00039763 0.000224296 0.000191416 0.000175108 0.000160201 0.000145657 0.000125411 0.000145772 0.000122542 0.00012013 0.000120051 0.000103567 4.73738e-05 3.75256e-05 2.03933e-05 1.92999e-05
threshold=0.0024973043484688103 108.26762259682518 0.11931116942213972 11.620501063069275 23.228628096676925 -9.499999999953988e-06 0.0004870472174380096 0.21922175258481177 0.24869523780582301 -0.72134376597825456 -0.00050481321256541807 -0.0013333333332745283 0.01512713428763692 0.35974116026638031 0.28855267499999965 -0.11185465012295133 0.10357142857141845 0.12003993718749824 72.294406750867651 0.0025365000000000114 -0.00073109598042538808 14.821560602924606
decision_type=6 6 6 6 4 4 6 4 6 6 4 6 6 6 6 6 4 6 6 4 6 6
left_child=3 10 -3 7 5 6 -5 15 17 -10 16 -4 13 -6 -7 19 -2 -9 21 -1 -14 -12
right_child=1 2 11 4 12 14 -8 8 9 -11 18 -13 20 -15 -16 -17 -18 -19 -20 -21 -22 -23
leaf_value=8.2911168528453582e-06 -8.8426502518483477e-06 -4.9018553579361901e-06 2.4590721439603526e-06 0 0 -2.0711387191430189e-06 -6.2888221653192201e-06 0 -3.9993952804841598e-06 0 2.1646257381805196e-07 9.6019328698669544e-06 1.8578814350065765e-05 -4.0399819873926974e-06 1.5753090642642792e-06 5.8109999175947547e-07 0 3.3440790041309762e-06 0 0 0 2.4062117318761669e-06
leaf_weight=5144 2157 3506 11727 13454 103471 20992 32679 47422 19067 7637 23676 14671 350 8746 10162 13755 3986 10642 9968 179 67 32959
leaf_count=5144 2157 3506 11727 13454 103471 20992 32679 47422 19067 7637 23676 14671 350 8746 10162 13755 3986 10642 9968 179 67 32959
internal_value=0 2.21092e-06 5.10051e-06 -7.12659e-07 -1.39323e-06 -3.04213e-06 -4.50099e-06 3.87572e-07 -1.06449e-07 -2.34944e-06 8.1679e-07 6.99741e-06 -1.28578e-07 -3.21306e-07 -4.00245e-07 3.36856e-06 -3.14478e-06 6.66838e-07 1.40747e-06 7.75174e-06 1.56899e-05 1.75568e-06
internal_weight=0 102650 29904 293767 189921 77287 46133 103846 84768 26704 72746 26398 112634 112217 31154 19078 6143 58064 66603 5323 417 56635
internal_count=396417 102650 29904 293767 189921 77287 46133 103846 84768 26704 72746 26398 112634 112217 31154 19078 6143 58064 66603 5323 417 56635
is_linear=0
shrinkage=0.03


Tree=41
num_leaves=26
num_cat=0
split_feature=10 11 15 1 3 15 5 4 14 1 2 11 1 11 3 8 11 0 6 3 3 7 3 7 8
split_gain=0.00082057 0.00105674 0.00151676 0.000564841 0.000501223 0.000452794 0.000452542 0.000293177 0.000234946 0.000221685 0.000190214 0.00243389 0.000728393 0.000235674 0.000144093 0.000107333 0.000106017 8.03753e-05 0.000128566 5.57756e-05 3.23585e-05 7.57019e-06 4.4294e-06 1.95349e-06 5.94495e-07
threshold=-0.00031958756366999829 -0.02532375902338559 0.001598208179919836 0.11496552540454547 -0.018518518518503922 0.0010624413152068772 0.00031379967948830251 31.355582744866449 1.0031817964615233 0.31778542017486949 33.117153499387108 0.029835949063671981 0.28811564182369759 -0.00040763307374824261 0.50710084033594283 -0.076007454942653138 -0.00079644740707029429 0.25924971874999764 139.77665104051582 0.14275815481663542 -0.0027434230879690908 18.091283331926608 -0.035714285714277899 4.699825115809694 -0.07172494275194663
decision_type=4 4 6 6 4 6 6 4 6 6 6 6 4 6 4 4 4 6 6 6 4 6 6 4 4
left_child=1 2 19 -4 5 23 7 17 22 -5 12 16 13 -8 -10 20 -12 18 -2 -1 -6 -14 -9 -3 -17
right_child=6 4 3 9 15 -7 10 8 14 -11 11 -13 21 -15 -16 24 -18 -19 -20 -21 -22 -23 -24 -25 -26
leaf_value=-3.1358081441579026e-06 1.6034203309050522e-06 -2.3605805025895113e-06 0 2.5035727174544317e-05 0 -8.7816377551909659e-06 0 -4.6662899112130982e-09 -5.5718981216139899e-06 0 0 -3.3003967064032317e-05 -7.0880451749649214e-07 8.593592559138932e-06 0 0 5.872088112948583e-06 0 8.3375668186977452e-06 0 -1.9310963691055482e-06 4.6830622320957009e-07 3.9573740705805541e-07 0 1.3068334782961826e-07
leaf_weight=5921 30151 42880 220 4120 2125 18446 4228 71969 11838 1512 2137 1736 7842 23775 5874 1109 11389 15287 5155 1249 46887 13095 25443 668 40735
leaf_count=5921 30151 42880 220 4120 2125 18446 4228 71969 11838 1512 2137 1736 7842 23775 5874 1109 11389 15287 5155 1249 46887 13095 25443 668 40735
internal_value=0 -1.58777e-06 6.31086e-06 1.79003e-05 -2.3589e-06 -4.49448e-06 1.18037e-06 2.52383e-07 -4.79328e-07 2.05709e-05 3.34196e-06 0 4.26021e-06 7.42473e-06 -3.66472e-06 -7.36567e-07 4.68842e-06 2.21381e-06 3.01192e-06 -1.05908e-06 -1.72432e-06 0 0 -2.33377e-06 6.19635e-08
internal_weight=0 165872 13022 5852 152850 61994 229919 165717 115124 5632 64202 15262 48940 28003 17712 90856 13526 50593 35306 7170 49012 20937 97412 43548 41844
internal_count=395791 165872 13022 5852 152850 61994 229919 165717 115124 5632 64202 15262 48940 28003 17712 90856 13526 50593 35306 7170 49012 20937 97412 43548 41844
is_linear=0
shrinkage=0.03


Tree=42
num_leaves=21
num_cat=0
split_feature=10 13 0 7 2 11 2 1 1 5 2 1 2 5 2 4 5 7 11 11
split_gain=0.000591918 0.000308479 0.000297585 0.000186052 0.000811955 0.000160411 0.000152026 0.00015932 0.00025424 0.000132257 0.000120621 5.47977e-05 5.16702e-05 2.58749e-05 1.95366e-05 1.68385e-05 6.92905e-06 2.11694e-06 5.15301e-07 5.92506e-08
