tree
version=v4
num_class=1
num_tree_per_iteration=1
label_index=0
max_feature_idx=15
objective=regression
feature_names=Column_0 Column_1 Column_2 Column_3 Column_4 Column_5 Column_6 Column_7 Column_8 Column_9 Column_10 Column_11 Column_12 Column_13 Column_14 Column_15
feature_infos=[0:1413.7591333333316] [0:1416.1463641540292] [0:95.352893647688916] [-0.79435783221973244:0.81294238505390304] [0:98.852123022631218] [-33.529519230774895:48.415993589741788] [-466.66666666678452:466.66666666667885] [-97.684072743135459:99.023440283188791] [-3.1046471759491867:5.6936909901604418] [-79.918333333333067:102.37] [-0.1012683626855154:6.6046312576409214] [-0.20840604337792429:1.9611853969109181] [-19.375775759938673:25.652076965882209] [-0.19375775759938671:0.25652076965882209] [0:1.2565207696588221] [0:104.53736400238266]
tree_sizes=1974 1779 1956 1774 2215 1168 1373 1863 1292 1512 1404 1212 1638 1810 1623 1301 1619 2256 1337 1868 1565 1802 1587 1612 1419 1658 1375 1610 1800 1417 1529 1209 1713 2054 1496 1288 1366 1297 1716 1852 1521 1345 1418 1638 1259 1420 1226 1823 1614 1526 1421 1223 1769 1481 1872 1643 1583 1812 1159 1099 1297 1660 1278 1780 1070 1478 1683 1350 1652 1338 1148 1328 1664 2000 1432 1267 1395 1399 1703 2229 1164 1426 1319 1697 1062 1866 1390 1172 1206 1258 2061 1958 1477 1167 1295 1238 1195 1227 1077 1348

Tree=0
num_leaves=18
num_cat=0
split_feature=12 0 7 0 6 6 4 12 5 5 12 7 7 0 0 3 4
split_gain=0.00237002 0.00049535 0.00112397 0.000443576 0.000382718 0.00021158 0.000210536 0.000208921 0.000121898 0.000107788 4.13844e-05 3.73553e-05 2.86667e-05 8.19219e-06 0.000195099 7.36017e-06 2.32718e-05
threshold=-0.37758477660996265 584.44504166666991 34.767046501121733 291.9285833650726 -52.352741036497555 -56.084145070196627 36.943519222026389 0.50452392493053344 0.10868998739803716 0.17047528208411936 -0.099581798806031005 -14.122440778997932 11.862897346844166 531.53266772836469 230.63525841177719 0.025915303310968672 26.529960353811639
decision_type=4 6 6 4 4 6 6 4 6 6 6 4 6 4 6 4 6
left_child=3 4 8 5 13 -1 15 10 12 -4 -6 -9 -3 14 -2 16 -5
right_child=1 2 9 6 7 -7 -8 11 -10 -11 -12 -13 -14 -15 -16 -17 -18
leaf_value=-1.0620163866826805e-05 -1.8840704578683048e-05 -2.317833958729451e-05 -2.1293492233148462e-05 -2.1293492233148462e-05 -2.1293492233148462e-05 -2.1293492233148462e-05 -1.512004826543576e-05 -2.1293492233148462e-05 -2.0759098076648598e-05 -1.2611144354868242e-05 -2.3316406781197534e-05 -2.6976099909934212e-05 -2.1293492233148462e-05 -2.1293492233148462e-05 -2.2166889891219677e-05 -2.1293492233148462e-05 -1.9318186164167693e-05
leaf_weight=19387 26781 39423 651 7705 19817 3849 11359 168 38794 15317 138861 21276 5955 3374 31282 5216 7136
leaf_count=19387 26781 39423 651 7705 19817 3849 11359 168 38794 15317 138861 21276 5955 3374 31282 5216 7136
internal_value=-2.12935e-05 -2.21825e-05 -2.05076e-05 -1.54552e-05 -2.2939e-05 -1.19738e-05 -1.85079e-05 -2.36455e-05 -2.17245e-05 -1.3155e-05 -2.31228e-05 -2.68136e-05 -2.28803e-05 -2.11116e-05 -2.0891e-05 -2.11748e-05 -2.06114e-05
internal_weight=0 341699 100140 54652 241559 23236 31416 180122 84172 15968 158678 21444 45378 61437 58063 20057 14841
internal_count=396351 341699 100140 54652 241559 23236 31416 180122 84172 15968 158678 21444 45378 61437 58063 20057 14841
is_linear=0
shrinkage=1


Tree=1
num_leaves=18
num_cat=0
split_feature=13 12 0 10 6 1 6 12 3 0 0 13 15 2 12 13 13
split_gain=0.00200304 0.00097738 0.000303095 0.000260472 0.000209528 0.000171375 0.000779227 0.000148373 0.000118561 8.41486e-05 0.00025929 5.85285e-05 3.3556e-05 2.79966e-05 1.57699e-05 2.45124e-07 9.10973e-09
threshold=-0.003123185873975491 -0.78152726159712571 200.18334071779486 0.00048081623916710654 -78.415745068831171 728.6067853765918 64.870717904718575 0.53031928228021175 0.28341000965106605 995.5571875000004 484.1105919752867 -0.00074513161046427408 2.3492647984768564 27.750324446063939 0.098789036950353029 0.00089827427024352906 0.0022338552037458972
decision_type=4 6 6 6 4 6 4 4 6 4 6 6 6 6 6 4 4
left_child=1 3 4 -1 15 8 14 -8 13 10 -3 16 -13 -4 -7 -2 -6
right_child=2 9 5 -5 11 6 7 -9 -10 -11 -12 12 -14 -15 -16 -17 -18
leaf_value=1.2217912866453973e-05 4.0909766476059151e-07 4.3052281220703021e-06 -7.9838171227768895e-07 0 -2.612560297260818e-08 -2.2010702589517956e-06 6.549428523945961e-06 0 -4.2096401128039216e-06 0 0 -6.8568174733083415e-07 -4.5457916098111824e-06 0 0 0 0
leaf_weight=15930 8262 30008 140968 1414 12010 25579 18039 7918 10558 3686 16281 12710 38173 46858 7513 214 52
leaf_count=15930 8262 30008 140968 1414 12010 25579 18039 7918 10558 3686 16281 12710 38173 46858 7513 214 52
internal_value=0 4.73815e-06 -9.41295e-07 1.11173e-05 -2.71002e-06 -3.92305e-07 9.08777e-07 4.9666e-06 -8.55188e-07 2.22375e-06 2.641e-06 -3.3631e-06 -3.87643e-06 -5.86725e-07 -1.82099e-06 3.7029e-07 0
internal_weight=0 67319 328854 17344 71421 257433 59049 25957 198384 49975 46289 62945 50883 187826 33092 8476 12062
internal_count=396173 67319 328854 17344 71421 257433 59049 25957 198384 49975 46289 62945 50883 187826 33092 8476 12062
is_linear=0
shrinkage=0.03


Tree=2
num_leaves=20
num_cat=0
split_feature=14 2 4 14 1 0 0 8 10 0 10 7 10 10 4 10 3 0 3
split_gain=0.00232946 0.00048995 0.000426119 0.000238443 0.00112497 0.000455287 0.000380164 0.000360753 0.00021918 0.000188038 0.000145481 0.000139584 0.000110725 3.67747e-05 2.26238e-05 9.37893e-06 7.48984e-06 3.72489e-06 2.84535e-06
threshold=0.99398410686135408 11.985927868460042 26.835803479645296 0.99858206463443622 1097.1782099410727 288.72167315925327 551.13782610425289 0.14758524660811928 -0.00053837444342555061 827.80466111111286 -0.002638717332349261 3.706711041040712 0.00040742584419956892 -0.0039655694255417368 18.156992753885756 0.0037267801988831325 -0.014750407665941167 437.25053546122285 -0.047391334156019184
decision_type=4 6 6 4 6 4 6 6 6 4 6 6 6 6 4 6 4 6 6
left_child=1 -1 16 5 6 10 13 11 -4 17 -2 -6 -8 -5 -11 -12 18 -7 -3
right_child=3 2 8 4 7 9 12 -9 -10 14 15 -13 -14 -15 -16 -17 -18 -19 -20
leaf_value=0 5.2940233571481481e-06 1.9597173500466454e-06 1.3861237341641103e-05 0 -5.7643867329810107e-07 -6.0227504479461128e-07 -1.2495596956069932e-06 1.6895779558364957e-05 0 0 9.0738638884007685e-07 6.5159204362407672e-06 1.0241350282302698e-06 -2.4450238549993229e-06 -4.870437301103458e-06 0 0 0 0
leaf_weight=5638 17155 2420 15193 12453 2204 9240 30758 3686 1947 1256 20482 2986 49217 175971 11037 2343 1961 29989 682
leaf_count=5638 17155 2420 15193 12453 2204 9240 30758 3686 1947 1256 20482 2986 49217 175971 11037 2343 1961 29989 682
internal_value=0 8.25584e-06 1.02627e-05 -7.37579e-07 -1.19261e-06 4.77339e-07 -1.58789e-06 9.06844e-06 1.26017e-05 -1.18427e-06 2.99377e-06 6.15937e-07 0 -2.32538e-06 -4.43191e-06 6.07501e-07 0 0 1.47366e-06
internal_weight=0 27841 22203 368777 277275 91502 268399 8876 17140 51522 39980 5190 79975 188424 12293 22825 5063 39229 3102
internal_count=396618 27841 22203 368777 277275 91502 268399 8876 17140 51522 39980 5190 79975 188424 12293 22825 5063 39229 3102
is_linear=0
shrinkage=0.03


Tree=3
num_leaves=18
num_cat=0
split_feature=11 8 13 12 0 5 0 0 3 0 15 0 15 8 3 3 0
split_gain=0.00529587 0.00111818 0.000782687 0.000764825 0.000246095 0.000522959 0.000322955 0.000232547 0.000145123 9.00783e-05 0.000163076 8.8941e-05 7.60171e-05 1.71412e-05 8.98232e-06 4.30429e-05 8.57256e-06
threshold=-0.044649566464376324 -0.57246419311742869 -0.0029521771175552579 -1.3760663647008617 196.02949551365001 0.9020483098638864 704.61229175172741 704.61229175172741 -0.0010928961749132459 151.02692140060046 2.5865907434100857 414.65794637332755 4.0871675494370487 0.34770863102017152 -0.07320089550628249 0.094915254237287527 532.57459476952579
decision_type=4 6 4 6 6 6 6 4 6 4 4 6 6 6 4 6 6
left_child=1 3 7 -1 9 -6 -7 8 11 12 -11 -2 -4 -3 -9 -16 -10
right_child=2 13 4 -5 5 6 -8 14 16 10 -12 -13 -14 -15 15 -17 -18
leaf_value=8.703452152255643e-05 6.3626031363010916e-06 4.1940795444528515e-06 -2.5643130062210232e-06 1.0343709558278462e-05 -1.1080240163684179e-06 0 4.9124770191841269e-06 0 9.1281132686976781e-07 0 -7.9046772091645435e-06 9.0019605230310635e-07 0 0 -2.3125975241988965e-06 0 0
leaf_weight=835 20922 960 32556 762 220394 17742 22863 6206 16868 3376 8669 11395 18345 94 8753 1901 3106
leaf_count=835 20922 960 32556 762 220394 17742 22863 6206 16868 3376 8669 11395 18345 94 8753 1901 3106
internal_value=0 4.2219e-05 -3.0873e-07 5.98815e-05 -9.61044e-07 -4.83638e-07 2.53587e-06 2.53013e-06 3.53098e-06 -2.70219e-06 -5.72632e-06 4.90085e-06 -1.6917e-06 1.18976e-06 0 -8.71e-07 5.63419e-07
internal_weight=0 2651 393096 1597 323945 260999 40605 69151 52291 62946 12045 32317 50901 1054 16860 10654 19974
internal_count=395747 2651 393096 1597 323945 260999 40605 69151 52291 62946 12045 32317 50901 1054 16860 10654 19974
is_linear=0
shrinkage=0.03


Tree=4
num_leaves=23
num_cat=0
split_feature=14 10 1 10 0 9 10 11 0 4 8 12 12 6 2 11 11 0 2 0 3 3
split_gain=0.00117851 0.0010161 0.00117857 0.00283558 0.000481869 0.000547358 0.000425779 0.00044103 0.000120479 0.000107605 8.56932e-05 6.66379e-05 5.47906e-05 4.20713e-05 4.11862e-05 3.69581e-05 4.39204e-05 1.54649e-05 8.576e-06 8.1602e-06 5.00525e-06 5.49955e-07
threshold=0.9983837545016333 -0.0031460396687347137 283.10206827396217 -0.038228957408643197 673.4835390537711 0.44500000000000034 0.0022361647206689812 0.0027270806747126696 390.89366704325397 25.509863372273518 -0.62630096945072644 -0.088684762776941581 0.26796167107777663 -82.117802504922466 56.515889670504045 -0.017950096572445364 -0.0046078329462982152 510.38593540619769 7.8465492241851456 476.72077176460095 0.17889681030342111 0.055555555555559334
decision_type=4 6 6 6 6 6 6 6 6 6 6 6 6 4 6 6 6 6 4 6 4 6
left_child=1 2 3 -1 8 15 -7 -8 11 -4 -11 -2 -13 20 18 -6 -17 19 -15 -10 21 -3
right_child=4 13 9 -5 5 6 7 -9 17 10 -12 12 -14 14 -16 16 -18 -19 -20 -21 -22 -23
leaf_value=0.00011637223095438911 0 6.5395634011620416e-07 0 9.1583868809634967e-06 0 0 0 8.0336864769686189e-06 0 8.5495285639179986e-06 1.2128729291287596e-06 -1.7253380782818376e-06 -3.9813001175953479e-06 0 0 0 -3.090125904222022e-06 -1.0879114267479116e-06 -1.9227289443465341e-06 -8.460948445142701e-07 0 0
leaf_weight=251 14842 25699 8736 21607 695 18606 4479 19414 41573 3106 23467 77842 35589 1081 2923 4628 18782 37354 20734 10257 1130 2511
leaf_count=251 14842 25699 8736 21607 695 18606 4479 19414 41573 3106 23467 77842 35589 1081 2923 4628 18782 37354 20734 10257 1130 2511
internal_value=0 2.68037e-06 5.47508e-06 1.10863e-05 -9.59832e-07 1.14246e-06 3.33598e-06 5.98591e-06 -1.67272e-06 1.57626e-06 2.63544e-06 -2.31353e-06 -2.56544e-06 0 -1.13503e-06 -2.1026e-06 -2.44395e-06 -5.82817e-07 -1.77762e-06 0 4.51883e-07 6.0996e-07
internal_weight=0 111245 57167 21858 284061 66604 42499 23893 217457 35309 26573 128273 113431 54078 24738 24105 23410 89184 21815 51830 29340 28210
internal_count=395306 111245 57167 21858 284061 66604 42499 23893 217457 35309 26573 128273 113431 54078 24738 24105 23410 89184 21815 51830 29340 28210
is_linear=0
shrinkage=0.03


Tree=5
num_leaves=11
num_cat=0
split_feature=12 3 10 10 0 13 10 15 4 3
split_gain=0.00193928 0.000266483 0.000392019 0.000283384 0.000377251 0.000118292 0.000113785 0.000190993 9.89439e-05 5.04154e-07
threshold=-1.0161245008606599 -0.29541704170413657 -0.0068570327057622107 -0.0020701381942165439 319.0700646560482 0.0017451166592740283 0.00019704357037679822 2.7533077874207108 24.90939766783718 -0.31547059262577531
decision_type=4 4 6 6 6 6 6 6 6 6
left_child=6 9 5 8 -5 -3 7 -1 -4 -2
right_child=1 2 3 4 -6 -7 -8 -9 -10 -11
leaf_value=0 4.463488500986164e-06 3.825787231631019e-06 -4.6798475530413277e-07 -2.4372818682085944e-06 -8.5522322975530711e-08 0 0 1.6508534812227597e-05 1.611508850674954e-06 0
leaf_weight=1945 10059 23673 18860 119729 155043 3667 706 7352 53095 1739
leaf_count=1945 10059 23673 18860 119729 155043 3667 706 7352 53095 1739
internal_value=0 -2.17027e-07 -3.93837e-07 -7.01813e-07 -1.16488e-06 2.96309e-06 1.31493e-05 1.40372e-05 8.58001e-07 4.11682e-06
internal_weight=0 385865 374067 346727 274772 27340 10003 9297 71955 11798
internal_count=395868 385865 374067 346727 274772 27340 10003 9297 71955 11798
is_linear=0
shrinkage=0.03


Tree=6
num_leaves=13
num_cat=0
split_feature=13 2 10 3 10 0 8 15 0 0 4 9
split_gain=0.00166908 0.00039062 0.000225717 0.000211376 0.000164862 0.000140542 0.000274039 2.71782e-05 2.06949e-05 8.72421e-05 1.70922e-05 7.35141e-06
threshold=-0.0049164965762187457 12.284611092160473 -0.00024660642965403351 -0.1931034482758586 -0.0023213483592378699 199.28721671942063 0.023283759979643683 2.4245332660601364 434.37328055555935 214.7742288918773 26.475329381073774 -2.7900000000000911
decision_type=4 6 6 4 4 6 6 4 6 6 6 4
left_child=1 -1 -3 11 8 7 -7 -6 9 -5 -10 -2
right_child=3 2 -4 4 5 6 -8 -9 10 -11 -12 -13
leaf_value=0 0 8.4014209292930198e-06 0 2.1009555834971336e-06 -3.4777600949992735e-07 -2.0309527962458462e-06 3.0839107558363206e-08 -3.3055227133165223e-06 -1.3175566930314952e-06 -3.4919931875038791e-07 0 1.9999182240575827e-06
leaf_weight=8323 613 26204 3816 21951 16241 96374 111776 42910 8902 13202 24476 20849
leaf_count=8323 613 26204 3816 21951 16241 96374 111776 42910 8902 13202 24476 20849
internal_value=0 5.81144e-06 7.40578e-06 -7.67564e-07 -9.82162e-07 -1.32727e-06 -8.51724e-07 -2.74704e-06 1.45039e-07 7.5413e-07 -4.70784e-08 1.89135e-06
internal_weight=0 38343 30020 357294 335832 267301 208150 59151 68531 35153 33378 21462
internal_count=395637 38343 30020 357294 335832 267301 208150 59151 68531 35153 33378 21462
is_linear=0
shrinkage=0.03


Tree=7
num_leaves=18
num_cat=0
split_feature=10 10 5 0 0 12 11 15 0 2 15 15 3 15 11 6 4
split_gain=0.000795216 0.00557018 0.000409067 0.000418447 0.00035831 0.000328986 0.000268256 0.000367157 0.000239644 0.000147951 9.92977e-05 5.24708e-05 5.14991e-05 6.45228e-05 4.08218e-05 3.3299e-05 3.34258e-06
threshold=-0.001620368002103593 -0.025835160476143929 0.21548223205087427 209.46380158311024 472.11182928732302 -0.40754440624580773 0.0057401844718984411 2.996593179220524 849.01843333333579 16.109339075058752 5.9927492551296195 1.5850855081056732 -0.136659125188511 2.3946285940534713 0.0011584738995041323 -85.843015308969868 51.211332009754692
decision_type=6 6 6 6 6 6 6 6 6 6 6 6 6 4 6 6 6
left_child=1 -1 12 10 5 15 14 -8 16 -7 11 -4 -2 -14 -5 -3 -6
right_child=2 4 3 6 8 9 7 -9 -10 -11 -12 -13 13 -15 -16 -17 -18
leaf_value=4.5255913078919026e-05 0 6.8434818806666176e-06 0 -1.0620161696481681e-06 0 -1.1211128944554184e-06 0 5.6487503205949934e-06 -3.8287746409012193e-06 1.9747018327013181e-06 0 -6.6130991286206393e-06 -1.1253557155826873e-06 -2.9349589165744352e-06 5.2284731048524589e-07 3.6415234063449115e-08 9.3721968976992612e-07
leaf_weight=2623 11429 14610 1981 26531 32267 16558 20615 22005 16870 35224 3621 9002 74166 72730 24924 5670 5036
leaf_count=2623 11429 14610 1981 26531 32267 16558 20615 22005 16870 35224 3621 9002 74166 72730 24924 5670 5036
internal_value=0 1.88318e-06 -9.84468e-07 3.16921e-07 8.62426e-07 2.30627e-06 1.17704e-06 2.95337e-06 -7.81331e-07 6.95103e-07 -4.19618e-06 -5.61671e-06 -1.97251e-06 -2.12345e-06 -2.83699e-09 5.68009e-06 1.94893e-07
internal_weight=0 128858 267004 108679 126235 72062 94075 42620 54173 51782 14604 10983 158325 146896 51455 20280 37303
internal_count=395862 128858 267004 108679 126235 72062 94075 42620 54173 51782 14604 10983 158325 146896 51455 20280 37303
is_linear=0
shrinkage=0.03


Tree=8
num_leaves=12
num_cat=0
split_feature=8 13 0 14 7 0 7 11 12 12 11
split_gain=0.00115538 0.000554333 0.000579944 0.000419977 0.000491263 0.000170526 0.000892758 0.000382041 4.92614e-05 3.7253e-05 1.11952e-05
threshold=-0.49948640134723277 -0.0026084431908585163 825.40214583333648 0.99726500583113087 -41.475687745009587 787.87269583333807 22.75767955843747 0.0016614945194869768 -0.013816802163513218 0.13633840584746929 0.00030286502961294467
decision_type=4 6 4 6 6 6 6 6 6 4 4
left_child=3 2 10 4 -1 9 8 -8 -7 -3 -2
right_child=1 5 -4 -5 -6 6 7 -9 -10 -11 -12
leaf_value=2.1917008490400972e-05 3.9450641996518079e-06 -7.4166103848605953e-07 -3.493052872396947e-06 0 8.3371383109127007e-07 -3.4998457823020361e-06 0 8.9369408118693911e-06 0 -1.7937213688216064e-06 1.0176049007230152e-06
leaf_weight=3798 42768 166435 11708 3303 3604 13659 2951 13023 18391 98154 17545
leaf_count=3798 42768 166435 11708 3303 3604 13659 2951 13023 18391 98154 17545
internal_value=0 -2.88914e-07 2.02272e-06 9.70153e-06 1.36806e-05 -8.69471e-07 5.76663e-07 6.60257e-06 -1.95894e-06 -1.18864e-06 3.34223e-06
internal_weight=0 384634 72021 10705 7402 312613 48024 15974 32050 264589 60313
internal_count=395339 384634 72021 10705 7402 312613 48024 15974 32050 264589 60313
is_linear=0
shrinkage=0.03


Tree=9
num_leaves=15
num_cat=0
split_feature=8 1 10 13 6 13 12 15 1 3 13 3 6 6
split_gain=0.000275263 0.0012064 0.00077962 0.00074232 0.000330105 0.000570524 0.000139784 0.000104101 8.63513e-05 8.34319e-05 6.05407e-05 1.46703e-05 1.11239e-05 7.52844e-06
threshold=-0.066782429252054493 1073.1454117030999 -0.0020045297423553787 0.00049625378422647791 -106.00706520830376 -0.0078152726159712253 -0.28983536307062291 3.5470531720136567 149.28835750896931 -0.15317227761288923 -0.00065955510255369008 0.18133434496712919 -51.221159281151202 -166.77267071322822
decision_type=4 6 6 4 6 4 4 6 4 6 4 6 4 6
left_child=2 6 4 -3 5 -1 12 11 -4 -5 -9 -6 -2 -10
right_child=1 3 8 9 7 -7 -8 10 13 -11 -12 -13 -14 -15
leaf_value=1.2889095804915701e-05 1.0986490650775748e-06 0 0 0 3.4996347053025399e-07 1.9233411370857158e-06 -1.2134480315606739e-06 4.0129115246675907e-06 0 1.6743341276982269e-05 0 -1.5256553622633825e-06 0 -2.9181521148662974e-06
leaf_weight=8184 22270 3841 7252 154 26613 18381 241136 14370 613 5919 9139 4270 4007 30081
leaf_count=8184 22270 3841 7252 154 26613 18381 241136 14370 613 5919 9139 4270 4007 30081
internal_value=0 -5.27208e-07 1.198e-06 9.61498e-06 2.94179e-06 5.86694e-06 -9.59378e-07 1.23722e-06 -2.12701e-06 1.61516e-05 2.74342e-06 0 8.01258e-07 -2.85041e-06
internal_weight=0 277327 118903 9914 80957 26565 267413 54392 37946 6073 23509 30883 26277 30694
internal_count=396230 277327 118903 9914 80957 26565 267413 54392 37946 6073 23509 30883 26277 30694
is_linear=0
shrinkage=0.03


Tree=10
num_leaves=14
num_cat=0
split_feature=13 10 2 15 4 15 12 15 15 15 13 6 12
split_gain=0.00259722 0.000453895 0.000391448 0.000184462 0.000142679 9.77052e-05 7.67021e-05 9.16602e-05 4.33957e-05 3.23348e-05 2.32918e-05 2.78478e-05 5.19317e-07
threshold=-0.013065659371863802 -0.0042218910608778836 33.409273857552186 5.957241982512282 35.421123463372894 2.2185762904655193 -0.17887131864935399 13.227141579749999 2.8426596963964754 7.6187903604389691 0.0024237693724729913 -69.993644737615867 0.22117833671007062
decision_type=4 6 6 6 6 6 4 6 6 4 6 6 6
left_child=2 4 5 -4 10 -1 9 -8 -7 -3 11 -2 -9
right_child=1 6 3 -5 -6 8 7 12 -10 -11 -12 -13 -14
leaf_value=0 1.3888283766565714e-06 4.091559236469136e-07 0 6.6348548131346053e-05 3.3640973704399609e-06 0 -1.2085988748360098e-06 0 1.3768918194146305e-05 -1.7098303167614225e-06 -2.1601413628392421e-06 0 1.0711715659177561e-06
leaf_weight=433 18615 51379 552 508 31483 320 257714 5606 3616 7010 2166 9580 7552
leaf_count=433 18615 51379 552 508 31483 320 257714 5606 3616 7010 2166 9580 7552
internal_value=0 -3.66473e-07 2.05149e-05 4.42458e-05 1.91966e-06 1.1308e-05 -8.41436e-07 -1.05616e-06 1.28164e-05 0 0 6.20211e-07 7.89374e-07
internal_weight=0 391105 5429 1060 61844 4369 329261 270872 3936 58389 30361 28195 13158
internal_count=396534 391105 5429 1060 61844 4369 329261 270872 3936 58389 30361 28195 13158
is_linear=0
shrinkage=0.03


Tree=11
num_leaves=11
num_cat=0
split_feature=11 14 13 2 10 7 8 13 10 7
split_gain=0.00642018 0.00246549 0.000480141 0.000140599 0.000179657 0.000194126 0.00014688 4.68515e-05 1.37476e-05 1.01121e-05
threshold=-0.054707536400102313 0.9829893778912171 -0.0066830941487141266 13.924095277150391 -0.0003210624954951776 25.580866862182948 0.13291342098408046 0.0039841044849707316 0.0045123165739533551 -49.936443933119818
decision_type=4 6 4 6 6 6 6 6 6 4
left_child=1 -1 8 6 7 -6 9 -5 -2 -4
right_child=2 -3 3 4 5 -7 -8 -9 -10 -11
leaf_value=0.0001263249726160363 4.1576594807549922e-06 1.2876499759360765e-05 0 9.7256580205411021e-07 -1.5249079504476796e-06 7.6396641726112687e-07 1.9840116115238891e-07 -8.047179792056057e-07 0 -2.0512839218250535e-06
leaf_weight=489 21147 856 1797 108894 107783 38483 22678 5903 1127 86497
leaf_count=489 21147 856 1797 108894 107783 38483 22678 5903 1127 86497
internal_value=0 6.5385e-05 -2.22196e-07 -5.14241e-07 -7.20291e-08 -8.20145e-07 -1.41936e-06 7.505e-07 3.98198e-06 -2.00476e-06
internal_weight=0 1345 394309 372035 261063 146266 110972 114797 22274 88294
internal_count=395654 1345 394309 372035 261063 146266 110972 114797 22274 88294
is_linear=0
shrinkage=0.03


Tree=12
num_leaves=16
num_cat=0
split_feature=13 2 10 10 5 4 11 0 0 0 14 1 14 4 2
split_gain=0.00147551 0.000474673 0.000197107 0.000123015 0.00069955 0.00041093 0.000318265 0.000207665 0.000201575 0.000193652 8.51079e-05 7.91687e-05 5.42505e-05 2.55914e-05 2.30832e-05
threshold=-0.005550864313683338 12.284611092160473 -0.0036559944604095248 -0.00097363585274744767 1.3352152777796678 31.689491226409434 0.00088772930824371871 512.48050187003196 219.96288628282457 281.69867811540934 0.99980098130034356 918.4999123403619 0.99704642035050628 20.896204430009007 12.945671220861838
decision_type=4 6 6 4 6 4 6 6 6 6 6 4 4 6 6
left_child=1 -1 -3 5 8 -2 13 -8 12 14 -10 -11 -5 -6 -7
right_child=3 2 -4 4 6 9 7 -9 10 11 -12 -13 -14 -15 -16
leaf_value=0 -1.6241751578956794e-06 9.7310290180023112e-06 2.1383111701884217e-09 0 0 0 0 6.4192460063406171e-06 -1.9006736041485321e-06 8.6083102126122894e-07 -6.7327164460136319e-08 -3.1118990195288198e-06 -3.1002220337824507e-06 -2.7850935181016188e-06 3.8226186048345042e-06
leaf_weight=6921 56671 19335 5627 4031 757 1610 3547 18930 41431 33789 94997 4770 70689 4268 28577
leaf_count=6921 56671 19335 5627 4031 757 1610 3547 18930 41431 33789 94997 4770 70689 4268 28577
internal_value=0 6.20206e-06 8.13896e-06 -5.27973e-07 -9.38032e-07 1.32712e-07 3.39428e-06 5.13715e-06 -1.57338e-06 1.7992e-06 -7.34051e-07 0 -2.90507e-06 -1.41668e-06 3.6256e-06
internal_weight=0 31883 24962 364067 238650 125417 27502 22477 211148 68746 136428 38559 74720 5025 30187
internal_count=395950 31883 24962 364067 238650 125417 27502 22477 211148 68746 136428 38559 74720 5025 30187
is_linear=0
shrinkage=0.03


Tree=13
num_leaves=18
num_cat=0
split_feature=8 14 13 12 6 10 3 1 4 1 1 3 2 13 6 3 10
split_gain=0.000396809 0.000631559 0.00028208 0.000225886 0.000112667 0.000208235 0.000112511 0.000304083 9.44257e-05 4.69902e-05 0.000137838 2.65709e-05 2.50663e-05 8.25674e-05 1.96502e-05 1.74716e-05 9.74408e-06
threshold=-0.18998054246642179 0.99743815473798825 -0.0027891861249608962 -0.40754440624580773 -95.432504471077962 -0.010622127023821587 -0.20321059219246293 632.61027851816675 14.849222313107104 198.89037253579855 475.34661153927419 -0.091299815113740981 34.129495669307062 0.001662154963574126 -0.60818956704234006 0.009950248756220437 0.001172945318626849
decision_type=4 6 4 6 6 6 4 6 4 4 4 4 4 6 6 4 4
left_child=1 3 9 4 5 -1 -4 8 -8 14 15 -12 13 -3 -2 -11 -6
right_child=2 12 6 -5 16 -7 7 -9 -10 10 11 -13 -14 -15 -16 -17 -18
leaf_value=1.3231138520520283e-05 3.7735614861887677e-06 0 1.4241712382715566e-06 0 2.3666259249169682e-06 8.8588705194921498e-07 5.4772614142657408e-07 6.3156794288172062e-07 -1.6859707435190812e-06 3.3467060827429469e-06 0 -1.7347703484061702e-06 0 -3.9762357281845805e-06 0 0 0
leaf_weight=7412 12574 12611 14272 5861 9683 4976 7891 68863 206226 12340 6857 11131 3495 6885 588 4010 269
leaf_count=7412 12574 12611 14272 5861 9683 4976 7891 68863 206226 12340 6857 11131 3495 6885 588 4010 269
internal_value=0 2.41592e-06 -4.11403e-07 5.5066e-06 6.88306e-06 9.48391e-06 -7.89055e-07 -9.53694e-07 -1.53359e-06 1.63607e-06 4.84081e-07 -7.30125e-07 -7.22912e-07 -1.33165e-06 3.50147e-06 2.73718e-06 2.13741e-06
internal_weight=0 51192 344752 28201 22340 12388 297252 282980 214117 47500 34338 17988 22991 19496 13162 16350 9952
internal_count=395944 51192 344752 28201 22340 12388 297252 282980 214117 47500 34338 17988 22991 19496 13162 16350 9952
is_linear=0
shrinkage=0.03


Tree=14
num_leaves=16
num_cat=0
split_feature=14 10 6 6 12 9 15 15 9 2 10 2 12 12 12
split_gain=0.00332161 0.000310423 0.000157579 0.000122613 9.89613e-05 8.83064e-05 6.93872e-05 0.000129769 6.57857e-05 0.00028639 6.43835e-05 8.45087e-05 3.69662e-06 1.84489e-05 1.20969e-06
threshold=0.98534256843160306 0.0026155080112849746 -12.835523678648537 -148.91433615495143 -0.17000544944669735 -1.1230000000000897 1.5483737537386946 1.8662115411052003 12.951833333333186 24.342892407927163 -0.0090311246468169713 44.605654654797348 0.47027957067999898 0.47576170504118892 0.16141796061968086
decision_type=4 6 4 6 4 6 6 6 4 4 6 6 4 4 6
left_child=1 6 3 4 5 -2 -1 -8 12 -10 -5 -12 14 -14 -4
right_child=2 -3 8 10 -6 -7 7 -9 9 -11 11 -13 13 -15 -16
leaf_value=0 2.8570875416185472e-07 0 -7.3561653544317446e-07 1.8111004144822948e-06 0 5.5497471947939844e-06 0 3.0707212730860077e-05 0 -2.3659099870492022e-05 -7.0987410490037427e-07 1.4453848785061873e-06 0 -1.6594692393623398e-06 -1.0648772348399683e-07
leaf_weight=160 14803 210 107701 13156 6737 9305 103 3598 1484 655 115610 15697 589 35779 70911
leaf_count=160 14803 210 107701 13156 6737 9305 103 3598 1484 655 115610 15697 589 35779 70911
internal_value=0 2.68483e-05 -3.73555e-07 2.28853e-07 1.96676e-06 2.93992e-06 2.88503e-05 2.97517e-05 -9.2904e-07 -7.16805e-06 -3.84066e-08 -3.37973e-07 -7.97124e-07 -1.5009e-06 -5.69829e-07
internal_weight=0 4071 392427 175308 30845 24108 3861 3701 217119 2139 144463 131307 214980 36368 178612
internal_count=396498 4071 392427 175308 30845 24108 3861 3701 217119 2139 144463 131307 214980 36368 178612
is_linear=0
shrinkage=0.03


Tree=15
num_leaves=12
num_cat=0
split_feature=7 1 10 7 0 2 14 5 0 3 9
split_gain=0.00056849 0.000949712 0.000254125 0.00032594 0.000429298 0.000221872 0.00016639 0.000127852 0.000112863 4.95862e-05 1.09544e-06
threshold=-28.819837962896369 208.38634192647774 -0.0036929056938928553 35.359954548327842 489.2953345427955 18.01782567305175 0.99575089479273815 -0.62597122661129834 1154.7972611111088 -0.03790989929590597 -3.134166666666601
decision_type=4 4 6 6 6 4 6 6 6 6 6
left_child=1 -1 5 7 -5 10 -7 -4 -6 -3 -2
right_child=2 9 3 4 8 6 -8 -9 -10 -11 -12
leaf_value=1.4277142889371985e-05 0 1.8812700634979368e-06 -3.898219855303015e-06 -1.2735538794546801e-06 3.1925141554532665e-06 8.8570141565690293e-06 1.1592084400370041e-06 -9.2591018360582707e-07 1.6862348698907265e-05 0 -3.6529568338208167e-07
leaf_weight=6105 1687 24618 18121 15047 18039 5556 17501 256608 1368 17567 14174
leaf_count=6105 1687 24618 18121 15047 18039 5556 17501 256608 1368 17567 14174
internal_value=0 2.99298e-06 -4.76833e-07 -7.97947e-07 1.78581e-06 1.68876e-06 3.66525e-06 -1.17659e-06 4.93058e-06 1.00379e-06 -2.38954e-07
internal_weight=0 48290 348101 309183 34454 38918 23057 274729 19407 42185 15861
internal_count=396391 48290 348101 309183 34454 38918 23057 274729 19407 42185 15861
is_linear=0
shrinkage=0.03


Tree=16
num_leaves=16
num_cat=0
split_feature=10 10 14 1 7 1 8 5 5 12 12 2 5 1 1
split_gain=0.000927796 0.000496047 0.000306125 0.000222175 0.000217106 0.00113374 0.000209821 0.00018771 0.000135634 8.58348e-05 2.44498e-05 1.72523e-05 1.34669e-05 2.99994e-06 1.60879e-06
threshold=-0.0031160577898520611 -0.0094990648446553905 0.99876107106538492 288.71387748772565 22.558090519623622 704.65853465703697 0.47274982110044922 0.41567620103977282 0.10520156017722117 -0.43852365956156819 0.26301915301728546 26.9074815645026 1.0562852564119114 123.60844752553969 690.12683427130139
decision_type=6 6 6 6 6 6 6 6 6 4 6 4 6 6 6
left_child=1 2 3 -1 7 13 8 -2 -7 -3 11 -11 -9 -6 -15
right_child=4 9 -4 -5 5 6 -8 12 -10 10 -12 -13 -14 14 -16
leaf_value=1.4611568499475381e-05 -1.5288923116448907e-06 2.978547701031857e-06 0 4.289775784525181e-06 -4.6650963093698617e-06 0 0 0 8.8329332263472647e-06 0 -1.2183728321472694e-06 1.5855398987103555e-06 1.3209565466906631e-06 -1.0198780262699103e-06 0
leaf_weight=6005 204728 17746 4371 13045 3578 1486 2645 21766 15885 28407 4983 12089 13608 44466 1399
leaf_count=6005 204728 17746 4371 13045 3578 1486 2645 21766 15885 28407 4983 12089 13608 44466 1399
internal_value=0 2.80373e-06 6.68612e-06 8.33195e-06 -7.0558e-07 6.37864e-07 6.81091e-06 -1.1567e-06 8.02002e-06 1.12814e-06 7.61945e-08 6.05931e-07 5.73326e-07 -1.55798e-06 -9.88361e-07
internal_weight=0 86646 23421 19050 309561 69459 20016 240102 17371 63225 45479 40496 35374 49443 45865
internal_count=396207 86646 23421 19050 309561 69459 20016 240102 17371 63225 45479 40496 35374 49443 45865
is_linear=0
shrinkage=0.03


Tree=17
num_leaves=23
num_cat=0
split_feature=10 10 11 2 0 13 2 2 5 3 14 6 0 14 10 12 12 15 15 4 4 14
split_gain=0.000429601 0.00248021 0.00345664 0.000594766 0.000377803 0.00067926 0.000685504 0.000358697 0.000284612 0.000177489 9.67349e-05 7.7903e-05 6.55261e-05 4.10333e-05 3.02466e-05 2.50823e-05 1.54769e-05 1.04465e-05 2.7484e-05 1.5956e-05 7.2714e-06 2.53627e-07
threshold=-0.00089345852860405384 -0.019956967441640258 -0.041481987365468612 13.811400942083752 690.15659142599054 6.8992426754852491e-05 30.676519012750564 14.927484596538831 0.26008856205460523 -0.01604630399628788 0.99882340254292401 46.259740857166946 227.37446780144776 1.0026018709989184 -0.0015452683264827133 -0.23675486027109335 -0.063524894987110322 4.0871675494370487 1.5406970458667837 52.114534828100616 26.890729318945802 0.99948514893204765
decision_type=6 6 6 6 6 6 6 4 6 6 6 4 6 6 6 4 4 4 6 6 4 6
left_child=1 2 3 -1 9 15 11 12 -8 16 14 -7 21 -12 -9 -6 -2 18 -11 -19 -18 -3
right_child=4 7 -4 -5 5 6 8 10 -10 17 13 -13 -14 -15 -16 -17 20 19 -20 -21 -22 -23
leaf_value=0 9.0237545162384318e-07 1.5999612215046475e-07 0 5.2915670292947697e-05 0 0 0 2.8184579505264936e-06 1.9680690089162624e-05 -2.2823807183911277e-07 9.4188805586198055e-07 2.7261813935189987e-06 -1.9787964176818298e-06 -9.4323148420628682e-07 0 -3.750331481835183e-06 0 -3.7506027602657324e-06 -1.8504013582991817e-06 0 -5.738795313303619e-07 0
leaf_weight=381 16296 8915 2753 2190 4955 6318 1093 50905 3488 38635 36219 24637 36981 8490 5772 11858 17212 19416 67483 6887 21867 3926
leaf_count=381 16296 8915 2753 2190 4955 6318 1093 50905 3488 38635 36219 24637 36981 8490 5772 11858 17212 19416 67483 6887 21867 3926
internal_value=0 1.41895e-06 2.16286e-05 4.66627e-05 -5.86329e-07 1.54266e-06 4.08035e-06 6.07892e-07 1.54617e-05 -1.25968e-06 1.69958e-06 1.91061e-06 -1.31257e-06 2.484e-07 2.57962e-06 -2.9288e-06 0 -1.8592e-06 -1.40118e-06 -3.13659e-06 -1.29759e-07 0
internal_weight=0 156532 5324 2571 240145 52349 35536 151208 4581 187796 101386 30955 49822 44709 56677 16813 55375 132421 106118 26303 39079 12841
internal_count=396677 156532 5324 2571 240145 52349 35536 151208 4581 187796 101386 30955 49822 44709 56677 16813 55375 132421 106118 26303 39079 12841
is_linear=0
shrinkage=0.03


Tree=18
num_leaves=13
num_cat=0
split_feature=10 2 7 15 7 12 13 11 14 8 12 12
split_gain=0.00104512 0.000381985 0.000308465 0.000876118 0.000358579 0.000275272 0.000182279 0.00015125 8.7321e-05 2.25701e-05 1.61323e-05 9.19038e-07
threshold=-0.012389395088113476 17.67964009024146 37.099730965732881 7.6187903604389691 0.3264817984325048 -0.93397211932207946 0.0041066363435502311 -0.0041497485461357052 1.0006370148808765 -0.044505157637423923 0.21123688190662906 -0.018918378819887668
decision_type=6 6 6 6 4 6 4 6 6 4 6 4
left_child=1 -1 4 -4 9 -3 8 -5 -6 10 -2 -11
right_child=2 5 3 7 6 -7 -8 -9 -10 11 -12 -13
leaf_value=0 6.8663592978566998e-07 1.8580597383936486e-05 0 0 -1.9334700122745673e-06 3.0943270966760697e-06 -4.0806644672657893e-06 1.5043988714205105e-05 -1.6233505690968328e-07 -1.150627888643121e-07 0 0
leaf_weight=5085 96297 4172 25900 109 60959 5431 27290 4910 79353 62473 5508 18560
leaf_count=5085 96297 4172 25900 109 60959 5431 27290 4910 79353 62473 5508 18560
internal_value=0 7.83385e-06 -3.20178e-07 2.4596e-06 -6.08251e-07 1.13865e-05 -1.62358e-06 1.39391e-05 -1.03873e-06 2.40435e-07 5.5077e-07 0
internal_weight=0 14688 381359 30919 350440 9603 167602 5019 140312 182838 101805 81033
internal_count=396047 14688 381359 30919 350440 9603 167602 5019 140312 182838 101805 81033
is_linear=0
shrinkage=0.03


Tree=19
num_leaves=19
num_cat=0
split_feature=13 0 4 11 1 9 8 0 6 10 6 8 10 15 15 15 8 10
split_gain=0.000472786 0.000421273 0.000324261 0.00108293 0.000222019 0.000170708 0.000150776 0.000338734 0.000137498 6.62393e-05 4.65061e-05 4.62945e-05 3.84379e-05 1.81866e-05 1.27032e-05 7.38569e-05 1.15476e-05 9.97023e-06
threshold=-0.0012703813091107948 296.61409862826702 29.016762500924361 -0.019419782267239834 283.10206827396217 0.42333333333335338 0.056785712451745372 746.66270833333522 -46.990443872853227 0.0051562171345373156 56.329492141641303 0.028333967008572443 -0.0088892781968301655 2.5627117310837106 1.1292039137366545 11.119140053022152 -0.21526866234002376 0.0071078126565151285
decision_type=4 6 6 6 4 4 6 6 4 6 6 6 6 6 6 6 6 4
left_child=2 8 4 -4 11 10 16 -8 -2 12 17 13 -10 -1 -5 -16 -7 -3
right_child=1 5 3 14 -6 6 7 -9 9 -11 -12 -13 -14 -15 15 -17 -18 -19
leaf_value=4.871933551003307e-06 0 -1.3166191980836159e-06 1.2387383813122037e-05 0 -1.7678249257977425e-06 -1.3602407278308272e-06 0 5.371557142299649e-06 0 -5.1221889752611887e-06 0 0 -2.029509191397362e-06 0 1.7407102070958113e-06 -6.5788472634543036e-07 0 0
leaf_weight=6470 14972 55375 9582 7261 33354 5615 30034 19206 1443 15422 14140 5595 80078 7443 51033 4590 33677 1293
leaf_count=6470 14972 55375 9582 7261 33354 5615 30034 19206 1443 15422 14140 5595 80078 7443 51033 4590 33677 1293
internal_value=0 -7.25069e-07 1.50241e-06 2.81615e-06 -1.48223e-08 1.80499e-07 1.13306e-06 2.25033e-06 -2.14839e-06 -2.56999e-06 -7.98659e-07 2.21343e-06 -1.90306e-06 3.14061e-06 1.11886e-06 1.2731e-06 0 -1.23919e-06
internal_weight=0 271255 125328 72466 52862 159340 88532 49240 111915 96943 70808 19508 81521 13913 62884 55623 39292 56668
internal_count=396583 271255 125328 72466 52862 159340 88532 49240 111915 96943 70808 19508 81521 13913 62884 55623 39292 56668
is_linear=0
shrinkage=0.03


Tree=20
num_leaves=15
num_cat=0
split_feature=14 4 13 15 5 3 3 13 1 1 0 3 6 1
split_gain=0.00107419 0.000331358 0.00021974 0.000198058 0.000670011 0.000171385 0.000119398 0.000111363 0.000178199 3.70593e-05 3.5921e-05 1.5613e-05 1.22855e-05 1.09635e-05
threshold=0.99518894355783638 26.890729318945802 0.0070785882476211695 7.2148859189599133 -0.019638354699964108 -0.0045248868778335815 -0.10185185185189939 -0.0012233267750072954 196.58654689340361 453.79149772072742 562.53420161816928 -0.034408602150539695 -91.469969049146627 810.91735467261253
decision_type=4 6 4 6 6 6 6 6 6 4 4 4 6 6
left_child=1 11 3 7 10 -6 -4 9 -9 -2 -5 13 -3 -1
right_child=2 12 6 4 5 -7 -8 8 -10 -11 -12 -13 -14 -15
leaf_value=2.2578603092130037e-06 9.1560542979884256e-07 8.0332189309505008e-06 0 0 0 8.4255274954034193e-06 -4.6610481666148048e-06 -2.6000209142880547e-06 -3.5688540363640027e-07 -1.5182383932508843e-07 -2.8965351821494273e-06 -1.5339347068589233e-07 2.2988784398144077e-06 0
leaf_weight=4661 48068 17772 2179 2192 7417 11243 16761 46613 178638 30118 12569 6256 9330 1684
leaf_count=4661 48068 17772 2179 2192 7417 11243 16761 46613 178638 30118 12569 6256 9330 1684
internal_value=0 4.72661e-06 -4.73517e-07 -2.48599e-07 1.84815e-06 5.87454e-06 -3.68146e-06 -5.28982e-07 -8.87686e-07 3.12583e-07 -2.22583e-06 0 6.61288e-06 1.48011e-06
internal_weight=0 39703 355798 336858 33421 18660 18940 303437 225251 78186 14761 12601 27102 6345
internal_count=395501 39703 355798 336858 33421 18660 18940 303437 225251 78186 14761 12601 27102 6345
is_linear=0
shrinkage=0.03


Tree=21
num_leaves=18
num_cat=0
split_feature=10 9 12 4 0 14 11 6 12 1 11 11 12 1 11 6 13
split_gain=0.0010884 0.000341929 0.000145192 0.000133066 0.000317632 0.000406888 0.0004281 0.000336353 0.00011907 0.000268494 5.6392e-05 4.60361e-05 3.55785e-05 2.18887e-05 2.76997e-06 1.83625e-06 1.10988e-06
threshold=-0.013366004436026126 -1.3504481079999946 -0.87004511680276997 35.421123463372894 606.34307500000352 1.0017931656059367 0.0042469947067380219 -43.284468132815462 -0.26344092960485782 222.92107194304893 0.0022168394273932072 0.0058455958935490424 0.4464326589040391 302.31364582393104 -0.0011131290571209436 -29.566723140610033 0.00037836437217297003
decision_type=6 6 6 6 4 6 6 6 4 4 6 6 4 4 6 6 4
left_child=1 2 -1 8 7 16 -7 10 9 15 -5 14 -9 -11 -10 -2 -6
right_child=3 -3 -4 4 5 6 -8 12 11 13 -12 -13 -14 -15 -16 -17 -18
leaf_value=1.4607841940907139e-05 4.4220449309006318e-06 0 0 2.5546479289796113e-06 0 0 1.3613111823507493e-05 -7.9585970870548372e-07 -1.7061773552207338e-06 0 0 0 -3.5085266446582946e-06 -1.1224982059162209e-06 -6.8638585494653744e-07 0 4.6514430034148284e-07
leaf_weight=6617 12669 3381 2676 31648 16381 4679 5784 65066 64589 3549 7736 44865 11307 24677 83752 1399 5350
leaf_count=6617 12669 3381 2676 31648 16381 4679 5784 65066 64589 3549 7736 44865 11307 24677 83752 1399 5350
internal_value=0 8.76579e-06 1.17429e-05 -1.53582e-07 4.96911e-07 3.15713e-06 8.10203e-06 -1.13404e-07 -6.25944e-07 6.12619e-07 1.98891e-06 -9.74713e-07 -1.39395e-06 -6.35377e-07 -1.23155e-06 4.18243e-06 8.55498e-08
internal_weight=0 12674 9293 383451 147951 32194 10463 115757 235500 42294 39384 193206 76373 28226 148341 14068 21731
internal_count=396125 12674 9293 383451 147951 32194 10463 115757 235500 42294 39384 193206 76373 28226 148341 14068 21731
is_linear=0
shrinkage=0.03


Tree=22
num_leaves=16
num_cat=0
split_feature=10 13 1 9 6 5 1 5 5 5 1 5 5 7 7
split_gain=0.000701165 0.000242118 0.000638037 0.000138006 8.75699e-05 8.54658e-05 7.42681e-05 4.79434e-05 4.45974e-05 1.56225e-05 1.41716e-05 1.22697e-06 4.43006e-06 2.17995e-07 1.69743e-06
threshold=-0.0038855571970196367 -0.0015316762839385873 271.73595035052296 1.0159217708333304 -83.685103204704092 0.060105555236901871 452.80078669469168 0.26008856205460523 0.53873612772673607 3.1336495726557705 855.41483241031381 -0.15328133770170635 0.03897446024461005 -23.451168757051345 -10.467113419930008
decision_type=6 6 6 6 4 6 6 6 6 6 6 6 6 6 6
left_child=1 2 -1 4 11 -5 -4 -7 -6 -9 -8 -2 -13 -3 -15
right_child=3 13 6 5 8 7 10 9 -10 -11 -12 12 -14 14 -16
leaf_value=8.4358947364139225e-06 0 1.9330724654151657e-07 -8.8368600575279424e-07 -9.8527920636113617e-07 -1.3914793952460413e-06 0 2.3157323675668026e-06 1.8668253322905413e-06 0 0 0 5.5356082632777292e-07 0 0 -4.2096580102568151e-07
leaf_weight=18142 17856 5005 6644 15817 176207 5811 17318 38522 24359 6846 8259 16613 21957 7962 8670
leaf_count=18142 17856 5005 6644 15817 176207 5811 17318 38522 24359 6846 8259 16613 21957 7962 8670
internal_value=0 2.68102e-06 3.8213e-06 -5.91898e-07 -9.29903e-07 4.80767e-07 7.57189e-07 1.22695e-06 -1.22513e-06 1.62766e-06 1.76989e-06 0 1.69201e-07 0 -2.33833e-08
internal_weight=0 72000 50363 323988 256992 66996 32221 51179 200566 45368 25577 56426 38570 21637 16632
internal_count=395988 72000 50363 323988 256992 66996 32221 51179 200566 45368 25577 56426 38570 21637 16632
is_linear=0
shrinkage=0.03


Tree=23
num_leaves=16
num_cat=0
split_feature=14 4 10 12 7 0 0 10 9 0 5 8 11 0 10
split_gain=0.000866133 0.000146476 0.000140298 9.688e-05 0.000111194 0.000136206 0.000130396 0.000102905 0.000619281 0.000159792 0.000134197 8.46575e-05 2.17566e-05 2.0909e-05 1.41608e-05
threshold=0.99451527813197005 30.060677234753985 0.00064073804494796654 0.48616997799235678 23.317152703670271 985.37204166666709 593.19570611254198 -0.0047265869840814956 2.7981666666665892 225.36278928255078 1.8494748931627785 0.026340783305193391 0.016335168390976328 134.53692400950715 -0.0022280141140965672
decision_type=4 6 6 6 6 6 6 6 6 4 6 6 6 6 6
left_child=1 14 12 7 13 6 -6 9 10 -2 -9 -10 -3 -5 -1
right_child=3 2 -4 4 5 -7 -8 8 11 -11 -12 -13 -14 -15 -16
leaf_value=1.5012407537565565e-06 4.451981042676213e-06 7.7549120054346722e-06 0 0 -3.3950734274049607e-06 5.2163658953083617e-06 4.6362266399854347e-07 -7.1118049258258887e-07 0 0 2.8736199423601766e-06 1.0431893436334091e-05 0 -4.7620236289608615e-06 0
leaf_weight=10692 10762 16989 1852 3670 13199 3172 6580 277993 1860 22985 8279 5234 118 10263 2633
leaf_count=10692 10762 16989 1852 3670 13199 3172 6580 277993 1860 22985 8279 5234 118 10263 2633
internal_value=0 4.83736e-06 6.79694e-06 -2.77738e-07 -1.75713e-06 0 -1.35316e-06 -6.50627e-08 -2.888e-07 1.43535e-06 -5.55091e-07 8.34039e-06 7.65372e-06 -3.91844e-06 9.2312e-07
internal_weight=0 32284 18959 363997 36884 22951 19779 327113 293366 33747 286272 7094 17107 13933 13325
internal_count=396281 32284 18959 363997 36884 22951 19779 327113 293366 33747 286272 7094 17107 13933 13325
is_linear=0
shrinkage=0.03


Tree=24
num_leaves=14
num_cat=0
split_feature=10 0 5 1 11 14 14 12 9 2 14 6 6
split_gain=0.000745031 0.000517829 0.000738879 0.000416228 0.000392361 0.000207239 0.000212578 0.000118244 0.000112426 5.10117e-05 7.98004e-06 2.44233e-06 2.72816e-06
threshold=-0.0093366550300700932 1054.7359499999955 0.029817325010185417 1090.139356141239 0.0028624610220081901 0.99805869347241571 1.0041061841144721 -0.099581798806031005 -0.22133333333330538 31.144227287368558 1.0003959969238778 -41.177049986753978 -238.80558439265857
decision_type=6 6 6 6 6 4 4 4 6 4 6 6 6
left_child=3 5 11 7 -4 9 10 -1 -6 -2 -7 12 -3
right_child=1 2 4 -5 8 6 -8 -9 -10 -11 -12 -13 -14
leaf_value=7.5567239805071205e-06 0 0 0 -4.6751074859318365e-06 0 -9.3907128369589553e-07 -3.1687222804903679e-06 0 1.8015186730920456e-05 1.9348687592107627e-06 -2.7422787606492694e-07 0 -2.0836903964823505e-06
leaf_weight=18293 58128 88 3437 1871 1437 117650 42002 3999 4530 18655 119814 3397 2959
leaf_count=18293 58128 88 3437 1871 1437 117650 42002 3999 4530 18655 119814 3397 2959
internal_value=0 -4.2477e-07 4.76415e-06 5.0021e-06 1.03958e-05 -6.97734e-07 -1.09651e-06 6.48749e-06 1.5148e-05 5.58326e-07 -6.66792e-07 -1.12805e-06 -1.84693e-06
internal_weight=0 372097 15848 24163 9404 356249 279466 22292 5967 76783 237464 6444 3047
internal_count=396260 372097 15848 24163 9404 356249 279466 22292 5967 76783 237464 6444 3047
is_linear=0
shrinkage=0.03


Tree=25
num_leaves=17
num_cat=0
split_feature=13 2 7 2 7 7 11 5 7 12 6 5 6 8 12 11
split_gain=0.000806671 0.000459341 0.000253062 0.000156561 0.000249834 0.00012236 0.000256478 0.000683795 0.000249374 6.20851e-05 6.09511e-05 9.78705e-06 9.69575e-06 9.5714e-06 8.38812e-06 5.75862e-07
threshold=-0.0053448935604558335 13.511120785932748 -4.9739775127180321 26.990586173861903 53.336100114266536 22.192029565751636 0.00055536175233415264 1.67797542735093 -0.50213619583039992 0.21714096350484716 52.593426227754897 -0.069481030249164619 -165.18819287651021 0.034905142848689001 -0.48630390622866332 0.00030286502961294467
decision_type=6 6 6 6 6 6 4 6 6 6 6 6 4 6 6 6
left_child=1 12 -3 4 9 8 15 -8 -5 14 -11 -10 -1 -6 -2 -7
right_child=3 2 -4 5 13 6 7 -9 11 10 -12 -13 -14 -15 -16 -17
leaf_value=0 0 7.5991355719081813e-06 0 1.5632941898851862e-06 0 -1.9230419933242749e-06 0 1.9055525863946321e-05 0 0 -2.5102874761880623e-06 -1.7089231649532113e-06 -1.113018356185913e-06 4.0706328218001564e-06 -6.8941157243256476e-07 0
leaf_weight=2109 3730 22787 1804 50173 119 2680 8967 2675 9744 9605 46906 37877 7042 8275 180936 168
leaf_count=2109 3730 22787 1804 50173 119 2680 8967 2675 9744 9605 46906 37877 7042 8275 180936 168
internal_value=0 4.47197e-06 6.65206e-06 -3.76057e-07 -8.17997e-07 4.72643e-07 3.05448e-06 5.5343e-06 0 -1.04487e-06 -2.06394e-06 -1.46216e-06 0 3.9127e-06 -6.51773e-07 -1.81611e-06
internal_weight=0 33742 24591 361855 249571 112284 14490 11642 97794 241177 56511 47621 9151 8394 184666 2848
internal_count=395597 33742 24591 361855 249571 112284 14490 11642 97794 241177 56511 47621 9151 8394 184666 2848
is_linear=0
shrinkage=0.03


Tree=26
num_leaves=13
num_cat=0
split_feature=14 1 0 7 3 10 7 11 9 11 10 0
split_gain=0.000653629 0.000205517 0.000126009 0.000597404 0.000133247 0.000110781 0.000220625 8.67195e-05 9.32731e-05 9.45922e-05 5.20569e-05 1.47076e-05
threshold=0.99733969444503157 192.84280532679577 201.65303335392682 -36.132589719805473 -0.14671207066960845 -0.0040935294430406869 1.3289544757558531 0.014228408163325349 -0.59633333333334082 0.0063323660423794236 -0.0035108856493022804 208.3994389949105
decision_type=4 6 4 6 4 6 4 6 6 6 6 6
left_child=2 5 3 -1 -4 -2 -7 8 -3 -10 -5 -9
right_child=1 7 4 10 -6 6 -8 11 9 -11 -12 -13
leaf_value=1.7729549921089005e-05 0 -1.8952238117216813e-06 3.9268657314585421e-06 3.4520770152469115e-06 1.2981551738404685e-07 0 -4.0736908875846833e-06 0 -3.9577496575452897e-07 1.3417067005707259e-06 0 1.9504265387918144e-06
leaf_weight=3085 5912 31955 14569 8447 42765 18027 35333 639 176291 32298 9276 17433
leaf_count=3085 5912 31955 14569 8447 42765 18027 35333 639 176291 32298 9276 17433
internal_value=0 -5.87332e-07 2.47481e-06 4.83524e-06 1.35639e-06 -2.20471e-06 -2.69587e-06 -1.5863e-07 -3.61681e-07 -5.48213e-08 1.74275e-06 1.71386e-06
internal_weight=0 317888 78142 20808 57334 59272 53360 258616 240544 208589 17723 18072
internal_count=396030 317888 78142 20808 57334 59272 53360 258616 240544 208589 17723 18072
is_linear=0
shrinkage=0.03


Tree=27
num_leaves=16
num_cat=0
split_feature=13 4 1 14 13 2 10 14 14 10 8 7 9 7 1
split_gain=0.000550488 0.000218258 0.000202264 0.000253657 0.000216167 0.000133731 0.000108906 5.46314e-05 3.56126e-05 3.48378e-05 3.08076e-05 3.99777e-05 2.39799e-05 2.19941e-05 2.20163e-06
threshold=-0.0034431416413399454 29.016762500924361 594.68423766792682 0.99941420318970797 0.0053712116327820879 25.769024131140892 0.0025710912721099897 1.0014503987374319 1.0024900101032979 -4.4340578043515024e-05 -0.22858668975755733 -32.854475291466208 0.091666666666625943 5.9078868704104108 224.41448064323924
decision_type=4 6 6 4 6 6 4 4 6 6 6 6 4 6 4
left_child=1 14 4 -4 6 7 8 -5 -2 -6 -3 -12 -7 -13 -1
right_child=2 10 3 5 9 12 -8 -9 -10 -11 11 13 -14 -15 -16
leaf_value=4.8751601322459042e-07 0 6.1192044269494515e-06 -1.6655018832674821e-06 0 0 0 -1.9850678487858929e-06 1.514407723697656e-06 -1.4904789461505426e-06 -4.7114387728670161e-06 0 3.2539823812889513e-06 4.9051515224318049e-06 0 0
leaf_weight=8335 158200 14573 26163 23766 2698 2539 45832 29778 17534 16605 6901 13914 12907 945 15859
leaf_count=8335 158200 14573 26163 23766 2698 2539 45832 29778 17534 16605 6901 13914 12907 945 15859
internal_value=0 2.61266e-06 -4.94802e-07 5.80589e-07 -9.81901e-07 1.64981e-06 -6.35557e-07 5.97716e-07 -1.98227e-07 -4.17986e-06 4.09601e-06 2.05133e-06 4.32538e-06 2.92969e-06 0
internal_weight=0 60527 336022 95153 240869 68990 221566 53544 175734 19303 36333 21760 15446 14859 24194
internal_count=396549 60527 336022 95153 240869 68990 221566 53544 175734 19303 36333 21760 15446 14859 24194
is_linear=0
shrinkage=0.03


Tree=28
num_leaves=18
num_cat=0
split_feature=12 15 2 10 14 0 12 11 0 7 0 10 13 4 10 6 4
split_gain=0.00283122 0.000457712 0.000767742 0.000414356 0.000202518 0.000316879 0.000491813 0.00035969 0.000166275 0.000154459 0.000143768 0.000103169 8.18181e-05 3.2181e-05 1.77494e-06 1.0988e-05 8.83912e-06
threshold=-1.6993896704338649 2.628367169759493 13.206044844957992 -0.0014527369111074402 0.99789670985379597 718.58003472222674 0.06194843643700932 -0.0028348300033270595 431.14966111111386 -2.234152515602235 239.8677718446107 0.0014718535878061646 0.0057203358824825801 44.790858524268891 -0.00061307663299649793 -78.415745068831171 33.130933737939948
decision_type=4 6 6 6 4 6 6 6 4 4 4 6 4 6 6 6 6
left_child=1 -1 -3 -4 8 9 13 -8 11 10 -6 -2 -11 -7 15 -10 -16
right_child=4 2 3 -5 5 6 7 -9 14 12 -12 -13 -14 -15 16 -17 -18
leaf_value=0 2.7788019667785492e-06 0 4.9564502254531884e-05 0 1.601976954465896e-06 -2.2652073947014537e-06 -1.0251819642376467e-07 5.5677434471785772e-06 -6.8185571006752933e-07 -1.2438213287833472e-06 -1.0563123244981138e-06 0 -3.911174339749753e-06 0 -7.5740051714558558e-08 0 1.478357558833384e-06
leaf_weight=339 42055 559 1628 114 30091 18868 8561 25492 25137 148895 46747 5424 19282 3561 6066 9386 3622
leaf_count=339 42055 559 1628 114 30091 18868 8561 25492 25137 148895 46747 5424 19282 3561 6066 9386 3622
internal_value=0 3.0936e-05 3.57321e-05 4.56314e-05 -2.23293e-07 -6.29345e-07 1.27559e-06 3.70184e-06 9.4829e-07 -1.12971e-06 0 2.20999e-06 -1.63887e-06 -1.73936e-06 -6.74498e-08 -2.28244e-07 0
internal_weight=0 2640 2301 1742 393187 301497 56482 34053 91690 245015 76838 47479 168177 22429 44211 34523 9688
internal_count=395827 2640 2301 1742 393187 301497 56482 34053 91690 245015 76838 47479 168177 22429 44211 34523 9688
is_linear=0
shrinkage=0.03


Tree=29
num_leaves=14
num_cat=0
split_feature=4 12 14 14 10 5 15 15 8 10 8 8 8
split_gain=0.000270126 0.000230945 0.000157572 0.000261917 0.000103178 6.05507e-05 5.11396e-05 4.72297e-05 3.90686e-05 3.61555e-05 2.12075e-05 5.06386e-06 2.80787e-06
threshold=39.188376391234179 -0.1980416769704729 0.99489591816035539 0.98801809433739229 -0.0014000476729845951 -0.059205481934185393 0.87869122314903769 1.7603184147497291 0.036538069302483565 0.00048081623916710654 0.19905783161580518 -0.11495626866293061 1.0000000180025095e-35
decision_type=6 6 4 6 6 6 6 6 6 6 6 6 6
left_child=2 9 3 -1 6 -4 -3 -8 11 12 -10 -6 -2
right_child=1 4 5 -5 8 -7 7 -9 10 -11 -12 -13 -14
leaf_value=8.6337186739122057e-06 4.1344861827266366e-06 0 -1.4361999242509617e-06 0 0 -2.8347955493542609e-07 0 3.1522197924040664e-06 0 0 1.3317649207230653e-06 -1.1851573217256948e-06 0
leaf_weight=4002 23886 2081 94238 19237 2320 151412 6034 18431 24103 4573 11240 29764 4497
leaf_count=4002 23886 2081 94238 19237 2320 151412 6034 18431 24103 4573 11240 29764 4497
internal_value=0 1.15774e-06 -5.20975e-07 1.64299e-06 2.23853e-07 -7.86764e-07 1.88795e-06 2.39764e-06 -2.08883e-07 3.36537e-06 1.55263e-07 -1.0775e-06 3.78111e-06
internal_weight=0 126929 268889 23239 93973 245650 26546 24465 67427 32956 35343 32084 28383
internal_count=395818 126929 268889 23239 93973 245650 26546 24465 67427 32956 35343 32084 28383
is_linear=0
shrinkage=0.03


Tree=30
num_leaves=15
num_cat=0
split_feature=5 14 11 4 1 10 11 1 4 4 5 3 10 1
split_gain=0.000280702 0.000509821 0.000514325 0.000248618 0.000201144 0.000124174 0.000117657 0.00011441 0.000310146 0.00010622 5.53193e-05 8.53836e-05 4.20067e-06 4.62627e-07
threshold=1.2400065443040378 0.99767719442345715 -0.021156452208291588 23.956985930811829 405.6292210685998 0.00071250796298240402 -0.010810397461658848 87.750109220839903 32.999134394059332 37.285635921459679 0.64601530869862256 0.28873754221232067 -0.0057642894924582752 470.13774343192676
decision_type=6 4 6 6 4 6 6 4 6 6 6 6 6 6
left_child=1 2 3 -1 5 -4 13 8 -3 -8 11 -9 -6 -2
right_child=6 7 4 -5 12 -7 9 10 -10 -11 -12 -13 -14 -15
leaf_value=0 0 1.5524877933129226e-05 3.2008074949154027e-06 1.0411292154542103e-05 0 0 1.2213319819337608e-06 -7.8754422813075828e-07 0 6.5399323090816007e-06 8.2870419646707483e-08 -4.4162062220152018e-06 -6.904059565559777e-07 -4.3307206365047807e-07
leaf_weight=1067 156 1387 33403 8786 12617 5609 20669 242628 2468 10100 24289 8239 22193 2218
leaf_count=1067 156 1387 33403 8786 12617 5609 20669 242628 2468 10100 24289 8239 22193 2218
internal_value=0 -4.58261e-08 1.96221e-06 8.59967e-06 8.72915e-07 2.43058e-06 2.80838e-06 -7.01804e-07 3.7984e-06 3.45496e-06 -8.19394e-07 -9.66544e-07 -4.41931e-07 0
internal_weight=0 362686 83675 9853 73822 39012 33143 279011 3855 30769 275156 250867 34810 2374
internal_count=395829 362686 83675 9853 73822 39012 33143 279011 3855 30769 275156 250867 34810 2374
is_linear=0
shrinkage=0.03


Tree=31
num_leaves=12
num_cat=0
split_feature=13 3 12 2 5 5 15 15 15 5 12
split_gain=0.000713455 0.000106047 0.000135455 8.59766e-05 0.000193313 0.000105883 5.1152e-05 0.000128584 6.09893e-05 3.27308e-05 9.22129e-06
threshold=-0.010161245008606564 -0.12275641025640598 1.1922922603910038 25.93335034243783 0.61304311310323112 2.2953044871844104 1.0853682638682096 3.2878985285201039 3.8989594885825216 0.85922061966078911 0.46078237960087703
decision_type=4 6 6 6 6 6 6 6 6 6 6
left_child=6 10 3 5 -5 -3 -1 -8 -9 -4 -2
right_child=1 2 9 4 -6 -7 7 8 -10 -11 -12
leaf_value=0 1.1528134331510289e-06 -8.4943944664979605e-07 0 0 4.1417836124362636e-06 2.2042094290829548e-06 0 0 1.1202090864308611e-05 -7.5190142523213033e-06 0
leaf_weight=195 44906 210154 2252 103306 10688 8282 2497 602 6721 3216 3692
leaf_count=195 44906 210154 2252 103306 10688 8282 2497 602 6721 3216 3692
internal_value=0 -1.97753e-07 -4.18476e-07 -2.93364e-07 2.8713e-07 -6.64972e-07 7.91158e-06 8.27786e-06 1.03769e-05 -5.27963e-06 1.02823e-06
internal_weight=0 386496 337898 332430 113994 218436 10015 9820 7323 5468 48598
internal_count=396511 386496 337898 332430 113994 218436 10015 9820 7323 5468 48598
is_linear=0
shrinkage=0.03


Tree=32
num_leaves=17
num_cat=0
split_feature=14 11 0 8 0 5 1 2 10 11 0 0 3 7 4 3
split_gain=0.000312666 0.0010045 0.000266916 0.000241991 0.000189444 0.000170534 0.000351582 8.75836e-05 7.5317e-05 5.39492e-05 3.40443e-05 5.27637e-05 1.37201e-05 1.30021e-05 5.50443e-05 1.04106e-06
threshold=0.9986780527101824 -0.024548468605048477 453.8328886082648 -0.45965810730168183 746.66270833333522 0.30248824786602319 640.27934878944893 48.375096415538138 0.0023188893455020729 0.0019503255468706696 604.31575019235027 224.08463153916867 -0.001440922190198371 31.053004660911267 54.154405171925696 -0.13281250000018108
decision_type=4 4 4 6 4 6 6 6 6 6 6 6 4 6 6 4
left_child=1 3 8 -1 -4 13 10 -8 12 -6 11 -7 -3 14 -2 -10
right_child=5 2 4 -5 9 6 7 -9 15 -11 -12 -13 -14 -15 -16 -17
leaf_value=1.6960360274977135e-05 -1.4076633271077893e-06 2.8505099236271154e-06 0 7.573486931917174e-07 -4.4404116895823837e-06 -3.4650158142988801e-06 2.0186831203952705e-06 1.5565070925416857e-05 0 0 0 -2.6987289612868992e-07 5.8540818722838569e-07 0 0 -4.3345067242794451e-07
leaf_weight=4481 149817 33077 30372 3719 14078 10855 35444 865 755 6822 2688 33829 24766 8791 30322 4985
leaf_count=4481 149817 33077 30372 3719 14078 10855 35444 865 755 6822 2688 33829 24766 8791 30322 4985
internal_value=0 1.22717e-06 3.6707e-07 1.14425e-05 -1.06874e-06 -5.93673e-07 4.08072e-07 2.75534e-06 1.76078e-06 -3.31044e-06 -1.07444e-06 -1.38186e-06 2.14005e-06 -1.11676e-06 -1.17174e-06 0
internal_weight=0 123055 114855 8200 51272 272611 83681 36309 63583 20900 47372 44684 57843 188930 180139 5740
internal_count=395666 123055 114855 8200 51272 272611 83681 36309 63583 20900 47372 44684 57843 188930 180139 5740
is_linear=0
shrinkage=0.03


Tree=33
num_leaves=21
num_cat=0
split_feature=10 14 4 0 8 9 7 8 7 1 13 15 3 15 9 13 6 15 9 1
split_gain=0.000415034 0.000336405 8.82644e-05 0.000301207 0.000336063 0.000154684 0.000233187 0.000101292 6.8295e-05 5.48464e-05 4.42111e-05 2.67486e-05 1.4413e-05 1.28218e-05 1.17954e-05 7.17216e-06 4.85194e-06 2.53733e-06 7.78645e-07 6.33276e-06
threshold=-0.0068570327057622107 0.9932028320570957 33.809930707505146 489.2953345427955 0.040423290276583888 0.094666666666640267 -0.67016769049036562 0.1245057537432829 38.584752100903906 209.2155209624112 0.00097440358405107258 0.85294823767121419 -0.30833333333328866 1.990814860250161 4.7183333333333062 -0.00033191041879138296 -30.171847972399874 6.7262369895331293 1.937362353999845 224.41448064323924
decision_type=6 6 6 4 6 6 6 6 6 6 6 6 4 6 4 6 6 6 6 6
left_child=1 9 7 5 15 6 -4 12 -6 11 -7 -1 -2 -11 -9 -5 17 -3 -18 -20
right_child=2 16 3 4 8 10 -8 14 -10 13 -12 -13 -14 -15 -16 -17 18 -19 19 -21
leaf_value=0 0 7.7813869111564167e-07 1.7963455824168548e-06 -6.1129410189205981e-07 2.3074438764777864e-06 0 -2.206588534264134e-06 6.6657071188390615e-07 8.8749716379741583e-06 0 -2.3429938857784275e-06 1.2504522074025176e-05 -1.0675369592906622e-06 3.7471373654745875e-06 0 4.0881197016723894e-07 0 0 0 -1.922316722547825e-06
leaf_weight=92 4104 10983 39722 12028 15014 7849 17812 39852 6838 1821 36641 3886 160798 9746 5505 11723 6416 3209 85 1730
leaf_count=92 4104 10983 39722 12028 15014 7849 17812 39852 6838 1821 36641 3886 160798 9746 5505 11723 6416 3209 85 1730
internal_value=0 3.06661e-06 -2.22206e-07 2.717e-07 2.36362e-06 -5.16359e-07 2.96334e-07 -6.40326e-07 5.04957e-06 6.51471e-06 -1.90443e-06 1.2112e-05 -1.01617e-06 3.29142e-06 3.95413e-07 0 6.90809e-09 5.54728e-07 0 -6.21031e-07
internal_weight=0 37968 357886 147627 45603 102024 57534 210259 21852 15545 44490 3978 164902 11567 45357 23751 22423 14192 8231 1815
internal_count=395854 37968 357886 147627 45603 102024 57534 210259 21852 15545 44490 3978 164902 11567 45357 23751 22423 14192 8231 1815
is_linear=0
shrinkage=0.03


Tree=34
num_leaves=15
num_cat=0
split_feature=12 3 11 3 3 9 7 0 10 0 0 8 8 2
split_gain=0.000489886 0.000145111 0.00036089 6.08193e-05 0.000168901 6.11033e-05 0.00041812 0.000333843 1.13037e-05 7.64704e-06 3.0837e-05 4.43624e-06 1.85271e-06 1.38428e-06
threshold=-0.65742506937291878 -0.093791233262438892 -0.018673591528519041 -0.36842105263157449 0.21506851014583481 0.52999999999988756 50.181868440971094 935.65079583333534 -0.0027745446872985964 132.41588468027382 650.55703257379412 0.0094185699027663165 -0.011784084027439214 22.777910079110224
decision_type=4 4 6 6 6 6 6 4 6 6 6 6 6 6
left_child=1 2 -1 13 5 7 -7 -5 11 -6 -11 12 -3 -2
right_child=3 8 -4 4 9 6 -8 -9 -10 10 -12 -13 -14 -15
leaf_value=1.5639362168077372e-05 0 1.7044903727287549e-06 0 -1.8157595540967046e-07 0 -1.7508904659670699e-07 6.3091257259850861e-06 -5.2717932760893135e-06 0 -3.7243031695505088e-06 0 0 0 2.9147522327596263e-06
leaf_weight=3405 5083 11389 5103 232218 125 86245 9632 12819 2777 17374 5258 946 211 3528
leaf_count=3405 5083 11389 5103 232218 125 86245 9632 12819 2777 17374 5258 946 211 3528
internal_value=0 4.07198e-06 7.73014e-06 -3.54229e-07 -4.47128e-07 -2.31946e-07 3.19999e-07 -5.09124e-07 1.06128e-06 -3.0113e-06 -3.06954e-06 1.47862e-06 1.64582e-06 1.82683e-06
internal_weight=0 23831 8508 372282 363671 340914 95877 245037 15323 22757 22632 12546 11600 8611
internal_count=396113 23831 8508 372282 363671 340914 95877 245037 15323 22757 22632 12546 11600 8611
is_linear=0
shrinkage=0.03


Tree=35
num_leaves=12
num_cat=0
split_feature=10 3 9 15 4 14 2 9 11 8 4
split_gain=0.000516908 0.000107327 8.13848e-05 0.000279159 0.000517531 0.000136873 6.72106e-05 6.57963e-05 6.35709e-05 1.66424e-05 5.82388e-06
threshold=-0.0083400357993667663 0.19273014505245348 1.0024999999999127 5.9216458255811988 44.188123809455412 0.99829924072477116 12.321816573527268 2.6366666666667133 -0.0038288584777362144 0.081866747894016559 47.72736301099544
decision_type=6 6 4 6 6 6 6 6 4 6 6
left_child=7 2 5 10 -5 6 -2 -1 -7 -3 -4
right_child=1 9 3 4 -6 8 -8 -9 -10 -11 -12
leaf_value=4.2974451507648091e-06 -3.7181229856489931e-07 -2.783250368020793e-06 -4.6744820521026039e-07 4.5621281815627619e-07 1.339415456912242e-05 3.7665320303429849e-08 1.2304567467961571e-06 0 -1.0108552250700954e-06 0 0
leaf_weight=27611 19195 16419 33678 16826 4253 38273 62252 1124 161824 9634 4820
leaf_count=27611 19195 16419 33678 16826 4253 38273 62252 1124 161824 9634 4820
internal_value=0 -2.07293e-07 -2.06329e-08 9.33877e-07 3.7792e-06 -2.75898e-07 6.68678e-07 3.96044e-06 -7.35341e-07 -2.0754e-06 -2.3454e-07
internal_weight=0 367174 341121 59577 21079 281544 81447 28735 200097 26053 38498
internal_count=395909 367174 341121 59577 21079 281544 81447 28735 200097 26053 38498
is_linear=0
shrinkage=0.03


Tree=36
num_leaves=13
num_cat=0
split_feature=7 14 14 2 15 7 5 5 5 10 14 3
split_gain=0.000337895 0.0023471 0.000241161 0.000102297 0.000160246 0.00104539 5.75166e-05 4.06046e-05 3.72675e-05 3.57656e-05 2.5367e-05 2.92121e-06
threshold=-52.25468719858609 0.97359860424172651 0.98691240173595729 35.438590008327715 5.7222022011669615 18.902599525990812 0.18201377894158813 0.58935233592558245 -0.11960222210782943 0.00084873199826728375 1.0007577344662932 0.2376032903482008
decision_type=4 6 4 6 6 6 6 6 6 6 6 4
left_child=1 -1 9 6 10 -6 8 -8 -4 -2 -5 -3
right_child=2 11 3 4 5 -7 7 -9 -10 -11 -12 -13
leaf_value=7.6764807334471057e-05 9.4061577987185256e-06 1.278745252922645e-06 -1.10127246890805e-06 6.1391383709854674e-07 0 2.1497954265450077e-05 -4.3105308782959133e-07 6.7202793203855554e-07 -4.2447044632685334e-08 0 -6.2171878809571449e-07 0
leaf_weight=406 2745 10884 111278 37912 10525 2451 52619 59363 84875 331 22094 143
leaf_count=406 2745 10884 111278 37912 10525 2451 52619 59363 84875 331 22094 143
internal_value=0 5.18195e-06 -2.3165e-08 -1.29554e-07 8.16129e-07 3.85467e-06 -4.02223e-07 1.97572e-08 -7.19596e-07 8.27669e-06 0 1.17286e-06
internal_weight=0 11433 384193 381117 72982 12976 308135 111982 196153 3076 60006 11027
internal_count=395626 11433 384193 381117 72982 12976 308135 111982 196153 3076 60006 11027
is_linear=0
shrinkage=0.03


Tree=37
num_leaves=13
num_cat=0
split_feature=11 12 15 7 12 11 1 7 2 1 3 3
split_gain=0.00251012 0.000671938 0.000208029 0.000846664 0.000168421 0.000133883 0.000122455 0.000112414 4.97363e-05 0.000132554 2.8001e-05 2.72531e-05
threshold=-0.034980846075080695 -0.17162913839575131 16.351963679391563 25.358374534664161 -0.40754440624580773 -0.0037916419786766715 300.31069944559488 6.0811000429888225 16.19456242784663 204.6043875565824 -0.23673855906002475 0.26612903225810175
decision_type=4 6 4 6 6 6 6 6 6 6 4 6
left_child=1 -1 4 7 6 -5 11 -4 10 -10 -6 -2
right_child=2 -3 3 5 8 -7 -8 -9 9 -11 -12 -13
leaf_value=2.7377415179304607e-05 3.6273063772280735e-06 0 -9.5160905992784965e-06 0 0 9.3601898588732656e-06 0 0 -1.0760591704473254e-06 5.7141433154386148e-07 -8.6304078932103076e-07 0
leaf_weight=3803 20061 1428 9557 301 6645 3632 21625 4143 64833 135446 123923 480
leaf_count=3803 20061 1428 9557 301 6645 3632 21625 4143 64833 135446 123923 480
internal_value=0 2.07226e-05 -1.83262e-07 -3.37056e-06 0 7.09155e-06 1.75067e-06 -7.46936e-06 -2.59856e-07 0 -7.16886e-07 3.41408e-06
internal_weight=0 5231 390646 17633 373013 3933 42166 13700 330847 200279 130568 20541
internal_count=395877 5231 390646 17633 373013 3933 42166 13700 330847 200279 130568 20541
is_linear=0
shrinkage=0.03


Tree=38
num_leaves=18
num_cat=0
split_feature=10 7 10 0 15 1 14 2 4 2 1 2 7 1 1 11 13
split_gain=0.000487822 0.000354754 0.000306745 0.000556572 0.000140138 0.000176902 8.96784e-05 0.000114323 5.22116e-05 3.56156e-05 2.98348e-05 5.77425e-05 2.83062e-05 0.000458125 2.18871e-05 1.47844e-05 3.02867e-06
threshold=-0.0040476559456381336 50.959874058861679 -0.017505640780163905 300.35972176453532 2.3789814745351605 726.34298723791937 1.0017235275244705 12.469226276334622 38.526528738913186 13.056371320763764 452.80078669469168 21.097213284573716 -1.9882166696592274 695.20444223526613 450.33492977055022 0.0016295243379620377 0.0017981577493131054
decision_type=6 6 6 6 6 6 6 4 6 4 6 6 6 6 6 6 6
left_child=2 8 3 -1 -3 -6 7 -4 -2 -9 -5 -12 14 -14 -10 -7 -8
right_child=1 4 6 10 5 15 16 9 12 -11 11 -13 13 -15 -16 -17 -18
leaf_value=2.1107111488421955e-05 -1.0100153786573754e-06 0 0 0 0 0 0 0 1.1089207596385617e-06 2.7521206907874062e-06 0 5.8796257861494511e-06 -1.8086719119570176e-06 5.1817101732053549e-06 0 1.1945826229325869e-05 -9.4710592959703765e-07
leaf_weight=2306 217388 5467 11959 431 3080 110 165 1578 23198 41660 2199 2278 53324 9477 11178 3696 6736
leaf_count=2306 217388 5467 11959 431 3080 110 165 1578 23198 41660 2199 2278 53324 9477 11178 3696 6736
internal_value=0 -5.08613e-07 2.26141e-06 8.5485e-06 4.30591e-06 7.18105e-06 1.28923e-06 1.80886e-06 -7.45391e-07 2.56056e-06 0 2.44846e-06 0 -5.14813e-07 5.06825e-07 1.16227e-05 -6.93323e-07
internal_weight=0 326918 69312 7214 12353 6886 62098 55197 314565 43238 4908 4477 97177 62801 34376 3806 6901
internal_count=396230 326918 69312 7214 12353 6886 62098 55197 314565 43238 4908 4477 97177 62801 34376 3806 6901
is_linear=0
shrinkage=0.03


Tree=39
num_leaves=19
num_cat=0
split_feature=13 12 5 2 8 11 1 2 0 0 7 0 2 4 2 0 7 11
split_gain=0.000217077 0.000360236 0.000317398 0.000223055 0.000374287 0.000173052 0.00029082 0.000307497 0.00012623 0.000232696 0.000151716 8.07598e-05 4.86671e-05 1.79017e-05 1.45885e-05 7.7295e-06 3.61226e-06 1.16648e-06
threshold=-0.0021235957002454001 -1.1967419695527723 0.69082318376155183 18.520117126313171 -0.34345310837483684 0.0018017878666695029 1142.0845777243087 46.270997835513228 451.09937752068106 277.18857810662928 -6.0994863494950335 977.55424166666432 25.769024131140892 16.498962658713236 15.277693193900307 484.1105919752867 18.410941322585789 0.0042469947067380219
decision_type=6 4 6 6 6 6 6 6 4 6 6 4 6 4 4 6 6 6
left_child=1 3 12 -1 -5 14 7 -7 9 10 -3 15 -2 -13 -4 -10 -11 -14
right_child=2 8 5 4 -6 6 -8 -9 11 16 -12 13 17 -15 -16 -17 -18 -19
leaf_value=0 -1.1295684887580784e-06 4.0930090457536739e-06 0 2.0414243302141819e-05 0 6.6853366222451568e-07 1.3055044498046843e-05 2.006214129612216e-05 1.2184168645792183e-06 -1.3643024916096241e-06 0 0 -1.3334471887101585e-07 -3.7749626183763804e-06 -1.2636573292354385e-06 0 0 0
leaf_weight=3158 162639 28099 5501 2378 1157 32913 2836 867 4684 10800 8418 378 71903 6556 8606 28015 77 17391
leaf_count=3158 162639 28099 5501 2378 1157 32913 2836 867 4684 10800 8418 378 71903 6556 8606 28015 77 17391
internal_value=0 1.31768e-06 -3.29388e-07 8.23693e-06 1.36081e-05 1.74551e-06 2.90811e-06 1.61147e-06 6.13005e-07 1.72878e-06 3.02523e-06 -3.42831e-07 -8.06689e-07 -3.33929e-06 -2.08929e-07 0 -1.24471e-06 -5.06076e-08
internal_weight=0 93720 302656 6693 3535 50723 36616 33780 87027 47394 36517 39633 251933 6934 14107 32699 10877 89294
internal_count=396376 93720 302656 6693 3535 50723 36616 33780 87027 47394 36517 39633 251933 6934 14107 32699 10877 89294
is_linear=0
shrinkage=0.03


Tree=40
num_leaves=15
num_cat=0
split_feature=14 5 1 3 10 0 10 0 7 1 3 3 0 0
split_gain=0.000410723 0.000187898 0.000177166 0.000157989 0.000161167 0.000197452 8.29215e-05 0.000326897 7.82235e-05 3.80749e-05 2.35268e-05 1.88058e-06 2.13273e-07 1.19321e-05
threshold=0.99247023678045154 0.66295181906599521 708.43908458627527 0.31530471648111585 0.00077234739377522201 206.41273940678397 -3.0163328406528333e-05 279.65265355054765 34.13616939279003 197.67194557256983 -0.010126582278478393 -0.00087719298245532006 402.35145694444799 216.67007467921351
decision_type=4 6 6 6 6 6 6 6 6 6 4 4 6 6
left_child=6 3 12 4 5 -2 7 11 -6 -5 -9 -1 13 -3
right_child=1 2 -4 9 8 -7 -8 10 -10 -11 -12 -13 -14 -15
leaf_value=1.3698711675901307e-05 1.7244363607354325e-06 0 3.129717677324616e-06 0 -1.5610751296177649e-06 -3.3562828553407468e-07 0 1.7650221058878352e-06 1.0577993737201819e-07 -5.2943106361432429e-06 0 0 -9.163086970537203e-08 1.5341028111879763e-06
leaf_weight=3912 55903 2793 27851 326 96136 146885 1680 7530 12870 7599 3399 2113 22859 4561
leaf_count=3912 55903 2793 27851 326 96136 146885 1680 7530 12870 7599 3399 2113 22859 4561
internal_value=0 -1.14142e-07 1.39732e-06 -4.35561e-07 -2.77784e-07 1.58317e-07 4.4331e-06 5.09911e-06 -1.22667e-06 -4.74912e-06 4.57745e-07 1.10265e-05 0 0
internal_weight=0 377783 58064 319719 311794 202788 18634 16954 109006 7925 10929 6025 30213 7354
internal_count=396417 377783 58064 319719 311794 202788 18634 16954 109006 7925 10929 6025 30213 7354
is_linear=0
shrinkage=0.03


Tree=41
num_leaves=13
num_cat=0
split_feature=10 7 1 14 3 1 6 4 0 13 13 1
split_gain=0.0004034 0.000273737 0.000409792 0.000299287 0.000148053 0.000242651 9.41661e-05 5.25164e-05 6.25844e-05 8.33781e-06 2.26851e-06 1.63616e-06
threshold=-0.0037702495352448834 48.8390704973189 771.78550409282559 1.0045100829226379 0.073275862068907863 227.40779346844337 20.574953444567829 50.851586378698549 622.32870769685246 -0.0050351145817517018 0.0011466133548070096 736.93043537687186
decision_type=6 6 4 4 6 6 6 6 4 6 6 6
left_child=4 3 -3 7 5 6 -1 10 -9 -6 -2 -7
right_child=1 2 -4 -5 9 11 -8 8 -10 -11 -12 -13
leaf_value=5.8955103210424332e-06 -7.6887516676169118e-07 0 1.1606187222293557e-05 -3.7822477690525202e-06 0 8.2350824324463135e-07 0 0 3.400050439224621e-06 -9.1137046606196606e-07 -1.1739410517027043e-07 0
leaf_weight=19584 166560 10511 3880 28935 4004 23921 2834 39164 5214 9125 67666 14393
leaf_count=19584 166560 10511 3880 28935 4004 23921 2834 39164 5214 9125 67666 14393
internal_value=0 -5.74909e-07 3.27216e-06 -8.03723e-07 1.87327e-06 2.54174e-06 5.15592e-06 -4.40518e-07 2.99194e-07 -7.64862e-08 -6.4471e-07 6.20474e-07
internal_weight=0 321930 14391 307539 73861 60732 22418 278604 44378 13129 234226 38314
internal_count=395791 321930 14391 307539 73861 60732 22418 278604 44378 13129 234226 38314
is_linear=0
shrinkage=0.03


Tree=42
num_leaves=14
num_cat=0
split_feature=13 15 5 1 6 10 9 6 12 1 5 5 1
split_gain=0.000297882 0.000220912 0.000176535 0.000206604 0.000122367 0.000228767 0.000118887 6.73023e-05 4.60226e-05 4.25902e-05 6.62588e-06 0.000197212 1.80453e-06
threshold=-0.0057029471358715162 18.502756933279937 0.70014209401790606 565.08232525164715 -100.04769363365958 -0.011812763640531534 -0.024999999999998575 99.642247366146677 -0.21024555791419594 439.37071927874712 0.48508642565087717 -2.7016709401650583 125.86842856573567
decision_type=4 4 6 6 6 6 6 6 6 4 6 4 4
left_child=4 2 8 -4 5 -1 -5 10 9 -2 11 -3 -10
right_child=1 7 3 6 -6 -7 -8 -9 12 -11 -12 -13 -14
leaf_value=9.1718754964703094e-06 1.1539084887448483e-06 0 -2.4567552907703971e-07 0 0 5.5166880390457895e-07 4.2100589590426824e-06 0 0 -1.4091468066536044e-07 0 -1.2479002128621293e-05 -5.1366074125568499e-07
leaf_weight=6841 34283 1767 16862 7214 11240 12295 24252 3420 34253 23610 4228 2883 212885
leaf_count=6841 34283 1767 16862 7214 11240 12295 24252 3420 34253 23610 4228 2883 212885
internal_value=0 -1.32519e-07 0 1.68959e-06 2.94449e-06 4.41776e-06 3.20329e-06 -4.08489e-06 -2.61843e-07 3.66776e-07 -5.4712e-06 -7.64341e-06 -4.69795e-07
internal_weight=0 365657 353359 48328 30376 19136 31466 12298 305031 57893 8878 4650 247138
internal_count=396033 365657 353359 48328 30376 19136 31466 12298 305031 57893 8878 4650 247138
is_linear=0
shrinkage=0.03


Tree=43
num_leaves=17
num_cat=0
split_feature=6 14 1 1 12 15 5 15 3 1 14 1 14 11 11 3
split_gain=0.000295071 0.000214055 0.000125755 0.000140457 0.000120076 0.000134685 0.000427662 0.000321435 0.000109744 6.09727e-05 3.90258e-05 4.09386e-06 2.98911e-06 7.23444e-06 0.000173096 1.02939e-06
threshold=-144.77192938779714 0.99758410736211689 514.8200720658441 272.78897918029503 0.5647404380116462 4.3908448289104482 0.35759545198078518 6.6695297051771201 -0.18421052631575613 462.00516538116761 0.99839979081459829 843.25713780921762 1.0026018709989184 0.035873615441366712 0.0057401844718984411 -0.024042759226933778
decision_type=4 6 6 6 4 6 6 6 4 4 6 6 4 4 6 6
left_child=1 2 3 -1 5 8 9 -8 -2 -7 -10 15 -6 14 -14 -4
right_child=4 -3 11 -5 12 6 7 -9 10 -11 -12 -13 13 -15 -16 -17
leaf_value=8.8773514190125403e-06 1.7335160412052122e-06 0 1.012250655092733e-06 0 0 5.5259905366308615e-07 0 7.0481097802195541e-06 0 -1.2429616457283925e-06 -7.9558723017589074e-07 0 -4.8043530685825483e-06 0 0 0
leaf_weight=8727 17332 11658 4498 4870 195 32087 8095 15344 48330 29320 181142 3507 12288 2151 14102 1140
leaf_count=8727 17332 11658 4498 4870 195 32087 8095 15344 48330 29320 181142 3507 12288 2151 14102 1140
internal_value=0 2.72614e-06 4.43977e-06 6.42571e-06 -1.71653e-07 0 1.0205e-06 4.49219e-06 -3.6485e-07 -6.0476e-08 -5.8872e-07 0 -2.03224e-06 -2.06215e-06 -2.2013e-06 8.08255e-07
internal_weight=0 34400 22742 13597 360386 331650 84846 23439 246804 61407 229472 9145 28736 28541 26390 5638
internal_count=394786 34400 22742 13597 360386 331650 84846 23439 246804 61407 229472 9145 28736 28541 26390 5638
is_linear=0
shrinkage=0.03


Tree=44
num_leaves=12
num_cat=0
split_feature=12 3 3 7 13 6 0 13 10 0 2
split_gain=0.000404539 0.000140523 8.45575e-05 0.000137218 0.000129533 4.98289e-05 3.8802e-05 2.73236e-05 2.13753e-05 2.00584e-05 1.04927e-06
threshold=-0.46926115970488119 -0.086783309528628269 -0.1931034482758586 67.075956772439426 0.00423684243197049 -144.77192938779714 179.43388787096001 0.00024589601748293627 0.00033600420319563256 855.56251250000196 17.920330401568371
decision_type=4 6 4 6 4 6 6 6 6 6 6
left_child=1 5 9 4 7 -1 -5 -4 -3 -2 -8
right_child=2 8 3 6 -6 -7 10 -9 -10 -11 -12
leaf_value=8.5570586173305172e-06 1.7990515342401936e-06 1.3460842288412082e-06 -4.8143777282274986e-07 0 -2.1232025406344986e-06 9.424986781497848e-07 0 1.383805855647927e-08 0 0 9.113432322942513e-06
leaf_weight=6662 19835 23749 158190 103 40301 7134 1536 132655 3407 1116 1572
leaf_count=6662 19835 23749 158190 103 40301 7134 1536 132655 3407 1116 1572
internal_value=0 2.90991e-06 -2.28927e-07 -3.81138e-07 -4.82852e-07 5.70734e-06 5.43364e-06 -2.03969e-07 9.36091e-07 1.48412e-06 6.45996e-06
internal_weight=0 40952 355308 334357 331146 13796 3211 290845 27156 20951 3108
internal_count=396260 40952 355308 334357 331146 13796 3211 290845 27156 20951 3108
is_linear=0
shrinkage=0.03


Tree=45
num_leaves=14
num_cat=0
split_feature=14 10 5 10 3 11 3 4 6 10 15 15 10
split_gain=0.000262633 0.00046186 0.000204343 0.000197152 0.000108158 0.000106897 0.000133533 4.99623e-05 2.08433e-05 4.80898e-05 1.4965e-06 1.59357e-06 5.69516e-07
threshold=1.0064101432605967 -0.015077930786430225 0.50503739316550889 0.0025251215375887153 -0.005434782608702283 0.0075137821049821819 0.025915303310968672 45.555684852048756 -49.091716281913087 0.004388015540932105 1.9128351357690703 3.3677560745440931 0.0025936674359100741
decision_type=4 6 6 6 6 6 6 6 4 6 4 4 6
left_child=1 4 3 7 -1 6 -2 -3 -4 -10 -7 -12 -5
right_child=5 2 8 12 -6 10 -8 -9 9 -11 11 -13 -14
leaf_value=9.2454507458704756e-06 0 -1.3575706587337399e-07 0 0 0 0 -9.2183644400435344e-06 8.1828231284233294e-07 2.3790108272107493e-07 3.0817337400942325e-06 0 -5.9815222721459291e-07 -2.1457387493041296e-06
leaf_weight=6298 5242 198304 11857 1405 3396 1832 5021 62153 24117 24294 2907 7771 41805
leaf_count=6298 5242 198304 11857 1405 3396 1832 5021 62153 24117 24294 2907 7771 41805
internal_value=0 2.66316e-07 5.24827e-08 -2.21101e-07 6.74539e-06 -3.03986e-06 -5.4658e-06 3.43198e-08 1.6798e-06 1.97492e-06 0 -3.5512e-07 -2.10776e-06
internal_weight=0 373629 363935 303667 9694 22773 10263 260457 60268 48411 12510 10678 43210
internal_count=396402 373629 363935 303667 9694 22773 10263 260457 60268 48411 12510 10678 43210
is_linear=0
shrinkage=0.03


Tree=46
num_leaves=12
num_cat=0
split_feature=3 3 12 3 0 0 0 0 15 15 15
split_gain=0.000186696 0.000244222 9.46457e-05 0.000250017 0.000176853 7.00545e-05 1.36296e-05 0.000217336 7.33284e-06 5.15808e-06 2.38137e-05
threshold=-0.26539173885098827 0.25621442919316012 -0.12550004981855542 0.0062417569159549007 730.85955694444795 1064.7647361111096 1299.2055513888868 292.88660209282364 1.4276104791144231 1.5637607750221323 1.6350910855650422
decision_type=4 6 4 4 6 6 4 6 6 6 6
left_child=8 2 6 5 -5 -4 7 -2 -1 -10 -11
right_child=1 -3 3 4 -6 -7 -8 -9 9 10 -12
leaf_value=0 2.2769769208909208e-06 -3.6297169199232725e-06 -1.452145603762988e-06 0 2.8067494291109679e-06 8.3755105051315535e-07 0 -2.03601074606804e-07 0 0 4.5119198216789814e-06
leaf_weight=6218 51137 17432 127006 92593 25585 4672 1168 59618 771 376 9371
leaf_count=6218 51137 17432 127006 92593 25585 4672 1168 59618 771 376 9371
internal_value=0 -1.61494e-07 0 -3.19102e-07 5.98996e-07 -1.25698e-06 7.30577e-07 8.06302e-07 3.07371e-06 3.95718e-06 4.1682e-06
internal_weight=0 379211 361779 249856 118178 131678 111923 110755 16736 10518 9747
internal_count=395947 379211 361779 249856 118178 131678 111923 110755 16736 10518 9747
is_linear=0
shrinkage=0.03


Tree=47
num_leaves=18
num_cat=0
split_feature=10 8 14 8 13 0 0 9 5 0 11 5 9 9 6 13 0
split_gain=0.000201166 0.000542547 0.000250253 0.000226214 0.00015884 0.000145998 0.000189991 0.000180572 0.000126172 0.000271089 7.20141e-05 4.95478e-05 0.000162952 1.31603e-05 5.1679e-06 1.46927e-06 5.01054e-07
threshold=-0.0028030518961733924 -0.76720724214040259 1.0087669795922392 0.17942920600988835 -0.0052795832881306305 469.64106250000344 283.04865272116882 -0.15253390166672884 1.0061367521376641 1080.5831111111113 0.010420070102755334 -0.23316290941123438 1.1036666666667545 -0.19833333333331635 -57.15883671143245 -0.010488192703999052 94.787816423112403
decision_type=6 6 4 6 6 6 6 6 6 6 6 6 4 4 6 6 4
left_child=1 4 3 11 -1 6 7 -3 16 -10 -4 -2 -13 14 -7 -8 -5
right_child=2 5 10 8 -6 13 15 -9 9 -11 -12 12 -14 -15 -16 -17 -18
leaf_value=1.6900928616598277e-05 -1.6145878418049591e-06 4.368395766054657e-06 -8.8295281358130585e-06 -5.9706061143212531e-07 0 -1.1083033544170931e-06 0 0 1.1549269274470863e-06 1.2142966589072882e-05 -2.1710778662779531e-07 -7.0542536432592647e-07 1.7224960892451041e-06 0 0 -5.0209879879824492e-07 0
leaf_weight=2562 44630 24710 4283 1263 1327 24355 704 10093 22738 3068 6644 176257 26577 9800 6575 13778 15332
leaf_count=2562 44630 24710 4283 1263 1327 24355 704 10093 22738 3068 6644 176257 26577 9800 6575 13778 15332
internal_value=0 1.14626e-06 -4.38685e-07 -2.16224e-07 1.23079e-05 4.97129e-07 1.68671e-06 2.9799e-06 1.72019e-06 3.04332e-06 -4.96637e-06 -6.0864e-07 -3.13334e-07 -5.74065e-07 -9.0381e-07 -3.85425e-07 0
internal_weight=0 93904 300792 289865 3889 90015 49285 34803 42401 25806 10927 247464 202834 40730 30930 14482 16595
internal_count=394696 93904 300792 289865 3889 90015 49285 34803 42401 25806 10927 247464 202834 40730 30930 14482 16595
is_linear=0
shrinkage=0.03


Tree=48
num_leaves=16
num_cat=0
split_feature=14 15 5 2 1 7 3 12 3 3 15 3 8 8 12
split_gain=0.000778069 0.000249521 0.000124023 0.000105465 6.10391e-05 0.000240344 7.43557e-05 4.07699e-05 3.19881e-05 0.000131097 3.12216e-05 3.72592e-05 1.10075e-05 9.36832e-06 5.72903e-05
threshold=0.98534256843160306 3.9930672957722315 0.070184962298881728 14.731105765820784 197.32590778186662 3.9673251170932868 -0.022826426842855178 0.019634675087853996 -0.0031360446092926499 0.12953932537695081 6.8405718169411056 -0.07320089550628249 -0.06521736503551169 -0.15703174526157007 -0.042698949015634861
decision_type=4 6 6 6 4 6 4 6 4 6 6 4 6 6 6
left_child=1 -1 -3 10 5 6 -5 -7 12 -10 11 -2 -6 -12 -15
right_child=3 2 -4 4 8 7 -8 -9 9 -11 13 -13 -14 14 -16
leaf_value=0 0 1.9593878198262046e-05 0 3.3384132186841756e-06 4.4938852287775273e-07 0 0 -3.5989868780256187e-06 1.3967888074165931e-06 -7.5476473183375573e-07 -8.3177432308458879e-07 -1.4192442139762621e-06 -2.6468276877874874e-07 0 2.5271573627091278e-06
leaf_weight=1047 25877 2650 348 6939 27928 4213 31156 20827 82301 26986 4758 86543 60896 4736 8876
leaf_count=1047 25877 2650 348 6939 27928 4213 31156 20827 82301 26986 4758 86543 60896 4736 8876
internal_value=0 1.29812e-05 1.73833e-05 -2.21516e-07 7.48781e-08 -6.56688e-07 5.23419e-07 -3.05095e-06 3.83736e-07 7.28256e-07 -9.28226e-07 -1.11908e-06 0 0 6.14351e-07
internal_weight=0 4045 2998 392036 261246 63135 38095 25040 198111 109287 130790 112420 88824 18370 13612
internal_count=396081 4045 2998 392036 261246 63135 38095 25040 198111 109287 130790 112420 88824 18370 13612
is_linear=0
shrinkage=0.03


Tree=49
num_leaves=15
num_cat=0
split_feature=13 4 2 10 5 11 7 5 3 13 13 1 1 3
split_gain=0.000377137 0.000190641 0.00014809 0.000156358 4.73211e-05 4.411e-05 0.00012671 4.28056e-05 2.83579e-05 7.65728e-06 9.23095e-06 6.87977e-06 0.000156265 1.49463e-07
threshold=-0.0079627963248121245 42.644622040561906 12.244814435931877 -0.00020432963149390277 -0.067973774894809921 -0.0056772970283438242 19.52685349955296 -0.062041214682622574 0.11145116220986974 0.0021922765234118125 0.0016312313759182114 469.08942357866061 266.64196286240804 0.19273014505245348
decision_type=4 6 6 6 6 4 6 6 6 4 6 6 6 4
left_child=2 4 -1 7 9 8 13 -4 -3 10 -2 12 -6 -7
right_child=1 5 3 -5 11 6 -8 -9 -10 -11 -12 -13 -14 -15
leaf_value=0 -8.2461522846965138e-07 2.643685826767357e-06 7.7246651119956704e-06 0 -9.8687278630733806e-07 -1.1833014485851283e-07 2.7265077881775469e-06 0 0 -2.4563318210404791e-06 0 -3.9256009136921158e-07 1.5086380738816423e-06 0
leaf_weight=3448 90363 19870 10741 1207 57553 57549 16163 1282 3832 15412 4197 74974 37162 2296
leaf_count=3448 90363 19870 10741 1207 57553 57549 16163 1282 3832 15412 4197 74974 37162 2296
internal_value=0 -1.69596e-07 4.4379e-06 5.90759e-06 -6.03991e-07 8.98325e-07 2.99112e-07 7.0785e-06 2.1869e-06 -1.12526e-06 -7.49636e-07 -1.77764e-07 0 -1.05911e-07
internal_weight=0 379371 16678 13230 279661 99710 76008 12023 23702 109972 94560 169689 94715 59845
internal_count=396049 379371 16678 13230 279661 99710 76008 12023 23702 109972 94560 169689 94715 59845
is_linear=0
shrinkage=0.03


Tree=50
num_leaves=14
num_cat=0
split_feature=14 2 4 5 10 11 11 10 4 9 9 10 11
split_gain=0.000409121 0.000344638 0.000220272 0.00038277 0.000190161 0.00010318 9.23172e-05 7.06176e-05 7.39539e-05 3.42813e-05 2.92572e-05 6.5169e-06 3.09219e-06
threshold=0.9936180158489013 12.725936114721591 45.953120927052161 0.72919809840007599 -0.0017561127691047148 0.0023751464521175117 -0.0085926164453839823 -0.0077295911498338433 19.055069314882523 1.9682413749999912 -2.7294999999999159 1.4698012162070124e-05 -0.001433598750845379
decision_type=4 6 6 6 6 6 4 6 4 6 4 6 4
left_child=1 11 7 6 -3 -5 -4 9 -9 10 -2 -1 -8
right_child=2 4 3 5 -6 -7 12 8 -10 -11 -12 -13 -14
leaf_value=-1.2500477250729292e-06 0 7.0742343184623412e-06 2.736369058714565e-06 0 0 8.8073523098059733e-06 0 7.065810913930355e-08 -9.8459396205299269e-07 0 3.1591367630279191e-06 0 -2.7591286119897046e-07
leaf_weight=5284 1978 16596 11466 1343 2633 6884 23491 46342 233657 949 7578 544 37431
leaf_count=5284 1978 16596 11466 1343 2633 6884 23491 46342 233657 949 7578 544 37431
internal_value=0 3.74642e-06 -2.10797e-07 1.11173e-06 5.85607e-06 7.32292e-06 1.98431e-07 -6.29439e-07 -7.56371e-07 1.32566e-06 2.27153e-06 -6.40914e-07 -3.30949e-08
internal_weight=0 25057 371119 80615 19229 8227 72388 290504 279999 10505 9556 5828 60922
internal_count=396176 25057 371119 80615 19229 8227 72388 290504 279999 10505 9556 5828 60922
is_linear=0
shrinkage=0.03


Tree=51
num_leaves=11
num_cat=0
split_feature=2 15 13 14 9 9 5 14 11 15
split_gain=0.000271725 0.000367863 0.00157643 0.000165344 0.000120271 0.000107476 5.07407e-05 1.91302e-05 1.09398e-05 2.90435e-07
threshold=13.169059382686862 5.1942578625294233 -0.0146516597830857 1.0029397178993193 -4.7501666666666429 1.2028333333334162 0.1015900833193797 0.99451527813197005 -0.00062374679845982083 2.5780676312338118
decision_type=6 6 4 6 6 6 6 6 4 6
left_child=6 3 -3 7 -4 -5 -1 -2 -9 -7
right_child=1 2 4 5 -6 9 -8 8 -10 -11
leaf_value=-1.9255166066576803e-06 1.3996614444040648e-06 3.0142584253449932e-05 -1.4378965737996453e-06 -4.1023343268062956e-06 1.9776248492043054e-06 0 -1.2368675046741918e-07 3.5229706183993378e-07 -3.1398120222998039e-08 -1.6913897870693242e-07
leaf_weight=60441 14212 1857 5873 13920 56803 11296 44103 85163 93358 9135
leaf_count=60441 14212 1857 5873 13920 56803 11296 44103 85163 93358 9135
internal_value=0 4.73729e-07 2.47813e-06 -2.98472e-08 1.41822e-06 -2.00113e-06 -1.30889e-06 2.43686e-07 6.76218e-08 0
internal_weight=0 291617 64533 227084 62676 34351 104544 192733 178521 20431
internal_count=396161 291617 64533 227084 62676 34351 104544 192733 178521 20431
is_linear=0
shrinkage=0.03


Tree=52
num_leaves=18
num_cat=0
split_feature=12 4 0 6 2 0 5 11 6 11 5 6 7 0 4 1 1
split_gain=0.000271708 0.000184285 0.000131145 0.000133263 5.92607e-05 5.68395e-05 0.00031842 0.000340181 8.07283e-05 5.44059e-05 3.03694e-05 1.19427e-05 1.54432e-06 1.19462e-06 7.03024e-07 2.49388e-07 1.62285e-05
threshold=-0.29254825780710697 29.411126880503897 316.4618479980038 -97.750427324137419 13.359845905363597 743.84823750000476 0.25689957134912339 0.00015155606428446727 28.432403072394461 -0.0066914316000909937 0.27009900103152523 -71.514731142437384 -3.439361389630335 880.06000972222341 52.899621803226808 178.06795159732141 734.25992478236424
decision_type=4 6 6 6 6 6 6 6 6 6 6 6 6 6 6 4 4
left_child=1 15 3 -3 10 8 9 -8 -6 -7 -2 -5 13 -4 -10 -1 -17
right_child=4 2 12 11 5 6 7 -9 14 -11 -12 -13 -14 -15 -16 16 -18
leaf_value=0 -1.4795917262970181e-06 7.6069401460427037e-06 7.472644466899578e-07 1.8754190149003819e-06 1.829945812536776e-07 0 -3.1165690697631731e-07 6.5412624729246946e-06 -1.0486045994807815e-06 -2.6352860285415189e-06 0 0 0 0 0 0 -1.4286437388684506e-06
leaf_weight=6587 57801 10265 15627 3408 96823 4863 5252 13763 81928 12123 30943 5916 1428 5164 21114 15943 7264
leaf_count=6587 57801 10265 15627 3408 96823 4863 5252 13763 81928 12123 30943 5916 1428 5164 21114 15943 7264
internal_value=0 1.662e-06 2.94916e-06 4.92615e-06 -3.79491e-07 -6.08617e-08 9.4258e-07 3.85986e-06 -3.16666e-07 -1.44027e-06 -1.05731e-06 3.65405e-07 5.30864e-07 6.06643e-07 -9.31733e-07 0 -9.83402e-08
internal_weight=0 71602 41808 19589 324610 235866 36001 19015 199865 16986 88744 9324 22219 20791 103042 29794 23207
internal_count=396212 71602 41808 19589 324610 235866 36001 19015 199865 16986 88744 9324 22219 20791 103042 29794 23207
is_linear=0
shrinkage=0.03


Tree=53
num_leaves=15
num_cat=0
split_feature=4 10 0 0 10 0 12 7 6 7 10 7 5 5
split_gain=0.000245895 0.000270343 0.000361129 0.000403973 0.000555898 0.000229125 0.000168329 4.14651e-05 2.8152e-05 4.88281e-05 2.462e-05 5.09146e-06 1.53413e-06 7.68895e-07
threshold=42.190719063045186 -0.0013467012811598832 273.76590447325293 537.26047398684807 0.0035614026091378846 217.19002421836475 -0.66830941487141515 42.354967603494131 -114.33475806688719 -27.334202093466192 0.0032296005594862347 0.5728505512893568 0.052814565135534515 0.087283579615750298
decision_type=6 6 4 4 6 6 4 6 6 6 6 6 6 6
left_child=6 5 -3 10 -5 -2 8 -8 9 -1 -4 -7 -9 -14
right_child=1 2 3 4 -6 11 7 12 -10 -11 -12 -13 13 -15
leaf_value=4.8063329132632616e-06 5.9902880790151048e-06 -1.9590557560299668e-06 0 0 1.2028415651422571e-05 8.4407292342328653e-07 -7.7379330787113821e-07 0 0 0 -2.4310740072784694e-06 0 0 4.4882331811783841e-07
leaf_weight=6860 16788 36376 7958 7202 7241 25419 255903 396 7123 2070 3975 2204 133 16078
leaf_count=6860 16788 36376 7958 7202 7241 25419 255903 396 7123 2070 3975 2204 133 16078
internal_value=0 1.24644e-06 0 2.65115e-06 6.15722e-06 3.03761e-06 -4.3583e-07 -6.55443e-07 2.35757e-06 3.58151e-06 -3.35896e-07 6.99815e-07 2.65012e-07 3.96368e-07
internal_weight=0 107163 62752 26376 14443 44411 288563 272510 16053 8930 11933 27623 16607 16211
internal_count=395726 107163 62752 26376 14443 44411 288563 272510 16053 8930 11933 27623 16607 16211
is_linear=0
shrinkage=0.03


Tree=54
num_leaves=19
num_cat=0
split_feature=14 4 15 0 7 14 4 5 1 0 0 3 6 6 15 14 15 15
split_gain=0.000293682 0.000176348 0.000205091 0.000160987 0.000228954 8.12753e-05 3.13461e-05 2.97032e-05 5.68714e-05 4.59635e-05 0.000377503 7.8837e-05 2.06633e-06 5.00229e-06 1.16972e-06 8.17271e-07 5.70488e-06 6.62681e-07
threshold=0.99551471424571558 49.352095702684146 4.4759856800246665 296.61409862826702 -31.689961406770216 0.99977078115288265 35.65256285204125 -0.1388224185488269 279.6713241019749 406.47513937788125 1044.5872305555538 -0.12275641025640598 23.998448667748878 -114.33475806688719 2.0413254616006542 1.0020518607001134 0.9533117065574177 2.0339469487566526
decision_type=4 6 6 4 6 6 6 6 4 6 6 4 6 6 6 6 6 6
left_child=3 7 15 4 -1 -4 14 8 -2 11 -11 -9 13 -6 -5 16 -3 -17
right_child=1 2 5 6 12 -7 -8 9 -10 10 -12 -13 -14 -15 -16 17 -18 -19
leaf_value=9.689034492185419e-06 0 0 0 -7.0468275135237694e-07 1.6568433341821659e-06 5.5106048334526428e-06 1.6819929763302476e-06 1.3820532756153016e-06 -1.5598556998012559e-06 -3.5991173979745087e-07 6.2704801542069007e-06 -1.1420543165715257e-06 0 0 0 0 4.1368056384094962e-07 -3.4539964160552128e-07
leaf_weight=6248 21682 3057 6114 2118 4813 11061 10125 7732 67277 97440 8319 86986 124 7339 12921 2755 33051 6787
leaf_count=6248 21682 3057 6114 2118 4813 11061 10125 7732 67277 97440 8319 86986 124 7339 12921 2755 33051 6787
internal_value=0 -2.45545e-07 1.11578e-06 2.35877e-06 4.57365e-06 3.91146e-06 1.32051e-07 -5.92865e-07 -1.12462e-06 -2.82075e-07 1.99142e-08 -7.77621e-07 7.47262e-07 8.46823e-07 0 0 1.20235e-07 -1.49574e-07
internal_weight=0 352261 62825 43688 18524 17175 25164 289436 88959 200477 105759 94718 12276 12152 15039 45650 36108 9542
internal_count=395949 352261 62825 43688 18524 17175 25164 289436 88959 200477 105759 94718 12276 12152 15039 45650 36108 9542
is_linear=0
shrinkage=0.03


Tree=55
num_leaves=16
num_cat=0
split_feature=8 15 4 15 8 6 4 11 9 12 12 7 8 13 15
split_gain=7.82314e-05 0.000188965 0.000821286 0.000244525 0.000304121 0.000182017 0.000225234 0.000157466 0.000116802 7.29127e-05 8.34169e-05 6.558e-05 4.0583e-05 1.92933e-05 7.01046e-05
threshold=-0.16036522504168668 24.25442401712343 49.352095702684146 5.0947662754106302 0.10478668072522443 7.4145932170710731 30.586400817674491 -0.0086833094045663979 0.43366666666648263 0.3395728947695687 -0.20825472846055512 -0.4175652875475408 1.0913618647645082 -0.0059364912491438908 1.7675249396140502
decision_type=4 4 6 6 6 6 6 6 4 4 6 6 6 6 6
left_child=5 3 7 9 8 6 -1 -3 -5 10 -2 -7 -6 14 -8
right_child=1 2 -4 4 12 11 13 -9 -10 -11 -12 -13 -14 -15 -16
leaf_value=0 8.8452873440047422e-07 -2.6941953407702252e-05 1.4336919915722906e-05 -1.2373931187931829e-06 4.4846526737345777e-06 0 0 -4.2208332882412468e-06 2.3687575269020735e-06 -1.7613827615141067e-06 -5.0110650026863727e-07 -3.7202429280951407e-06 0 1.5790903597640281e-06 6.838639350099998e-06
leaf_weight=18251 44523 1077 959 24774 23831 9646 1438 4333 11972 35443 186643 5977 593 16813 9507
leaf_count=18251 44523 1077 959 24774 23831 9646 1438 4333 11972 35443 186643 5977 593 16813 9507
internal_value=0 -1.45029e-07 -5.27231e-06 0 1.66262e-06 1.01406e-06 2.10289e-06 -1.1524e-05 0 -4.37257e-07 -1.69337e-07 -1.23233e-06 4.25776e-06 3.82515e-06 5.90424e-06
internal_weight=0 334148 6369 327779 61170 61632 46009 5410 36746 266609 231166 15623 24424 27758 10945
internal_count=395780 334148 6369 327779 61170 61632 46009 5410 36746 266609 231166 15623 24424 27758 10945
is_linear=0
shrinkage=0.03


Tree=56
num_leaves=16
num_cat=0
split_feature=2 13 3 6 10 1 10 7 15 7 15 15 1 1 15
split_gain=0.000202381 0.000218128 0.000165157 9.03599e-05 7.87973e-05 3.30919e-05 0.000374771 0.000123171 7.45576e-05 5.52198e-05 3.63186e-05 2.95445e-05 7.24732e-06 2.3777e-06 1.39296e-07
threshold=12.469226276334622 -0.0048077486843932033 -0.0129799769812584 -61.886828514095981 0.0048906120803874423 215.4530914533874 0.0007280725323542365 9.8165891827832379 10.793897655972085 0.9119420341953498 3.7841751427965207 2.1225033157315303 83.643568003076666 480.4799567762376 4.4759856800246665
decision_type=6 4 6 6 6 6 6 6 6 6 6 6 6 6 6
left_child=12 2 3 4 -2 6 11 10 -9 -8 -7 -3 -1 -14 -4
right_child=1 5 14 -5 -6 7 9 8 -10 -11 -12 -13 13 -15 -16
leaf_value=0 5.9901451716432454e-06 0 0 0 0 0 0 6.8663389583552415e-07 4.345044242536028e-06 -2.9429267194285613e-06 -1.1991010076184512e-06 1.559449945574163e-06 -4.335482261143156e-07 -1.6967635597777214e-06 1.4042051930512137e-07
leaf_weight=58 15174 9430 7030 1442 590 84107 3574 64050 8853 37089 24898 41589 45643 46308 6356
leaf_count=58 15174 9430 7030 1442 590 84107 3574 64050 8853 37089 24898 41589 45643 46308 6356
internal_value=0 4.00942e-07 2.82211e-06 4.77468e-06 5.48096e-06 7.53692e-08 -3.09831e-07 3.51971e-07 1.33675e-06 -2.58409e-06 -1.6906e-07 1.20882e-06 -1.20338e-06 -1.23287e-06 0
internal_weight=0 304182 30592 17206 15764 273590 91682 181908 72903 40663 109005 51019 92009 91951 13386
internal_count=396191 304182 30592 17206 15764 273590 91682 181908 72903 40663 109005 51019 92009 91951 13386
is_linear=0
shrinkage=0.03


Tree=57
num_leaves=19
num_cat=0
split_feature=10 12 1 11 9 6 12 15 2 1 1 8 14 12 13 12 4 4
split_gain=0.000244202 0.00043975 0.0001008 0.00020619 0.000184118 0.000142855 0.000138727 9.51662e-05 0.000455405 7.41441e-05 7.88593e-05 7.03527e-05 3.45959e-05 2.9268e-05 8.93858e-06 1.70995e-06 1.77596e-07 2.23502e-05
threshold=-0.0040083057541636935 -1.3065659371863767 218.80800665074435 -0.00046384993949019697 0.026666666666471887 39.802221604509249 0.23598985975310519 6.1949585634530839 15.083352909856973 127.26378748043116 229.43198617201276 -0.29694348050345071 1.0006959390993104 0.10532164226911835 0.0033957289476957008 -0.099581798806031005 22.891769339299046 53.110917175805291
decision_type=6 6 6 6 6 4 4 6 6 6 6 6 6 6 6 6 6 6
left_child=1 7 5 16 -5 -2 15 -1 -9 13 11 -11 -6 -3 -12 -7 -4 -18
right_child=2 9 3 4 12 6 -8 8 -10 10 14 -13 -14 -15 -16 -17 17 -19
leaf_value=0 0 3.8928825755754187e-06 0 -5.0474219060089148e-07 0 0 -4.0362179511076858e-06 0 2.6268887110127253e-05 0 0 3.7272484843812036e-06 1.8745915041820148e-06 0 -2.1365112491545723e-06 -2.8092873836950636e-07 -1.6790990548359361e-06 0
leaf_weight=2449 58533 8051 22116 54762 17846 1331 24009 966 1498 3404 40005 9271 69888 1285 2958 19498 50767 6760
leaf_count=2449 58533 8051 22116 54762 17846 1331 24009 966 1498 3404 40005 9271 69888 1285 2958 19498 50767 6760
internal_value=0 1.57224e-06 -3.80067e-07 0 6.6338e-07 -1.15432e-06 -2.43703e-06 1.04776e-05 1.59228e-05 6.67709e-07 0 2.27318e-06 1.56346e-06 3.20129e-06 -3.56703e-07 0 -1.24202e-06 -1.46234e-06
internal_weight=0 69887 325510 222139 142496 103371 44838 4913 2464 64974 55638 12675 87734 9336 42963 20829 79643 57527
internal_count=395397 69887 325510 222139 142496 103371 44838 4913 2464 64974 55638 12675 87734 9336 42963 20829 79643 57527
is_linear=0
shrinkage=0.03


Tree=58
num_leaves=11
num_cat=0
split_feature=3 2 12 2 12 12 9 7 14 7
split_gain=0.000140565 0.000163385 0.000158539 5.0709e-05 4.02749e-05 0.000226278 9.43825e-06 2.68737e-06 8.44798e-06 2.04461e-06
threshold=0.30094477193685304 12.688203339453667 0.49220037216246576 11.391186573650733 -0.11341209721320021 -0.59364912491438593 -10.328333333333431 44.750733732215913 1.0016892783641504 -6.8687110306677974
decision_type=6 6 4 4 6 6 4 6 6 6
left_child=1 3 4 7 5 -3 -2 8 -1 -4
right_child=6 2 9 -5 -6 -7 -8 -9 -10 -11
leaf_value=-5.1818818635129802e-07 0 4.1942058098555708e-06 0 -2.2533925809912882e-06 3.7325436236281955e-07 3.6740840961110084e-07 -3.2207955385054807e-06 0 0 -1.6064501401049963e-06
leaf_weight=51425 68 21083 628 22585 168964 76215 12165 3243 15507 24312
leaf_count=51425 68 21083 628 22585 168964 76215 12165 3243 15507 24312
internal_value=0 1.51912e-07 5.34089e-07 -8.86141e-07 7.86831e-07 1.35085e-06 -3.10187e-06 -2.3231e-07 -3.04495e-07 -1.56267e-06
internal_weight=0 383962 291202 92760 266262 97298 12233 70175 66932 24940
internal_count=396195 383962 291202 92760 266262 97298 12233 70175 66932 24940
is_linear=0
shrinkage=0.03


Tree=59
num_leaves=11
num_cat=0
split_feature=11 5 5 5 0 6 13 0 5 6
split_gain=0.00377952 0.000505128 0.000382847 0.000233218 9.5426e-05 0.000255809 0.000133781 4.87814e-05 1.1996e-05 3.74283e-08
threshold=-0.044649566464376324 0.241627320762035 -0.36909750164299732 -0.60899839743197492 1129.3394861111096 -0.60818956704234006 -0.0015637491645760066 405.585636439398 -0.97045545023894408 -9.2356516296903539
decision_type=4 6 6 6 6 6 6 6 6 6
left_child=1 2 8 -2 6 9 -5 -8 -1 -6
right_child=3 -3 -4 4 5 -7 7 -9 -10 -11
leaf_value=4.5844428838818341e-05 -2.000563471724946e-06 0 0 1.0161754830733465e-06 -1.2859554811997835e-07 8.3695607986411122e-06 -8.2263000907577936e-07 0 0 0
leaf_weight=1988 59723 226 257 75743 2035 4505 127804 123133 241 122
leaf_count=1988 59723 226 257 75743 2035 4505 127804 123133 241 122
internal_value=0 3.52506e-05 3.92199e-05 -2.72271e-07 0 3.58161e-06 -3.4911e-08 -4.11953e-07 4.32416e-05 0
internal_weight=0 2712 2486 393065 333342 6662 326680 250937 2229 2157
internal_count=395777 2712 2486 393065 333342 6662 326680 250937 2229 2157
is_linear=0
shrinkage=0.03


Tree=60
num_leaves=13
num_cat=0
split_feature=14 3 5 7 15 10 14 3 2 3 11 11
split_gain=0.000193257 0.00010081 0.00039106 9.29069e-05 8.54032e-05 7.47906e-05 4.31289e-05 5.46574e-05 3.51252e-05 4.85433e-06 4.71646e-06 1.50409e-06
threshold=1.0090124681737722 0.19569973296484622 1.286736111113129 27.401113776059017 2.3080461957275991 0.0025936674359100741 0.99785460044822649 -0.052416573970997228 32.083689861922416 0.078865418118450256 0.0040864278591957954 -0.0097951642330462631
decision_type=4 6 6 6 4 6 6 6 6 4 6 4
left_child=1 2 6 11 -2 -6 7 -1 10 -8 -3 -4
right_child=4 8 3 -5 5 -7 9 -9 -10 -11 -12 -13
leaf_value=1.5559512812948306e-06 0 -2.7017411536360298e-06 0 6.2327374115652386e-06 0 -6.3583060495201943e-06 -2.6516863496252245e-07 0 0 0 0 7.6318884929893471e-07
leaf_weight=31892 1754 14524 1891 11695 1737 7786 215626 52479 2518 34955 8252 10878
leaf_count=31892 1754 14524 1891 11695 1737 7786 215626 52479 2518 34955 8252 10878
internal_value=0 9.19393e-08 2.57367e-07 3.91899e-06 -3.89005e-06 -5.09791e-06 0 5.76311e-07 -1.66556e-06 -2.07536e-07 -2.11391e-06 6.24673e-07
internal_weight=0 384710 359416 24464 11277 9523 334952 84371 25294 250581 22776 12769
internal_count=395987 384710 359416 24464 11277 9523 334952 84371 25294 250581 22776 12769
is_linear=0
shrinkage=0.03


Tree=61
num_leaves=17
num_cat=0
split_feature=2 14 15 6 0 7 15 2 4 7 13 13 3 4 15 15
split_gain=0.000191658 0.000271977 8.85059e-05 7.34695e-05 5.95482e-05 7.00785e-05 4.36982e-05 3.49764e-05 2.43407e-05 1.10562e-05 1.06145e-05 1.11839e-05 1.03828e-05 1.00456e-05 3.13647e-06 3.12173e-05
threshold=13.84801645827501 0.99601340260113458 1.2059352605779261 -53.445169379872176 446.57621360022603 13.678771645256273 2.5170910371306676 39.607486365497685 27.367116517254797 10.605959196898569 -0.0015469844674231589 0.005232654936905624 -0.36842105263157449 21.425597330167182 0.87184451325568124 2.716724770382807
decision_type=6 6 6 6 4 6 6 6 6 6 4 6 6 6 6 6
left_child=4 3 10 14 8 9 -4 -8 13 -6 -3 -12 -10 -1 -2 -16
right_child=1 2 6 -5 5 -7 7 -9 12 -11 11 -13 -14 -15 15 -17
leaf_value=9.0464128180554053e-07 0 0 9.7820496214219503e-07 0 -2.2972939338033179e-06 0 -2.4770991475240845e-07 8.6264657593103254e-07 0 0 -1.4168321590260971e-06 0 -1.266546282172137e-06 0 1.7659546338900013e-07 4.5231989807664931e-06
leaf_weight=16831 1082 6593 78424 4761 41969 22802 88628 34991 541 2811 33054 1503 16528 14823 10127 20452
leaf_count=16831 1082 6593 78424 4761 41969 22802 88628 34991 541 2811 33054 1503 16528 14823 10127 20452
internal_value=0 5.34119e-07 1.0729e-07 2.97211e-06 -9.03248e-07 -1.48223e-06 4.20445e-07 0 0 -2.1735e-06 -1.06572e-06 -1.27627e-06 -1.00295e-06 3.8674e-07 3.5e-06 3.57432e-06
internal_weight=0 279615 243193 36422 116305 67582 202043 123619 48723 44780 41150 34557 17069 31654 31661 30579
internal_count=395920 279615 243193 36422 116305 67582 202043 123619 48723 44780 41150 34557 17069 31654 31661 30579
is_linear=0
shrinkage=0.03


Tree=62
num_leaves=13
num_cat=0
split_feature=8 15 4 12 5 3 4 1 1 8 6 3
split_gain=0.000370214 0.00037664 0.000267092 0.000195647 0.00023971 0.000126059 0.000118761 0.000112444 3.21797e-05 7.68307e-05 6.40958e-05 4.69596e-06
threshold=-0.68400096518306075 3.1487904187185842 35.65256285204125 0.83434846505769944 1.1526813253710204 -0.007000000000002159 40.44339698030263 534.96043333398904 1154.5159424497726 -0.026647282644898431 -143.80166688287537 0.0042358059016194003
decision_type=4 6 6 4 6 6 6 6 4 6 6 6
left_child=1 -1 -3 4 8 -5 11 -6 10 -10 -2 -7
right_child=3 2 -4 5 7 6 -8 -9 9 -11 -12 -13
leaf_value=0 1.1640650463246468e-06 0 1.8642796230040944e-05 0 0 0 0 3.5549869847056137e-06 -5.2343847002589424e-06 0 -2.1262424358444254e-07 -7.9438285684650325e-06
leaf_weight=1050 32596 1613 2625 3664 4943 475 2659 24794 3742 1810 309683 6329
leaf_count=1050 32596 1613 2625 3664 4943 475 2659 24794 3742 1810 309683 6329
internal_value=0 7.94196e-06 1.25953e-05 -2.56447e-08 6.06691e-08 -3.6504e-06 -5.52e-06 2.67104e-06 -1.19388e-07 -2.45351e-06 -3.76893e-08 -7.62098e-06
internal_weight=0 5288 4238 390695 377568 13127 9463 29737 347831 5552 342279 6804
internal_count=395983 5288 4238 390695 377568 13127 9463 29737 347831 5552 342279 6804
is_linear=0
shrinkage=0.03


Tree=63
num_leaves=18
num_cat=0
split_feature=10 1 7 15 13 5 0 4 4 5 0 1 13 5 1 15 3
