tree
version=v4
num_class=1
num_tree_per_iteration=1
label_index=0
max_feature_idx=15
objective=regression
feature_names=Column_0 Column_1 Column_2 Column_3 Column_4 Column_5 Column_6 Column_7 Column_8 Column_9 Column_10 Column_11 Column_12 Column_13 Column_14 Column_15
feature_infos=[0:0.38398299999999969] [0:0.38443264201813693] [0:93.734765948450701] [-1:1] [0:96.226182723300724] [-0.0058714102564113024:0.12999537820512819] [-466.66666666686888:466.6666666667744] [-92.084989756688344:100] [-3.3055667900138759:116.66666666666667] [-0.011620000000000019:0.26000000000000001] [-0.098791469123603509:4.0943445622221004] [-0.14559852898441347:0.12822149760159612] [-12.413573085846764:12.98572091833352] [-0.12413573085846767:0.12985720918333515] [0:1.1298572091833352] [0:0.018642142857142857]
tree_sizes=2473 1390 2020 1716 1606 1717 1640 1939 1633 1833

Tree=0
num_leaves=23
num_cat=0
split_feature=10 13 10 1 6 12 3 6 1 2 9 8 2 2 12 7 2 2 5 15 2 2
split_gain=0.00199822 0.0013365 0.00100516 0.00085924 0.000910711 0.000734793 0.000680105 0.00048717 0.000391095 0.00031198 0.00021387 0.000199752 0.00107057 9.07504e-05 5.14941e-05 0.000397896 3.94469e-05 0.000179834 1.67012e-05 2.82749e-06 1.26053e-07 3.8845e-08
threshold=0.0069387484517313283 -0.0078805692348353894 0.00043007100765325864 0.24952657167156114 -56.651052623722897 -0.21766572117200564 0.15537280701755266 63.682636752541846 0.073261235957805482 13.233183653064357 2.0999999999996719e-05 0.16534314243022633 11.774885462048223 61.369140636127376 -0.30157452509975141 3.7363505347841399 35.307341621925339 15.75740149018266 -4.0384615742489189e-07 0.00039894561163346457 10.857801156339876 11.810609823386326
decision_type=6 4 4 6 6 4 6 4 6 6 4 6 6 6 6 6 6 6 6 6 6 6
left_child=1 8 3 13 -5 14 7 -4 19 21 -8 16 20 -3 15 -2 17 -7 -11 -1 -13 -10
right_child=5 2 6 4 -6 11 10 -9 9 18 -12 12 -14 -15 -16 -17 -18 -19 -20 -21 -22 -23
leaf_value=-3.6082146035797256e-05 -1.0903558739492947e-05 -3.6321564456393999e-05 -3.8127141307438023e-05 -5.3330031355500003e-05 -3.6082146035797256e-05 -3.0260746609464257e-05 -3.6082146035797256e-05 -3.4392144840173111e-05 -3.6082146035797256e-05 -1.6603434348520445e-05 -2.9037675990858789e-05 -3.5899398846645906e-05 -5.0459612036469356e-05 -3.8808025111224683e-05 -3.6082146035797256e-05 -3.6082146035797256e-05 -4.121987493920053e-05 -4.2070142767100675e-05 -3.6082146035797256e-05 -3.4736135609097567e-05 -3.6082146035797256e-05 -3.5865954705132702e-05
leaf_weight=3968 722 112459 38191 6358 7436 2442 9599 133156 2328 5263 25526 3395 16284 19211 511 1242 1697 2202 846 1778 991 746
leaf_count=3968 722 112459 38191 6358 7436 2442 9599 133156 2328 5263 25526 3395 16284 19211 511 1242 1697 2202 846 1778 991 746
internal_value=-3.60821e-05 -3.53945e-05 -3.58115e-05 -3.76697e-05 -4.48987e-05 -4.35074e-05 -3.44297e-05 -3.53122e-05 -2.65716e-05 -2.24702e-05 -3.05518e-05 -4.51732e-05 -4.68638e-05 -3.67983e-05 -3.13899e-05 -2.89188e-05 -3.72959e-05 -3.60821e-05 -1.80701e-05 -3.57382e-05 -3.60821e-05 -3.60821e-05
internal_weight=0 366865 351936 145464 13794 29486 206472 171347 14929 9183 35125 27011 20670 131670 2475 1964 6341 4644 6109 5746 4386 3074
internal_count=396351 366865 351936 145464 13794 29486 206472 171347 14929 9183 35125 27011 20670 131670 2475 1964 6341 4644 6109 5746 4386 3074
is_linear=0
shrinkage=1


Tree=1
num_leaves=13
num_cat=0
split_feature=12 10 6 15 1 4 2 2 15 8 10 10
split_gain=0.00375903 0.00392126 0.00192062 0.00196197 0.00156893 0.000522257 0.000501269 0.000338902 0.000229325 0.000184963 5.58235e-05 5.42826e-05
threshold=-0.8291914163295776 0.013203962223580267 101.65572514130086 0.00026894362660904292 0.0415108895662692 31.914008494444577 16.441638190192759 9.9041987110388501 0.00023734180678001648 -0.026113289478408887 -0.0031412841595021695 -0.0053641207677239643
decision_type=4 6 6 6 6 6 6 6 6 6 6 4
left_child=8 2 3 11 -3 -6 9 -5 -1 -4 -8 -2
right_child=1 4 6 7 5 -7 10 -9 -10 -11 -12 -13
leaf_value=0 3.5028874936142287e-06 0 5.8549814232536778e-07 -7.7236343840053154e-06 -5.347868499902895e-06 -3.3226336439710682e-05 0 -2.9335781870382507e-06 1.6994696493116443e-05 1.0778815984724148e-05 2.3550664469166715e-06 6.1308325260548099e-07
leaf_weight=1929 9008 1685 5384 23020 2330 4932 1487 93075 12071 17477 22126 201649
leaf_count=1929 9008 1685 5384 23020 2330 4932 1487 93075 12071 17477 22126 201649
internal_value=0 -5.1814e-07 -7.34636e-09 -8.58971e-07 -2.01451e-05 -2.63505e-05 5.65734e-06 -4.0127e-06 1.53065e-05 9.03453e-06 1.75202e-06 8.07893e-07
internal_weight=0 382173 373226 326752 8947 7262 46474 116095 14000 22861 23613 210657
internal_count=396173 382173 373226 326752 8947 7262 46474 116095 14000 22861 23613 210657
is_linear=0
shrinkage=0.03


Tree=2
num_leaves=21
num_cat=0
split_feature=0 11 10 3 12 15 6 0 11 8 10 15 4 3 4 6 8 1 9 4
split_gain=0.000782529 0.00160522 0.00201682 0.000564415 0.000632076 0.000679524 0.000558421 0.000621509 0.000419829 0.000317384 0.00020012 0.000230074 0.000128577 5.94626e-05 4.78695e-05 5.36915e-05 4.5128e-05 2.59247e-05 5.48223e-06 2.43898e-07
threshold=0.042453774999997793 0.015354015283071995 0.011628800305165341 0.047817047817066798 -0.42846435879542172 0.00030121708457165529 1.2801757038350325 0.083131580555553114 0.013407119875609393 -0.10243236877869662 0.00091335609669043955 0.00037009455318809121 30.168883261290496 -0.33333333333504872 35.860829994669196 84.611409624521642 0.084491618323352238 0.086320158307116604 5.9999999999942051e-05 22.951077727779392
decision_type=6 4 6 4 6 6 6 6 4 6 6 6 6 4 6 6 6 6 4 6
left_child=8 3 10 4 12 -6 17 -8 13 -4 16 -12 -2 -1 18 -16 -3 -5 -10 -20
right_child=1 2 9 6 5 -7 7 -9 14 -11 11 -13 -14 -15 15 -17 -18 -19 19 -21
leaf_value=0 0 1.7358983250563721e-05 0 0 0 -4.8854974501080762e-06 0 5.7893214724651132e-06 0 -2.1919503647687423e-05 -8.6618445759163078e-06 0 4.75276396307016e-06 5.3700935169471313e-06 0 -6.8665126693548936e-06 0 -1.5750830555859069e-06 9.7593558454838285e-07 0
leaf_weight=7059 9246 658 234 16149 51684 55664 22395 36489 743 7804 3049 5676 12546 29876 2015 1179 77 25422 107969 684
leaf_count=7059 9246 658 234 16149 51684 55664 22395 36489 743 7804 3049 5676 12546 29876 2015 1179 77 25422 107969 684
internal_value=0 -9.30235e-07 -9.70926e-06 -1.95753e-07 -1.56408e-06 -2.58452e-06 1.41398e-06 3.35718e-06 1.81434e-06 -2.07594e-05 0 -1.58205e-06 2.77415e-06 4.67738e-06 7.41835e-07 -1.51759e-06 1.46541e-05 -9.77728e-07 9.44944e-07 9.7182e-07
internal_weight=0 247093 17498 229595 129140 107348 100455 58884 149525 8038 9460 8725 21792 36935 112590 3194 735 41571 109396 108653
internal_count=396618 247093 17498 229595 129140 107348 100455 58884 149525 8038 9460 8725 21792 36935 112590 3194 735 41571 109396 108653
is_linear=0
shrinkage=0.03


Tree=3
num_leaves=17
num_cat=0
split_feature=13 11 6 0 5 4 1 6 7 15 11 14 2 2 9 15
split_gain=0.00203983 0.00292387 0.00160307 0.00164129 0.0015024 0.00128312 0.00098869 0.000896575 0.000445863 0.000213256 0.000179747 0.000117452 8.63259e-05 0.000514014 2.65559e-05 2.43636e-05
threshold=-0.010675191908330212 0.015963014033816027 62.324274730285381 0.13780312499999817 0.00010006089743086131 31.914008494444577 0.067206681261983744 -90.611868141705358 -5.2255742247308072 0.0007438818478211225 -0.00027529065160483555 1.0169027571236509 71.709065480554159 11.19481064398958 0.00026650000000004453 0.00028941550365978056
decision_type=4 6 4 4 6 4 6 6 6 6 4 4 6 6 6 6
left_child=6 2 3 9 8 11 -1 -5 -3 -2 -7 -4 13 -6 -10 -8
right_child=1 4 5 7 12 10 15 -9 14 -11 -12 -13 -14 -15 -16 -17
leaf_value=0 3.3439511792890392e-07 2.0110937884553094e-05 6.9509938823602216e-06 -1.135534880426854e-05 0 -2.1858563271627156e-06 0 -2.7236538707227055e-06 0 -8.4947000802606782e-06 1.1113816902215507e-06 0 0 -2.0629664899296572e-05 -5.8461816577419381e-06 2.3388739380600199e-05
leaf_weight=3024 122235 881 42697 20036 1873 14318 176 38428 3411 2471 127717 197 632 10754 1989 4908
leaf_count=3024 122235 881 42697 20036 1873 14318 176 38428 3411 2471 127717 197 632 10754 1989 4908
internal_value=0 -4.02441e-07 1.57744e-07 -1.78707e-06 -1.17218e-05 2.16516e-06 1.47907e-05 -5.93864e-06 0 3.90357e-08 6.73367e-07 6.75501e-06 -1.74484e-05 -1.80509e-05 -2.85876e-06 2.28865e-05
internal_weight=0 387639 368099 183170 19540 184929 8108 58464 6281 124706 142035 42894 13259 12627 5400 5084
internal_count=395747 387639 368099 183170 19540 184929 8108 58464 6281 124706 142035 42894 13259 12627 5400 5084
is_linear=0
shrinkage=0.03


Tree=4
num_leaves=16
num_cat=0
split_feature=12 11 6 5 0 7 6 1 1 5 0 8 5 9 12
split_gain=0.00115652 0.00537875 0.00205364 0.000928961 0.000753044 0.00157141 0.000626249 0.000570717 0.000361423 0.000299784 0.00025798 0.000116028 4.75181e-05 3.75077e-05 2.98549e-05
threshold=-0.65788688919626848 0.022561644394964105 105.77450635055293 6.6763354697099028e-05 0.17334075833333162 -28.601317157303523 -64.00329567349722 0.043073612925677594 0.083352433583067362 -0.00035253205128604742 0.17334075833333162 0.053631960901251136 0.000233051282048688 -0.00016549999999999202 0.041321639416747054
decision_type=4 6 6 6 6 6 6 6 6 6 6 6 6 6 6
left_child=6 2 4 13 7 -6 10 -2 12 -10 -1 -5 -4 -3 -15
right_child=1 3 8 11 5 -7 -8 -9 9 -11 -12 -13 -14 14 -16
leaf_value=1.1420166983064385e-05 1.4144463943679701e-06 0 2.5447516409847e-06 0 -2.0752249805738663e-05 -1.6956005494346237e-06 -2.5082682975085703e-06 -1.2970635448211071e-06 0 9.7379220816809056e-06 0 -2.8196515060450462e-05 0 0 -6.6281330607407457e-06
leaf_weight=13879 144244 384 17564 82 4761 37522 2850 134246 1274 24719 4406 7240 430 327 1378
leaf_count=13879 144244 384 17564 82 4761 37522 2850 134246 1274 24719 4406 7240 430 327 1378
internal_value=0 -2.07264e-07 3.3005e-07 -2.26222e-05 -4.60038e-07 -4.19697e-06 6.98913e-06 5.35026e-08 6.43248e-06 8.93312e-06 9.28982e-06 -2.77828e-05 1.9861e-06 0 -4.44697e-06
internal_weight=0 374171 364760 9411 320773 42283 21135 278490 43987 25993 18285 7322 17994 2089 1705
internal_count=395306 374171 364760 9411 320773 42283 21135 278490 43987 25993 18285 7322 17994 2089 1705
is_linear=0
shrinkage=0.03


Tree=5
num_leaves=17
num_cat=0
split_feature=3 11 8 0 7 12 13 6 4 10 4 12 1 6 6 1
split_gain=0.00053654 0.00195429 0.00101619 0.000612676 0.000578901 0.00058665 0.000535935 0.000462269 0.000450761 0.000364108 0.000346565 0.00014036 0.000123944 7.53868e-05 4.67427e-05 3.92889e-05
threshold=-0.16433566433570648 0.015963014033816027 -0.1073622678080496 0.1368904166666654 20.017822979808102 -0.54391298168042213 0.0076251999330823579 92.308438419051569 58.311500278548323 -0.025027432315069372 40.744612155731559 0.15651091290281863 0.043687491457618015 -168.05290155426621 45.696134162550955 0.2519827452224575
decision_type=4 6 6 6 6 4 4 6 6 6 6 6 6 6 6 6
left_child=3 4 11 13 5 9 15 14 -7 -2 -6 -3 -8 -1 -5 -4
right_child=1 2 6 7 10 8 12 -9 -10 -11 -12 -13 -14 -15 -16 -17
leaf_value=2.594795586273313e-06 2.878684174799657e-05 1.4858846298726372e-05 -7.1975606328714621e-06 -8.018570660380846e-06 6.453638349706492e-06 4.9174665068302325e-07 0 1.7298845003700438e-06 -3.7758509156554909e-06 3.7719305937393812e-06 0 0 -2.7262706579733488e-05 -8.0094860373929115e-07 0 0
leaf_weight=5416 843 914 7293 22636 25195 219798 1098 3231 24725 14023 6803 715 3533 54371 3988 1286
leaf_count=5416 843 914 7293 22636 25195 219798 1098 3231 24725 14023 6803 715 3533 54371 3988 1286
internal_value=0 3.57644e-07 -1.01781e-05 -2.26338e-06 9.45722e-07 4.12299e-07 -1.34105e-05 -5.80791e-06 0 6.203e-06 4.80082e-06 6.82239e-06 -2.3303e-05 -2.42375e-07 -7.28609e-06 -6.31826e-06
internal_weight=0 306226 14839 89642 291387 259389 13210 29855 244523 14866 31998 1629 4631 59787 26624 8579
internal_count=395868 306226 14839 89642 291387 259389 13210 29855 244523 14866 31998 1629 4631 59787 26624 8579
is_linear=0
shrinkage=0.03


Tree=6
num_leaves=16
num_cat=0
split_feature=13 15 3 10 11 4 4 2 12 4 8 4 15 4 4
split_gain=0.00190679 0.00153745 0.000686504 0.000517956 0.000523999 0.000338942 0.000226787 0.000203658 0.000127254 0.000229032 6.93792e-05 3.13963e-05 3.03123e-05 1.65989e-05 7.34577e-05
threshold=-0.0087548957747708312 0.00028636571193352408 0.13356876370577486 0.010130859013873296 -0.0034793325488953115 64.019625290897935 73.825313666753843 15.703134542925451 -0.018893616277215749 36.740788154182049 0.22983350468669289 73.485059871797461 0.00015487956795121518 34.138048307268015 17.348127232829949
decision_type=4 6 4 6 6 6 6 6 6 6 6 6 4 6 6
left_child=6 5 10 4 -4 8 13 -5 12 -10 11 -3 -2 14 -1
right_child=1 2 3 7 -6 -7 -8 -9 9 -11 -12 -13 -14 -15 -16
leaf_value=0 0 -3.0810024037597421e-06 -2.7114022127137256e-06 0 3.7639780510948033e-06 -2.6875287751038572e-06 0 -1.3438585819555714e-05 4.0010185119134812e-06 0 -7.7594267676568935e-06 -7.993940550299824e-06 9.9143638990022378e-07 1.7328816352364022e-05 6.696388761762467e-06
leaf_weight=329 26345 71017 16511 2463 28033 17576 1610 3334 41159 23617 13536 6082 133443 5779 4803
leaf_count=329 26345 71017 16511 2463 28033 17576 1610 3334 41159 23617 13536 6082 133443 5779 4803
internal_value=0 -3.60681e-07 -2.8802e-06 0 1.02702e-06 1.04427e-06 1.1535e-05 -8.502e-06 1.40317e-06 2.64382e-06 -4.4407e-06 -3.66331e-06 8.06321e-07 1.30916e-05 5.39359e-06
internal_weight=0 383116 140976 50341 44544 242140 12521 5797 224564 64776 90635 77099 159788 10911 5132
internal_count=395637 383116 140976 50341 44544 242140 12521 5797 224564 64776 90635 77099 159788 10911 5132
is_linear=0
shrinkage=0.03


Tree=7
num_leaves=19
num_cat=0
split_feature=14 15 8 6 4 1 14 3 1 15 2 10 8 8 2 6 6 15
split_gain=0.00246429 0.00126323 0.000794983 0.00120149 0.0015056 0.000666082 0.000775845 0.000511132 0.000324299 0.000199948 0.000108166 0.000337681 9.9197e-05 7.77014e-05 5.9328e-05 5.06312e-05 1.87025e-05 2.41642e-06
threshold=0.98986655897466713 0.00026691615922232837 0.41064334280333303 31.233956001652974 43.585951201399673 0.18226027257984231 1.0000255170093244 -0.0029112143193152609 0.086605874736008087 0.00049091597703698503 43.562094490155239 0.00023603480704957055 -0.013633839951608863 0.15376001916223384 18.303099807978107 -4.7409502343993264 20.700938266590711 0.00033849022121427888
decision_type=4 6 6 6 6 6 4 6 6 6 4 6 6 6 4 6 6 6
left_child=8 10 3 7 -5 6 -4 -3 9 -1 11 14 16 -14 -2 -13 -12 -10
right_child=1 2 5 4 -6 -7 -8 -9 17 -11 12 15 13 -15 -16 -17 -18 -19
leaf_value=0 -9.5691322202027225e-07 -6.2040802092342462e-06 0 4.1874158663330971e-06 -6.7698174069144608e-06 0 -2.1614649469815605e-05 -8.6221408903405067e-07 0 1.3700513405890297e-05 9.4259893343766778e-07 1.0085377281816202e-07 -2.1740582740267033e-06 4.8446071569013342e-07 1.2806090902699308e-06 4.7481637308315636e-06 0 2.367484076592454e-05
leaf_weight=3098 22084 48442 1471 45302 14407 2859 5323 35168 107 1689 120181 9800 20284 5440 20225 29660 6153 4169
leaf_count=3098 22084 48442 1471 45302 14407 2859 5323 35168 107 1689 120181 9800 20284 5440 20225 29660 6153 4169
internal_value=0 -3.08102e-07 -2.45732e-06 -1.77025e-06 1.29223e-06 -1.11022e-05 -1.62272e-05 -4.13666e-06 1.5512e-05 5.35743e-06 1.0338e-06 1.97622e-06 4.2835e-07 -1.02878e-06 0 3.97417e-06 8.43793e-07 2.3366e-05
internal_weight=0 386799 152972 143319 59709 9653 6794 83610 9063 4787 233827 81769 152058 25724 42309 39460 126334 4276
internal_count=395862 386799 152972 143319 59709 9653 6794 83610 9063 4787 233827 81769 152058 25724 42309 39460 126334 4276
is_linear=0
shrinkage=0.03


Tree=8
num_leaves=16
num_cat=0
split_feature=11 15 14 14 6 1 1 6 1 1 5 5 5 5 10
split_gain=0.00110767 0.000862324 0.000783228 0.000497552 0.000983817 0.000303562 0.000266808 0.000234639 0.000155972 5.55787e-05 2.49687e-05 0.000116484 2.20832e-05 1.99866e-05 3.85233e-07
threshold=-0.021909939358300715 0.00023925117091796698 0.99975177778331925 1.00801274452447 117.53956532096645 0.12535639733703682 0.038443517763789799 110.73064883135895 0.065897003394463027 0.070266481455742616 -4.8411858977998039e-05 -1.3998397437813002e-05 -1.97804487214806e-05 0.00012181730768802414 -0.00020228140579537683
decision_type=4 6 6 4 6 6 6 6 6 6 6 6 4 6 6
left_child=2 7 -1 4 8 6 -5 12 -3 -6 -9 -12 14 -14 -2
right_child=1 3 -4 5 9 -7 -8 10 -10 -11 11 -13 13 -15 -16
leaf_value=1.3949942267003733e-05 -5.7084129223472525e-08 -5.8663722533777685e-06 0 0 0 0 -1.5239999770097721e-05 0 -1.7071387879722857e-06 5.5487026618836359e-06 0 5.918150718523322e-06 6.061751124559294e-07 3.1321401901864349e-06 1.9336853834411855e-07
leaf_weight=8709 30457 13164 3270 778 723 4918 5457 1549 121404 16780 2065 13817 159012 6620 6616
leaf_count=8709 30457 13164 3270 778 723 4918 5457 1549 121404 16780 2065 13817 159012 6620 6616
internal_value=0 -1.57365e-07 9.09136e-06 -1.84319e-06 -1.27643e-06 -8.22456e-06 -1.28369e-05 1.02449e-06 -2.22556e-06 5.16323e-06 4.52338e-06 4.8858e-06 6.4957e-07 7.97731e-07 0
internal_weight=0 383360 11979 163224 152071 11153 6235 220136 134568 17503 17431 15882 202705 165632 37073
internal_count=395339 383360 11979 163224 152071 11153 6235 220136 134568 17503 17431 15882 202705 165632 37073
is_linear=0
shrinkage=0.03


Tree=9
num_leaves=18
num_cat=0
split_feature=4 11 8 6 1 11 6 15 15 1 14 6 13 2 8 13 8
split_gain=0.000892057 0.00124734 0.00251543 0.00121124 0.00101477 0.00171837 0.000801369 0.000523386 0.000504071 0.00047148 0.000393028 0.000122853 0.000105564 9.44248e-05 7.36641e-05 5.77972e-05 2.46017e-05
threshold=59.756539286772934 0.02203532640743696 -0.051829615861474394 77.598679037407834 0.17335361443959982 -0.012252966438132323 -87.376484789604646 0.0003336740996198928 0.0010347997287730223 0.042746230896657411 0.99321625279011461 -0.61083360483011229 0.0015811871455390176 9.0049162239852762 -0.069775242689190137 0.0002817636004639896 -0.21781380971643968
decision_type=6 6 6 6 6 4 6 6 6 6 6 6 6 6 6 4 6
left_child=1 3 7 4 5 -1 -6 -3 13 -4 14 -12 -9 -5 16 -11 -2
right_child=10 2 9 8 6 -7 -8 12 -10 15 11 -13 -14 -15 -16 -17 -18
leaf_value=1.0054643482947002e-05 7.7241911735468425e-06 0 0 7.7713047122090162e-06 -1.0061232363224579e-05 4.2922466355189272e-08 -6.126583776143733e-07 4.7417627054994975e-05 1.7455625891755698e-05 -9.5796155356946126e-07 -1.5002155817634979e-06 -6.7688149177854326e-06 0 2.6873127944024907e-06 0 -2.4847625545749919e-05 0
leaf_weight=16831 1960 253 1384 8822 14507 224744 27118 583 3322 1525 15201 23917 392 48559 1392 4781 939
leaf_count=16831 1960 253 1384 8822 14507 224744 27118 583 3322 1525 15201 23917 392 48559 1392 4781 939
internal_value=0 5.54647e-07 -1.0393e-05 8.82214e-07 4.60008e-09 8.02628e-07 -4.26631e-06 2.46813e-05 4.72935e-06 -1.7949e-05 -3.9996e-06 -5.10509e-06 3.53419e-05 3.73059e-06 2.58198e-06 -2.14504e-05 5.72004e-06
internal_weight=0 352821 8918 343903 283200 241575 41625 1228 60703 7690 43409 39118 975 57381 4291 6306 2899
internal_count=396230 352821 8918 343903 283200 241575 41625 1228 60703 7690 43409 39118 975 57381 4291 6306 2899
is_linear=0
shrinkage=0.03


end of trees

feature_importances:
Column_6=20
Column_1=17
Column_2=15
Column_4=15
Column_15=15
Column_8=13
Column_10=11
Column_11=10
Column_5=9
Column_12=9
Column_0=6
Column_3=6
Column_13=6
Column_14=6
Column_7=4
Column_9=4

parameters:
[boosting: gbdt]
[objective: regression]
[metric: rmse]
[tree_learner: serial]
[device_type: cpu]
[data_sample_strategy: bagging]
[data: ]
[valid: ]
[num_iterations: 100]
[learning_rate: 0.03]
[num_leaves: 31]
[num_threads: 0]
[seed: 17]
[deterministic: 0]
[force_col_wise: 0]
[force_row_wise: 0]
[histogram_pool_size: -1]
[max_depth: 5]
[min_data_in_leaf: 50]
[min_sum_hessian_in_leaf: 0.001]
[bagging_fraction: 0.7]
[pos_bagging_fraction: 1]
[neg_bagging_fraction: 1]
[bagging_freq: 1]
[bagging_seed: 17]
[feature_fraction: 1]
[feature_fraction_bynode: 1]
[feature_fraction_seed: 17]
[extra_trees: 1]
[extra_seed: 17]
[early_stopping_round: 50]
[first_metric_only: 1]
[max_delta_step: 0]
[lambda_l1: 0.5]
[lambda_l2: 2]
[linear_lambda: 0]
[min_gain_to_split: 0]
[drop_rate: 0.1]
[max_drop: 50]
[skip_drop: 0.5]
[xgboost_dart_mode: 0]
[uniform_drop: 0]
[drop_seed: 17]
[top_rate: 0.2]
[other_rate: 0.1]
[min_data_per_group: 100]
[max_cat_threshold: 32]
[cat_l2: 10]
[cat_smooth: 10]
[max_cat_to_onehot: 4]
[top_k: 20]
[monotone_constraints: ]
[monotone_constraints_method: basic]
[monotone_penalty: 0]
[feature_contri: ]
[forcedsplits_filename: ]
[refit_decay_rate: 0.9]
[cegb_tradeoff: 1]
[cegb_penalty_split: 0]
[cegb_penalty_feature_lazy: ]
[cegb_penalty_feature_coupled: ]
[path_smooth: 0]
[interaction_constraints: ]
[verbosity: -1]
[saved_feature_importance_type: 0]
[use_quantized_grad: 0]
[num_grad_quant_bins: 4]
[quant_train_renew_leaf: 0]
[stochastic_rounding: 1]
[linear_tree: 0]
[max_bin: 600]
[max_bin_by_feature: ]
[min_data_in_bin: 3]
[bin_construct_sample_cnt: 200000]
[data_random_seed: 17]
[is_enable_sparse: 1]
[enable_bundle: 1]
[use_missing: 1]
[zero_as_missing: 1]
[feature_pre_filter: 1]
[pre_partition: 0]
[two_round: 0]
[header: 0]
[label_column: ]
[weight_column: ]
[group_column: ]
[ignore_column: ]
[categorical_feature: ]
[forcedbins_filename: ]
[precise_float_parser: 0]
[parser_config_file: ]
[objective_seed: 20363]
[num_class: 1]
[is_unbalance: 0]
[scale_pos_weight: 1]
[sigmoid: 1]
[boost_from_average: 1]
[reg_sqrt: 0]
[alpha: 0.9]
[fair_c: 1]
[poisson_max_delta_step: 0.7]
[tweedie_variance_power: 1.5]
[lambdarank_truncation_level: 30]
[lambdarank_norm: 1]
[label_gain: ]
[lambdarank_position_bias_regularization: 0]
[eval_at: ]
[multi_error_top_k: 1]
[auc_mu_weights: ]
[num_machines: 1]
[local_listen_port: 12400]
[time_out: 120]
[machine_list_filename: ]
[machines: ]
[gpu_platform_id: -1]
[gpu_device_id: -1]
[gpu_use_dp: 0]
[num_gpu: 1]

end of parameters

pandas_categorical:null
